svm_type c_svc
kernel_type rbf
gamma 0.047619
nr_class 2
total_sv 160
rho -0.561674
label 1 -1
nr_sv 109 51
SV
0.3442044780980663 1:244.2398 2:7.4944728e-006 3:2.4511267e-005 4:1.3254039e-005 5:5.0297619e-007 6:1.3639456e-006 7:-2.414966e-007 8:-1.5518707e-008 9:-3.4034864e-007 10:-1.1713435e-007 11:2.9336735e-008 12:-1.3860544e-007 13:1.3605442e-008 14:-3.6139456e-008 15:-5.6972789e-008 16:1.0204082e-008 17:-5.0382653e-008 18:-3.3588435e-008 19:-4.3579932e-008 20:-2.9761905e-009 
0.003441386491050545 1:196.85714 2:7.3048895e-005 3:4.5708759e-005 4:-1.5745323e-005 5:-4.2304422e-008 6:4.2636054e-006 7:1.0739796e-006 8:7.3767007e-007 9:-1.1222364e-006 10:-1.3371599e-007 11:-9.2091837e-007 12:-3.0654762e-007 13:3.579932e-007 14:-2.0089286e-007 15:-6.6390306e-007 16:-1.5603741e-007 17:-2.1258503e-009 18:-1.4795918e-007 19:8.5034014e-009 20:-1.9132653e-009 
0.002572931620902493 1:198.41327 2:8.8065901e-005 3:4.0280612e-006 4:-1.5688776e-005 5:4.289966e-007 6:2.2489371e-006 7:-3.2257653e-006 8:-1.7665816e-006 9:1.3456633e-007 10:1.0140306e-006 11:4.5089286e-007 12:2.6360544e-007 13:-1.8920068e-008 14:1.875e-007 15:-2.2661565e-007 16:2.869898e-008 17:-9.5663265e-009 18:-8.0144558e-008 19:1.3392857e-008 20:8.9285714e-009 
0.008459552129117772 1:191.42347 2:-5.9381803e-005 3:5.5765306e-006 4:5.443006e-005 5:1.1941539e-005 6:5.0127551e-006 7:1.3751488e-005 8:-2.9166667e-007 9:6.8239796e-008 10:-6.4477041e-007 11:-5.2763605e-007 12:-1.6660289e-006 13:4.6492347e-007 14:3.5501701e-007 15:3.9115646e-008 16:-9.9596088e-007 17:1.9005102e-007 18:3.1781463e-007 19:7.8656463e-009 20:-2.1258503e-009 
0.05187920995620997 1:198.21939 2:-1.3639031e-005 3:-2.3281675e-005 4:2.366943e-005 5:9.5729167e-006 6:-7.4946854e-006 7:-1.5979379e-005 8:2.5104379e-005 9:7.036352e-006 10:-7.5633503e-006 11:-3.8031463e-007 12:2.4553571e-007 13:1.6020408e-006 14:-9.2304422e-007 15:2.8358844e-007 16:-2.4255952e-007 17:-1.2636054e-006 18:-2.315051e-007 19:1.9876701e-007 20:3.5714286e-008 
0.001430551168985573 1:197.22449 2:5.0864583e-005 3:3.1835459e-005 4:1.5445153e-005 5:-5.2514881e-006 6:2.013818e-006 7:-1.2000425e-006 8:-2.1789966e-007 9:2.6466837e-007 10:-2.5659014e-007 11:-2.1045918e-007 12:-2.5807823e-007 13:2.954932e-008 14:2.8911565e-008 15:-1.1054422e-007 16:2.3809524e-008 17:-5.5484694e-008 18:-4.2517007e-008 19:2.4447279e-008 20:-1.2755102e-009 
0.01833183869803345 1:197.31633 2:2.0957908e-005 3:-2.926233e-006 4:-4.2268282e-006 5:2.6256378e-006 6:-1.0104167e-006 7:2.0471939e-007 8:1.2468112e-006 9:-4.8469388e-007 10:2.4234694e-008 11:5.1084184e-007 12:-2.0195578e-007 13:2.2002551e-007 14:8.2908163e-009 15:-2.6147959e-008 16:1.1267007e-007 17:-5.8035714e-008 18:-1.3180272e-007 19:2.8486395e-008 20:4.8894558e-009 
0.4366940064266371 1:220.12245 2:4.523767e-005 3:3.5406675e-005 4:8.6249787e-005 5:-3.9325255e-005 6:2.1316964e-005 7:1.7200468e-005 8:-1.5896684e-005 9:2.9130527e-006 10:-6.8669218e-006 11:1.1866497e-006 12:1.0693027e-007 13:5.002551e-006 14:4.1666667e-007 15:-4.3983844e-007 16:-6.0055272e-007 17:1.5571854e-006 18:4.1560374e-007 19:2.7848639e-008 20:-1.0395408e-007 
0.9866310108137502 1:145.11735 2:1.0056335e-005 3:2.9318665e-005 4:-2.6153912e-005 5:4.808057e-005 6:5.7206633e-006 7:-3.0533588e-006 8:-7.8443878e-007 9:-3.0698129e-005 10:3.6532951e-005 11:7.2937925e-007 12:2.0665391e-006 13:-4.286352e-006 14:9.7999575e-006 15:3.6715561e-006 16:1.6488095e-006 17:-2.5652636e-006 18:-8.7338435e-006 19:-3.7872024e-006 20:6.079932e-008 
0.1032911992781767 1:149.02041 2:1.139881e-006 3:-1.0208121e-005 4:-3.0888605e-006 5:-8.4827806e-006 6:2.6073554e-006 7:5.4243197e-006 8:8.3565051e-006 9:1.6833971e-005 10:-3.7748724e-006 11:-1.0382653e-006 12:8.8265306e-007 13:7.3218537e-006 14:-4.105017e-007 15:3.5191327e-006 16:5.7002551e-006 17:1.9385629e-006 18:-5.5201956e-006 19:1.2366071e-006 20:-1.2287415e-007 
0.6680394253399252 1:149.69898 2:9.9582483e-005 3:-3.1823554e-005 4:2.1793367e-005 5:0.00011341497 6:-8.1387968e-005 7:-3.7653912e-005 8:9.9185799e-006 9:9.5519983e-005 10:0.00016021492 11:9.5537202e-005 12:-0.00011177657 13:1.9265944e-005 14:7.0510204e-006 15:2.8149235e-005 16:-0.00028068304 17:-0.00014351935 18:-1.618006e-005 19:-3.8345876e-005 20:3.0994898e-007 
1 1:140.4949 2:5.9690051e-005 3:0.00018452445 4:0.00034195429 5:-4.078869e-005 6:-0.00038717134 7:0.00023535693 8:5.0510417e-005 9:-0.00027944048 10:-6.4817815e-005 11:9.4157313e-005 12:0.00013031675 13:5.4395833e-005 14:-3.7004039e-005 15:-6.288733e-005 16:0.00010462096 17:2.5192602e-005 18:8.7789328e-005 19:-4.0479592e-005 20:-2.7701956e-006 
0.01141636003813692 1:167.39796 2:-2.9528061e-006 3:8.7011054e-007 4:6.2548895e-006 5:4.2884779e-006 6:7.1832483e-007 7:1.4219813e-006 8:-4.2517007e-010 9:1.3010204e-007 10:-1.5429422e-006 11:-2.8533163e-006 12:3.286352e-006 13:6.0863095e-007 14:9.8660714e-007 15:-8.3545918e-008 16:-4.0306122e-007 17:-6.3690476e-007 18:-3.6118197e-007 19:-1.5837585e-007 20:-1.2117347e-008 
0.08964609144571629 1:204.45408 2:1.6263818e-005 3:7.0701531e-006 4:4.5718537e-006 5:2.0047194e-005 6:-8.5e-006 7:2.4640731e-006 8:1.1434949e-006 9:1.21875e-006 10:-1.1517857e-006 11:1.2372449e-007 12:-1.7644558e-008 13:4.2091837e-008 14:2.3320578e-007 15:5.1020408e-008 16:1.5454932e-007 17:-3.1462585e-008 18:-7.8869048e-008 19:1.9770408e-008 20:1.2755102e-009 
0.4380986925557148 1:265.7398 2:1.4033588e-005 3:-4.0658376e-005 4:-3.5705782e-006 5:8.966199e-006 6:-1.131824e-005 7:-2.0963648e-005 8:-9.5907738e-006 9:4.0586735e-006 10:-2.5875425e-005 11:4.4328231e-006 12:7.5255102e-008 13:-4.357568e-006 14:2.3031463e-006 15:-8.977466e-007 16:1.1673044e-006 17:-3.644983e-006 18:-1.1341412e-006 19:-2.4978741e-007 20:8.9519558e-007 
0.03030894506610128 1:172.66327 2:1.5101403e-005 3:2.872449e-006 4:3.764881e-005 5:-4.1816539e-005 6:-2.6176658e-005 7:1.7787415e-005 8:-3.355017e-006 9:-4.2097364e-005 10:-5.1135204e-006 11:1.4042304e-005 12:-6.9787415e-006 13:8.6862245e-007 14:-2.161352e-006 15:1.1035502e-005 16:9.6322279e-006 17:-1.517432e-006 18:2.9698129e-007 19:-1.789966e-007 20:1.2542517e-008 
0.05648151446867492 1:155.15306 2:2.9899447e-005 3:-6.108716e-005 4:-4.9783163e-005 5:-1.3504677e-005 6:-1.6455782e-005 7:-1.5966199e-005 8:4.7559524e-006 9:1.2987032e-005 10:-2.6490646e-005 11:7.5221088e-006 12:-2.6533588e-005 13:-1.053784e-006 14:-9.6082058e-006 15:3.0298044e-005 16:9.8916241e-005 17:-2.5281463e-005 18:2.2509566e-005 19:-6.7153486e-006 20:-9.9319728e-007 
0.1415788305678312 1:157.20918 2:-8.8380952e-005 3:1.3547619e-005 4:-2.1044218e-005 5:-4.861182e-006 6:2.5781675e-005 7:1.7061012e-005 8:1.5463223e-005 9:1.1183886e-005 10:1.0422406e-005 11:-1.8742347e-005 12:1.3569303e-005 13:3.243835e-006 14:8.622449e-007 15:-6.7969813e-006 16:-5.4453656e-006 17:1.0548682e-005 18:1.3792304e-005 19:9.5894983e-006 20:-9.8660714e-007 
0.002771255101887201 1:156.03571 2:9.5684524e-007 3:-7.1186224e-006 4:6.7175595e-005 5:5.6789966e-006 6:1.7669855e-005 7:1.0324405e-005 8:3.3971088e-007 9:-1.7166667e-005 10:-1.761267e-006 11:8.5263605e-006 12:-1.7132228e-006 13:-3.5244473e-006 14:1.8008078e-005 15:-2.2529974e-005 16:4.505506e-005 17:-6.4570578e-006 18:-7.5695153e-006 19:-2.9510204e-005 20:-9.0178571e-007 
0.02222471344534994 1:149.68367 2:8.0129464e-005 3:-7.4465561e-005 4:-7.9749575e-005 5:7.9230442e-006 6:-7.2210884e-005 7:6.7493622e-006 8:-1.1860119e-006 9:2.1834609e-005 10:-8.0480017e-005 11:-3.7463861e-005 12:1.6059736e-005 13:-2.5965136e-006 14:1.1988095e-005 15:1.0514031e-005 16:2.3494898e-005 17:-1.8029974e-005 18:8.122449e-006 19:-3.1523597e-005 20:1.5752551e-006 
0.04596578733397218 1:155.17347 2:-9.238244e-005 3:-8.0348639e-005 4:-5.8861182e-005 5:4.8815901e-006 6:-1.3778061e-005 7:-2.9223427e-005 8:-5.0342262e-006 9:4.8564838e-005 10:-3.6290179e-005 11:-1.3405187e-005 12:4.7534014e-007 13:7.2721088e-006 14:3.778699e-006 15:2.0056335e-005 16:5.0914116e-006 17:-1.7701956e-006 18:5.0549745e-005 19:-2.564307e-005 20:3.1526361e-007 
0.04297895902142595 1:172.87755 2:1.5848427e-005 3:7.6582058e-005 4:0.00017222024 5:-1.5609694e-005 6:1.8585884e-005 7:-2.4833333e-005 8:1.5136054e-007 9:-9.3794643e-006 10:-9.4606718e-006 11:-2.2505527e-005 12:-1.3424107e-005 13:6.5714286e-006 14:-2.3027211e-006 15:-1.3431122e-006 16:-1.7687075e-006 17:4.8256803e-008 18:5.3883929e-006 19:-4.4328231e-006 20:-1.3435374e-007 
0.2279917896791597 1:141.31633 2:2.8631378e-005 3:-9.883142e-005 4:-0.00019339477 5:8.3562925e-006 6:-8.8125e-006 7:-2.3964073e-005 8:2.3344388e-005 9:-2.1448129e-005 10:1.1360757e-005 11:-2.4183673e-006 12:2.6126701e-006 13:-3.3905187e-006 14:-1.9890519e-005 15:1.8940901e-005 16:-3.6201105e-006 17:-6.0510204e-006 18:4.8715986e-006 19:8.6730442e-006 20:-1.4117772e-006 
1 1:141.13776 2:-4.5173257e-005 3:-0.00013634779 4:7.7448129e-005 5:4.1445791e-005 6:-9.309375e-005 7:-9.1798469e-005 8:-1.4744898e-005 9:-1.0115646e-005 10:-4.3908588e-005 11:4.0380527e-006 12:-3.9894133e-005 13:1.4504039e-005 14:-2.0916454e-005 15:-1.1273597e-005 16:-8.5778699e-005 17:-4.1876913e-005 18:1.6638818e-005 19:1.4290391e-005 20:-1.9525935e-006 
0.001578827771867131 1:173.20918 2:-2.1711947e-005 3:2.845727e-005 4:0.0001233412 5:-9.9114583e-005 6:2.5004252e-006 7:-9.4727891e-006 8:1.3440264e-005 9:7.3505527e-006 10:2.5924745e-006 11:-4.221301e-006 12:4.0590986e-006 13:-1.8841412e-006 14:7.2427721e-007 15:4.5057398e-006 16:-1.7397534e-005 17:2.3082483e-005 18:-5.9436437e-005 19:4.1155825e-005 20:8.8569303e-006 
0.02211821856632535 1:149.42857 2:3.8233418e-006 3:8.5127551e-006 4:-0.00027007844 5:-4.8615646e-005 6:5.5446429e-006 7:5.2487245e-006 8:-1.8178997e-005 9:2.2661565e-006 10:-1.4738733e-005 11:-1.0493197e-006 12:-4.1118197e-006 13:-1.7015306e-006 14:6.7942177e-006 15:-2.7269983e-005 16:-6.2463861e-006 17:1.5832483e-005 18:-4.5053997e-005 19:1.3939201e-006 20:-5.5423044e-006 
0.001442160229131742 1:159.59184 2:-9.2087585e-006 3:4.85321e-005 4:0.00019215497 5:3.1751701e-006 6:3.8107568e-005 7:3.9647109e-007 8:1.1284014e-006 9:1.8671344e-006 10:-2.3590561e-006 11:7.3681973e-006 12:1.1052296e-006 13:-2.1843112e-006 14:2.6305272e-006 15:-2.5367772e-006 16:2.0997024e-006 17:1.4219813e-006 18:2.7210884e-008 19:1.571216e-006 20:1.8069728e-008 
0.0663336420535677 1:160.89796 2:6.3020833e-006 3:1.323852e-005 4:0.00026121173 5:2.4656037e-005 6:2.8031463e-006 7:3.7338223e-005 8:5.9357993e-006 9:6.7334184e-006 10:-0.00010203486 11:-2.3181548e-005 12:-3.8900935e-006 13:1.4203869e-005 14:-9.1072704e-005 15:-2.1769133e-005 16:-3.7443878e-005 17:3.1109269e-005 18:3.1567815e-005 19:-8.5571854e-006 20:-3.9902211e-007 
0.2131979437193078 1:202.70918 2:-2.7678571e-007 3:1.9041241e-006 4:2.4255952e-007 5:-3.9583333e-007 6:1.4689626e-007 7:-2.5914116e-007 8:1.1713435e-007 9:-4.7406463e-008 10:6.0586735e-008 11:2.6147959e-008 12:-6.7814626e-008 13:8.9073129e-008 14:-2.1258503e-009 15:-9.3962585e-008 16:2.7423469e-008 17:-2.5297619e-008 18:-5.7397959e-008 19:2.1683673e-008 20:8.1029938e-025 
0.3437402317646825 1:239.03061 2:7.9251701e-007 3:-6.164966e-007 4:8.1802721e-007 5:1.2223639e-007 6:-1.3244048e-007 7:1.9387755e-007 8:-2.5382653e-007 9:-2.7657313e-007 10:9.545068e-008 11:3.5714286e-008 12:-6.9940476e-008 13:7.7593537e-008 14:-2.4872449e-008 15:-7.8869048e-008 16:7.2916667e-008 17:-1.6581633e-008 18:-1.9132653e-008 19:-1.1904762e-008 20:6.164966e-009 
0.00431213251753644 1:173.27551 2:2.2087585e-005 3:6.4761267e-005 4:2.6697491e-005 5:-1.5177296e-005 6:-1.3045068e-005 7:-3.6358631e-005 8:3.9270833e-006 9:-3.223682e-005 10:4.0267432e-005 11:1.6778912e-005 12:8.1977041e-006 13:3.4409014e-006 14:7.0310374e-006 15:-1.4264243e-005 16:2.178125e-005 17:2.3657313e-005 18:1.0582483e-006 19:-6.4927721e-006 20:-1.1128827e-006 
0.1564300589947253 1:149.62755 2:2.6440689e-005 3:-1.8389668e-005 4:-5.3238308e-005 5:-3.9720876e-005 6:1.2550595e-005 7:5.6751701e-006 8:2.6026786e-006 9:-1.1205357e-006 10:1.8427083e-005 11:6.7191752e-006 12:1.0657738e-005 13:3.7557398e-006 14:-1.2269558e-005 15:-1.6578231e-005 16:1.5894345e-005 17:2.8016582e-005 18:4.951318e-006 19:1.5246173e-005 20:4.5497449e-006 
0.3796015436850869 1:209.30102 2:6.0586735e-006 3:-2.5956633e-007 4:9.3905187e-006 5:4.3628827e-006 6:-7.381165e-006 7:3.6058673e-006 8:5.9056122e-007 9:-2.1507228e-006 10:-4.0499575e-006 11:1.6426446e-006 12:-1.3407738e-006 13:-2.3609694e-006 14:-2.3603316e-006 15:-1.0554847e-006 16:-7.3341837e-007 17:-3.7861395e-007 18:2.4723639e-007 19:-4.4217687e-008 20:1.7006803e-009 
0.1533915708865518 1:163.61224 2:6.6007653e-007 3:-1.1057823e-005 4:1.0379464e-005 5:-1.8088861e-006 6:3.325744e-005 7:1.1101403e-005 8:1.1145621e-005 9:2.9925595e-006 10:-2.9865859e-005 11:-6.769983e-006 12:1.276233e-005 13:9.829932e-007 14:-1.2752976e-006 15:2.2735969e-006 16:-3.9334609e-005 17:-1.7345238e-005 18:8.3660714e-006 19:-4.568665e-006 20:-2.3448129e-006 
0.01247724704754547 1:167.23469 2:-1.9901361e-005 3:-3.8488095e-005 4:-1.7155612e-005 5:1.0832058e-005 6:-2.7718963e-006 7:4.9755527e-006 8:-5.6843112e-006 9:-2.0479379e-005 10:4.3333333e-006 11:1.521131e-005 12:4.3818027e-006 13:-1.3321429e-005 14:1.5491497e-005 15:8.7391582e-006 16:2.9611182e-005 17:-2.9309949e-005 18:2.6058248e-005 19:2.8178146e-006 20:5.1279762e-006 
0.008453728014394493 1:166.73469 2:-8.7110969e-006 3:3.7059736e-005 4:-0.00010220748 5:-1.238648e-005 6:5.326318e-006 7:-2.7919005e-005 8:-1.5543367e-005 9:4.4009566e-005 10:3.1228316e-005 11:6.3101616e-006 12:-1.1916879e-005 13:9.730017e-006 14:6.7427721e-006 15:6.3735119e-006 16:3.7710884e-005 17:-1.1798044e-005 18:2.4782313e-005 19:-9.380102e-006 20:-3.9253827e-006 
0.02435120793184778 1:166.58673 2:-1.5059524e-005 3:-0.00016742453 4:-2.2761054e-005 5:-3.4969175e-005 6:-1.0467474e-005 7:-6.713648e-006 8:-9.9319728e-007 9:2.4059736e-005 10:-2.6565901e-005 11:-4.1071429e-007 12:-4.5401786e-006 13:1.4210034e-005 14:1.5535077e-005 15:8.2993197e-007 16:2.6946003e-005 17:4.225e-005 18:9.1673044e-006 19:1.8497024e-005 20:-1.5646259e-006 
0.04814441808117814 1:166.45408 2:-0.00011661182 3:-2.7582908e-006 4:0.00020140753 5:-6.5924957e-005 6:-6.1990646e-005 7:1.9768282e-006 8:1.1130527e-005 9:4.630017e-005 10:2.3772959e-005 11:1.9513818e-005 12:-1.3748724e-005 13:-2.8088861e-006 14:7.8726616e-006 15:-7.9058248e-006 16:5.3939201e-006 17:-1.0231293e-005 18:8.116284e-006 19:1.7916667e-005 20:2.411352e-006 
0.09501449953465707 1:198.62245 2:-3.3318665e-005 3:-4.6171344e-006 4:1.2485332e-005 5:-3.1326531e-006 6:-8.0612245e-007 7:7.2446854e-006 8:-2.1045918e-007 9:6.917517e-007 10:2.8677721e-007 11:7.7806122e-008 12:-2.2236395e-007 13:4.8490646e-007 14:-6.037415e-008 15:-7.1641156e-008 16:1.9919218e-007 17:-1.3690476e-007 18:-5.8460884e-008 19:1.1479592e-008 20:-7.0153061e-009 
0.03254084399781928 1:149.65306 2:1.3261054e-006 3:2.2977466e-005 4:0.0001868818 5:-7.7836947e-005 6:1.5003614e-005 7:-1.77179e-005 8:1.2589711e-005 9:-4.3143495e-005 10:-0.00010106229 11:2.6365859e-005 12:-2.5966624e-005 13:-2.0516794e-005 14:2.5010629e-006 15:-1.1160502e-005 16:5.5854167e-005 17:3.4014243e-005 18:4.5389456e-005 19:-1.5719388e-005 20:2.292517e-006 
0.009932142742123343 1:156.08163 2:5.8154762e-005 3:-0.00011940816 4:1.9967687e-005 5:4.1360757e-005 6:-9.1683461e-005 7:2.1157738e-005 8:6.6845238e-006 9:1.916858e-005 10:-7.7329932e-006 11:-1.3140731e-005 12:-1.3619685e-005 13:5.75e-006 14:-1.7304209e-005 15:-6.6968537e-006 16:5.9268707e-007 17:-1.0340349e-005 18:-6.2610544e-006 19:2.9381378e-006 20:1.6284014e-007 
0.09725127763398225 1:150.33673 2:-1.1512968e-005 3:-7.5539966e-005 4:-8.9974277e-005 5:-3.9604592e-006 6:-6.2776361e-006 7:-3.272534e-006 8:1.0495323e-006 9:2.0438138e-005 10:3.5898384e-005 11:4.4056122e-006 12:1.1468963e-006 13:-1.3244048e-006 14:8.4785289e-006 15:1.1632653e-006 16:-5.9119898e-007 17:-4.1645408e-007 18:-1.4657738e-006 19:2.0227466e-006 20:-3.9965986e-008 
0.04797390138727167 1:155.78571 2:-3.516943e-005 3:8.0385417e-005 4:8.3797832e-005 5:2.012585e-005 6:7.7704082e-006 7:-3.8157313e-005 8:-1.2315051e-006 9:-8.2087585e-006 10:3.305506e-005 11:9.6356293e-006 12:-6.434949e-007 13:1.027381e-005 14:-2.3894558e-006 15:8.3582058e-006 16:1.6273384e-006 17:-1.196216e-006 18:-1.2451105e-006 19:-4.8809524e-006 20:-3.4438776e-007 
0.008036594867304434 1:161.34694 2:-2.8110969e-005 3:-6.1254464e-005 4:2.1871386e-005 5:-7.2598852e-005 6:1.0462798e-005 7:-2.0840774e-005 8:-2.1426446e-006 9:2.6452168e-005 10:-3.4458971e-005 11:-1.7929422e-006 12:-2.2735969e-006 13:-7.7636054e-007 14:-1.8548044e-006 15:-2.4776786e-006 16:5.1566752e-006 17:-1.9659864e-006 18:9.4409014e-006 19:3.0667517e-006 20:1.5093537e-007 
1 1:159.55612 2:-2.4217687e-006 3:6.0635629e-006 4:-1.6220238e-007 5:-3.2565901e-006 6:-2.0197704e-006 7:-7.7642432e-006 8:-2.7289541e-006 9:-1.9685374e-006 10:4.1955782e-006 11:-1.889881e-007 12:-1.4270833e-006 13:-2.8337585e-006 14:-6.0778061e-007 15:-2.2653061e-006 16:-1.0809099e-005 17:1.5259354e-006 18:-3.6267007e-006 19:-5.1309524e-006 20:-9.7878401e-006 
0.01153629570712049 1:179.14796 2:-5.1307398e-006 3:6.8520408e-006 4:1.2684949e-006 5:-7.2933673e-006 6:2.2708333e-006 7:2.8054847e-006 8:-4.6364796e-007 9:7.4234694e-007 10:3.7287415e-007 11:-6.6687925e-007 12:2.6594388e-006 13:-8.692602e-007 14:-2.5034014e-006 15:-2.303784e-006 16:-3.7767857e-006 17:-4.1471088e-006 18:-4.9428146e-006 19:3.8216837e-005 20:2.0406037e-006 
0.02410572366772683 1:191.09184 2:3.8575043e-005 3:7.286352e-006 4:3.4438776e-007 5:5.5429422e-006 6:9.2287415e-006 7:2.7606293e-006 8:-7.1619898e-007 9:-4.5556973e-006 10:-1.7538265e-006 11:1.0554847e-006 12:1.2755102e-006 13:1.0897109e-006 14:1.962585e-006 15:-2.0259354e-007 16:1.1154337e-006 17:-7.9194303e-006 18:3.0160927e-005 19:-6.2682823e-006 20:-7.8443878e-008 
0.005569862345400045 1:179.59184 2:-8.6670918e-007 3:-9.4664116e-007 4:2.2079082e-006 5:-1.946216e-006 6:1.8579932e-007 7:-7.4404762e-008 8:7.9039116e-007 9:1.3033588e-006 10:-7.5297619e-007 11:1.2117347e-008 12:-1.2797619e-007 13:2.599915e-007 14:-2.1896259e-008 15:1.9557823e-008 16:1.2967687e-008 17:2.272534e-007 18:-1.4243197e-008 19:1.6560374e-007 20:-2.2959184e-008 
0.02507747951291865 1:178.69388 2:0.00013878678 3:-1.1326318e-005 4:4.6211522e-005 5:4.9902211e-005 6:4.2645621e-005 7:-9.2264031e-006 8:3.4607993e-005 9:1.8616922e-005 10:0.00011369388 11:5.5042942e-005 12:8.3333333e-006 13:5.8010204e-006 14:8.4564201e-006 15:-3.7540391e-006 16:1.545068e-006 17:-1.8569303e-006 18:1.7155612e-007 19:7.835034e-006 20:3.6585884e-007 
0.01664957062308447 1:166.71429 2:5.2697704e-006 3:2.3084609e-006 4:6.4540816e-007 5:-6.9234694e-006 6:-2.7317177e-006 7:-8.7903912e-007 8:2.0854592e-007 9:-7.1016156e-006 10:6.326318e-006 11:6.9759779e-006 12:-8.2440476e-007 13:-1.3873299e-006 14:-5.9885204e-007 15:-1.0408163e-006 16:-1.9893707e-006 17:5.678869e-005 18:-3.3705145e-005 19:5.0357143e-006 20:4.4375e-006 
0.02903079575856559 1:166.06122 2:5.4690051e-005 3:1.4573554e-005 4:-3.1633716e-005 5:5.2138605e-006 6:1.8859056e-005 7:-1.7427083e-005 8:1.3860332e-005 9:-2.1272109e-005 10:-4.5460459e-005 11:4.6041667e-006 12:-1.8286565e-006 13:5.3715986e-006 14:1.5386905e-006 15:-2.0177721e-005 16:9.2840136e-006 17:3.8841412e-006 18:-2.9534226e-005 19:-4.6743197e-006 20:-5.0255102e-007 
0.001818090474638119 1:179.7398 2:-8.1203231e-006 3:-5.8269558e-007 4:4.1270196e-005 5:5.5754677e-006 6:-4.153699e-006 7:3.8161139e-006 8:1.0778061e-006 9:3.5480442e-007 10:-8.110119e-007 11:-9.3048469e-007 12:-8.6883503e-006 13:-2.0669643e-006 14:1.6467474e-005 15:-1.5495111e-005 16:2.0125425e-006 17:2.6339286e-006 18:1.3871386e-005 19:3.0531037e-005 20:1.0831207e-006 
1 1:180.25 2:8.636267e-006 3:-1.0265306e-005 4:-4.0244048e-005 5:-1.5029762e-006 6:-4.6719813e-006 7:-1.6660289e-006 8:-3.0197704e-006 9:-9.9489796e-008 10:7.7083333e-007 11:4.8979592e-007 12:8.4959609e-006 13:-1.346301e-006 14:-1.1292517e-006 15:-1.9238946e-006 16:-5.2678571e-007 17:-7.7468112e-006 18:6.7795493e-006 19:-7.5735544e-006 20:2.2746599e-007 
0.2050070044368826 1:182.35714 2:1.0140306e-006 3:3.3025085e-006 4:7.582483e-006 5:-1.0055272e-006 6:3.807398e-006 7:-1.1772959e-006 8:-1.7848639e-006 9:-8.8088861e-006 10:2.2848639e-006 11:-8.9606718e-006 12:1.1311224e-005 13:1.636267e-006 14:-1.099915e-006 15:-1.9477041e-006 16:7.3112245e-006 17:1.2084821e-005 18:-7.9696003e-006 19:-1.7166241e-006 20:-2.3660714e-007 
0.05168020381998893 1:172.71939 2:-1.2123724e-006 3:7.9409014e-006 4:-1.4647534e-005 5:7.1534864e-007 6:-2.4765519e-005 7:-8.1577381e-006 8:3.8545918e-006 9:-1.443665e-006 10:-6.903699e-006 11:-1.8139031e-005 12:3.8314201e-006 13:1.4598214e-006 14:-2.9097577e-005 15:-5.4145408e-007 16:-1.7998087e-005 17:4.1953869e-005 18:1.4559524e-005 19:-1.868006e-005 20:2.587585e-006 
0.09670256671700236 1:187.87755 2:-1.9589711e-006 3:-2.2640306e-006 4:-7.202381e-006 5:8.5127551e-006 6:-7.9783163e-007 7:1.3114371e-006 8:2.3660714e-007 9:4.5901361e-006 10:1.0331633e-006 11:2.326318e-006 12:1.1394558e-007 13:2.1194728e-007 14:6.8112245e-007 15:8.5884354e-008 16:-3.1611395e-007 17:1.2117347e-007 18:-3.039966e-007 19:-3.5246599e-007 20:8.7159864e-009 
0.007345970030251179 1:178.91837 2:-2.9281463e-006 3:-1.1556122e-006 4:1.2370111e-005 5:-1.5582483e-006 6:-5.1379677e-006 7:3.141369e-006 8:-2.8762755e-006 9:4.4381378e-006 10:7.769983e-007 11:1.4721301e-005 12:4.4328231e-006 13:-1.3633503e-005 14:-2.1184099e-006 15:-1.016369e-006 16:1.0099915e-006 17:6.092602e-005 18:-2.274426e-005 19:2.6502976e-005 20:-4.3344175e-005 
0.05909040725881416 1:185.13265 2:3.5690901e-006 3:-1.7974065e-006 4:-3.775085e-006 5:-9.8292942e-006 6:-2.1262755e-006 7:6.7219388e-007 8:-7.5935374e-007 9:1.8835034e-007 10:-1.2748724e-006 11:1.5091412e-006 12:-9.3112245e-007 13:-2.6870748e-007 14:-5.0952381e-006 15:-3.9866071e-006 16:-1.1629464e-005 17:2.4008291e-005 18:4.0523172e-005 19:2.6201105e-006 20:-5.7019558e-006 
0.01121912385453274 1:185.64286 2:4.087585e-006 3:-5.8679847e-006 4:3.3707483e-006 5:2.7529762e-007 6:-1.3337585e-006 7:6.3820153e-006 8:5.3042092e-006 9:-4.8767007e-006 10:-0.00010054974 11:2.4025298e-005 12:1.0966199e-005 13:-3.7382653e-005 14:-7.8528912e-007 15:6.8664966e-006 16:-6.7266156e-006 17:-1.2154762e-005 18:-2.2843537e-005 19:-3.4740646e-006 20:3.8258929e-006 
0.006880078031134927 1:179.01531 2:5.8184524e-007 3:6.5346514e-006 4:-5.7801871e-007 5:-1.5648384e-006 6:4.4485544e-006 7:-4.9272959e-006 8:-4.7383078e-006 9:-1.0597364e-006 10:-7.9364371e-006 11:9.9857568e-006 12:4.1269133e-006 13:-4.3537415e-006 14:6.2287415e-007 15:2.046131e-006 16:-1.6275935e-005 17:-2.4534439e-005 18:2.2921344e-005 19:6.6751701e-008 20:-1.8173895e-006 
0.01313229107215841 1:185.31122 2:1.5690901e-006 3:1.3758503e-006 4:-1.4153912e-006 5:-2.2789116e-007 6:-5.5272109e-007 7:2.236182e-006 8:4.4217687e-007 9:-6.8027211e-009 10:5.0616497e-007 11:-3.4842687e-007 12:8.4821429e-008 13:-2.599915e-007 14:1.0182823e-007 15:-8.7585034e-008 16:1.2011054e-007 17:3.2312925e-008 18:-1.4987245e-007 19:1.9068878e-007 20:4.2517007e-009 
0.003146334429046819 1:191.63776 2:1.4591837e-006 3:-3.4608844e-006 4:6.4413265e-008 5:-1.5710034e-007 6:3.2421344e-006 7:-3.0858844e-006 8:-1.1872874e-006 9:-4.8320578e-006 10:1.0610119e-005 11:1.0123512e-005 12:9.8278061e-007 13:8.8605442e-007 14:3.1945153e-006 15:-1.2235544e-005 16:-1.4927934e-005 17:-8.8558673e-006 18:3.6445578e-006 19:-9.6126701e-006 20:-1.5159439e-006 
0.001817266476571877 1:196.56122 2:5.1180272e-005 3:2.8277636e-005 4:8.1073767e-005 5:2.9899235e-005 6:3.2610544e-007 7:7.6696429e-006 8:-1.6941114e-005 9:1.7153699e-005 10:5.3510204e-005 11:6.5393282e-006 12:2.261267e-006 13:2.6632653e-006 14:7.7721088e-007 15:-3.8545918e-006 16:4.3624575e-006 17:-4.3588435e-006 18:-7.7678571e-007 19:1.4668367e-008 20:-6.1522109e-007 
0.003461711267676644 1:159.14286 2:-2.4708759e-006 3:-3.2852891e-006 4:-1.5891582e-005 5:-1.8686012e-005 6:-2.4453444e-005 7:4.1235119e-006 8:1.828869e-006 9:-3.9413265e-006 10:-3.1792092e-006 11:-4.1067177e-006 12:-4.9957483e-007 13:1.2329932e-008 14:-3.111182e-006 15:1.4880952e-009 16:-1.9075255e-006 17:-3.6636905e-006 18:-4.0986395e-007 19:-1.2712585e-007 20:3.337585e-008 
0.01372010710958755 1:166.46939 2:-5.5952381e-007 3:2.2385204e-007 4:-1.0291241e-006 5:-9.0136054e-008 6:-1.2485119e-006 7:-7.6551871e-007 8:-1.7942177e-007 9:9.1135204e-007 10:2.0703656e-006 11:1.349915e-007 12:4.4621599e-007 13:8.9710884e-008 14:-1.1203231e-007 15:-1.3326956e-006 16:1.0153061e-006 17:2.1683673e-007 18:-4.4005102e-008 19:-3.9965986e-007 20:8.5034014e-010 
0.007443342017583114 1:179.51531 2:3.3718112e-006 3:-1.3329082e-006 4:-4.4551446e-006 5:-4.127551e-006 6:-1.7472364e-006 7:-1.1847364e-006 8:9.6045918e-007 9:4.3441752e-006 10:1.461841e-005 11:-4.7017432e-006 12:-9.3016582e-006 13:2.2636054e-006 14:3.8076105e-006 15:9.4987245e-006 16:1.0540179e-005 17:-4.5914116e-006 18:6.8471514e-006 19:2.423108e-005 20:-9.4132653e-007 
0.03817510727707081 1:159.93367 2:-2.1119898e-005 3:1.2147959e-005 4:1.3114158e-005 5:-5.6441327e-007 6:7.8507653e-007 7:2.7742347e-007 8:-7.4519558e-006 9:-6.6258503e-006 10:4.1065051e-006 11:6.9413265e-006 12:6.0344388e-006 13:-1.2021684e-006 14:-2.2667092e-005 15:-8.7311224e-005 16:2.1696003e-005 17:9.0818027e-005 18:-2.4845663e-005 19:8.8103741e-006 20:-1.5150935e-006 
0.1668693660145957 1:176.06122 2:-2.7240646e-006 3:-1.539966e-006 4:2.1130952e-007 5:1.0140306e-006 6:-5.0227466e-006 7:-1.803784e-006 8:-1.2117347e-006 9:1.0986395e-006 10:2.7406463e-006 11:1.4883078e-006 12:-2.4657738e-006 13:-6.0814201e-006 14:-4.7055697e-006 15:-8.8284439e-006 16:-9.5554847e-006 17:-1.2520408e-005 18:6.6630527e-006 19:1.2389456e-005 20:4.2389456e-007 
0.001273330197445491 1:179.07143 2:5.2931335e-005 3:-5.2483844e-005 4:-8.2380952e-006 5:4.9340986e-007 6:-1.8585247e-005 7:2.4464923e-005 8:1.4216624e-005 9:-4.4340561e-005 10:2.1633078e-005 11:-1.6724702e-005 12:-2.0104167e-006 13:-3.1154337e-006 14:-9.4345238e-007 15:1.801233e-006 16:-3.2823129e-006 17:-1.0880102e-006 18:-1.348852e-006 19:-3.1483844e-007 20:5.1445578e-008 
0.1671812520609805 1:169.81633 2:3.6834609e-006 3:-2.2918793e-006 4:-9.4706845e-005 5:-5.0029762e-006 6:-5.0933248e-006 7:8.9753401e-007 8:-4.2363946e-006 9:5.9122024e-006 10:4.1179847e-006 11:-4.7884779e-005 12:1.6641794e-005 13:-5.6530612e-006 14:-4.506165e-006 15:9.0497449e-007 16:6.3945578e-007 17:-1.3352466e-006 18:5.0170068e-008 19:-2.6530612e-007 20:1.25e-007 
0.005225581390926816 1:178.87245 2:-1.8303571e-007 3:-9.7151361e-008 4:-2.1915391e-006 5:7.1643282e-006 6:-1.3815901e-006 7:-2.3008078e-006 8:-2.315051e-007 9:3.9179422e-007 10:8.2270408e-007 11:-1.2006803e-006 12:1.8059099e-006 13:1.256165e-006 14:-7.5233844e-007 15:-7.5552721e-007 16:4.4812925e-007 17:7.7402211e-007 18:-1.133716e-006 19:-8.5034014e-008 20:-1.0246599e-007 
0.008818673684781942 1:167.09694 2:4.3760629e-006 3:3.9013605e-006 4:-2.2778486e-006 5:5.724915e-007 6:2.7540391e-006 7:2.8244048e-006 8:-2.9451531e-006 9:-1.3567177e-006 10:6.2861395e-007 11:-9.5769558e-007 12:-8.3567177e-007 13:1.8241922e-006 14:1.4107143e-006 15:4.9413265e-006 16:-9.1677296e-006 17:2.9122024e-006 18:7.2491497e-008 19:9.4683248e-006 20:-9.1116071e-006 
0.00121600460069981 1:173.40306 2:2.414966e-007 3:2.2008929e-006 4:4.275085e-007 5:-7.2746599e-006 6:-5.127551e-007 7:-9.247449e-007 8:-2.2829507e-006 9:7.5871599e-007 10:1.2808248e-006 11:-1.4330357e-006 12:6.0006378e-006 13:-3.3333333e-007 14:-5.5255102e-006 15:1.2101403e-005 16:-1.8589498e-005 17:-7.4821429e-006 18:-6.5159439e-006 19:-5.8078231e-006 20:1.0272109e-006 
0.01324443766952566 1:179.44388 2:1.7181122e-006 3:6.8452381e-007 4:1.4494048e-006 5:-2.6267007e-006 6:-1.1177721e-006 7:2.5276361e-007 8:3.4672619e-007 9:5.2019558e-007 10:1.0006378e-006 11:-4.6088435e-007 12:-2.2957058e-006 13:-9.4536565e-007 14:2.7570153e-006 15:-2.6626276e-006 16:-3.3973214e-006 17:-5.7142857e-007 18:1.1139456e-007 19:-7.9481293e-006 20:4.389881e-007 
0.01150744939011383 1:159.59694 2:3.622449e-007 3:4.1432823e-007 4:6.0246599e-007 5:-1.8088861e-006 6:-1.4876701e-006 7:1.463648e-006 8:5e-007 9:-1.5157313e-007 10:-1.2542517e-008 11:-1.3286565e-007 12:-1.9466412e-006 13:2.6743197e-007 14:-6.7920918e-007 15:-1.6135204e-007 16:-6.6645408e-007 17:6.1564626e-007 18:-1.5539966e-007 19:-8.0357143e-008 20:1.0629252e-008 
0.04132477895368356 1:160.33163 2:-3.7015306e-006 3:-4.4292092e-006 4:9.681335e-006 5:2.3694728e-006 6:-2.1545493e-006 7:1.9742772e-006 8:-4.4642857e-009 9:1.0323129e-006 10:-2.7529762e-007 11:-1.6014031e-006 12:-6.1315901e-006 13:9.6407313e-007 14:-1.2057823e-006 15:-3.9770408e-006 16:-9.7236395e-006 17:1.0022534e-005 18:-2.1681548e-006 19:2.2176871e-006 20:1.7517007e-007 
0.002824278512337551 1:172.68878 2:-9.7704082e-007 3:-1.6594388e-006 4:7.9893707e-006 5:7.5812075e-006 6:5.7531888e-006 7:3.7127976e-006 8:7.5276361e-006 9:9.8022959e-007 10:1.0306122e-006 11:4.8405612e-007 12:3.7740221e-006 13:3.0238095e-006 14:6.1985544e-006 15:-5.1851616e-006 16:9.505102e-006 17:-6.6955782e-005 18:9.821216e-006 19:-9.4302721e-007 20:-9.0229592e-006 
0.01072209862412408 1:173.54082 2:-1.3865009e-005 3:-1.4237245e-005 4:3.9319728e-006 5:2.7127976e-006 6:7.0089286e-007 7:3.6628401e-006 8:2.6445578e-007 9:4.5775935e-006 10:-3.2189626e-006 11:2.7189626e-006 12:-2.3469388e-007 13:1.1938776e-006 14:-3.7032313e-006 15:4.3599065e-006 16:-2.5297619e-007 17:4.6039541e-006 18:6.5306122e-007 19:1.0480442e-007 20:-1.2204719e-005 
0.01297644106118599 1:172.48469 2:-1.050744e-005 3:-8.4642857e-006 4:1.0782313e-006 5:-8.6271259e-006 6:-1.4944728e-006 7:3.3511905e-006 8:1.681335e-006 9:-2.7629677e-006 10:-1.4045493e-006 11:1.622449e-006 12:-7.8231293e-008 13:-5.8779762e-007 14:-8.6734694e-008 15:-2.7799745e-006 16:-3.3869048e-006 17:5.6904762e-006 18:-2.3769133e-006 19:-3.4927721e-007 20:8.6373299e-007 
0.04569991078631722 1:190.91837 2:-4.1825468e-005 3:-3.9668367e-006 4:-6.5531463e-006 5:2.960034e-006 6:-6.6577381e-006 7:-5.1917517e-006 8:4.1728316e-006 9:-1.8218537e-007 10:-2.4528061e-006 11:4.3516156e-007 12:1.4562075e-007 13:2.9251701e-007 14:2.9102891e-007 15:-1.2988946e-007 16:5.3146259e-009 17:-1.0884354e-007 18:-3.7202381e-008 19:1.2542517e-008 20:6.8027211e-009 
0.006567328798016832 1:178.40816 2:4.0585459e-005 3:-5.2948554e-006 4:1.389881e-006 5:-2.4753401e-006 6:9.502551e-007 7:-5.4332483e-006 8:3.4715136e-006 9:2.1687925e-006 10:-2.5235969e-006 11:8.0590986e-007 12:1.7687075e-007 13:-1.3849915e-006 14:7.3065476e-007 15:2.2682823e-006 16:8.6054422e-007 17:-1.587585e-006 18:-6.9723639e-006 19:4.6755952e-006 20:1.0125425e-006 
0.0292953922316495 1:178.67347 2:-4.7480442e-005 3:-1.3736607e-005 4:8.9330357e-006 5:2.7857143e-006 6:-2.6775085e-006 7:-4.3771259e-006 8:-1.8348214e-006 9:2.5580357e-006 10:3.2015306e-007 11:-2.8745748e-006 12:1.0036139e-006 13:-8.3779762e-007 14:-6.3052721e-007 15:-4.0926871e-006 16:-6.6617772e-006 17:1.5284864e-007 18:4.2757228e-006 19:-2.616284e-006 20:-5.3562925e-006 
0.005931142415491242 1:179.97449 2:2.3390731e-006 3:1.9717262e-006 4:2.5977891e-007 5:-4.4474915e-006 6:1.4109269e-006 7:-3.5167942e-006 8:-7.4277211e-007 9:-7.1258503e-007 10:3.5059524e-006 11:1.1400935e-006 12:-1.8367347e-007 13:1.5482568e-006 14:-1.5269983e-006 15:-5.1488095e-007 16:5.150085e-006 17:-1.7083333e-006 18:7.3097364e-006 19:4.1439201e-006 20:-4.900085e-007 
0.001170451201236933 1:185.45918 2:4.091199e-006 3:1.8088861e-006 4:-2.4060374e-006 5:-1.7889031e-006 6:1.4504677e-006 7:-2.5127551e-007 8:-3.0357143e-007 9:4.2517007e-008 10:3.2376701e-007 11:1.5539966e-007 12:-1.1989796e-007 13:1.0055272e-007 14:6.2712585e-008 15:-2.1896259e-008 16:-5.6122449e-008 17:-8.0357143e-008 18:1.150085e-007 19:2.869898e-008 20:-1.6794218e-008 
0.002278742229558432 1:179.63265 2:1.1930272e-006 3:3.2695578e-007 4:-3.7716837e-006 5:1.0865221e-006 6:4.2988946e-006 7:-1.338648e-006 8:2.0603741e-006 9:-2.386267e-006 10:-9.3069728e-007 11:-6.7942177e-007 12:-1.9047619e-007 13:-3.4778912e-007 14:-1.7176871e-007 15:-3.9965986e-007 16:1.5688776e-007 17:-3.3078231e-007 18:-6.7708333e-007 19:-2.9868197e-007 20:-1.6581633e-008 
0.01811530320881868 1:179.15306 2:-1.547619e-006 3:1.9698129e-006 4:3.3397109e-007 5:-2.3320578e-007 6:1.0065901e-006 7:-2.5255102e-007 8:-3.6096939e-007 9:2.6636905e-007 10:-1.4030612e-007 11:-3.6798469e-007 12:-2.1088435e-007 13:-1.3605442e-008 14:-2.8911565e-007 15:-3.7053571e-007 16:-4.3367347e-008 17:-7.9081633e-008 18:8.0378401e-007 19:8.5034014e-009 20:1.0331633e-007 
0.01022563558505171 1:173.46429 2:-1.8966837e-006 3:-1.5752551e-006 4:2.3548044e-006 5:-6.3988095e-008 6:6.1011905e-007 7:2.4298469e-007 8:1.8494898e-007 9:-1.8388605e-007 10:2.017432e-007 11:1.8112245e-007 12:-1.192602e-007 13:1.8771259e-007 14:-3.1335034e-007 15:-4.8469388e-008 16:1.1968537e-007 17:2.3830782e-007 18:1.2988946e-007 19:3.1037415e-008 20:3.0612245e-008 
0.01625381313283947 1:191.51531 2:3.2833759e-005 3:1.3760417e-005 4:2.5406037e-005 5:-1.577551e-005 6:-5.4866071e-006 7:9.6254252e-006 8:1.9515306e-007 9:-8.607568e-007 10:-1.0252976e-006 11:-5.5909864e-007 12:-2.0918367e-007 13:-1.9982993e-008 14:8.5756803e-007 15:-6.2776361e-007 16:-2.4277211e-007 17:-5.4783163e-007 18:-1.5306122e-007 19:1.7006803e-008 20:4.6768707e-009 
0.4513652142919986 1:511.76531 2:5.8886054e-007 3:5.3188776e-007 4:-9.460034e-007 5:-7.4468537e-007 6:-1.519983e-006 7:-5.9438776e-007 8:2.5871599e-007 9:-1.3286565e-007 10:-1.4668367e-007 11:-5.7419218e-007 12:-2.6785714e-008 13:6.207483e-008 14:2.3809524e-008 15:5.7610544e-008 16:-1.8920068e-008 17:1.0693027e-007 18:4.9319728e-008 19:-2.1173469e-007 20:6.377551e-010 
1 1:576 
1 1:576 
0.03260043387702916 1:197.70408 2:3.6141582e-006 3:6.2032313e-007 4:3.9583333e-007 5:4.3705357e-006 6:-4.6152211e-007 7:-2.1513605e-007 8:3.039966e-007 9:-8.9285714e-008 10:-6.0161565e-007 11:2.107568e-006 12:-1.4795918e-007 13:-1.0437925e-007 14:-6.4115646e-007 15:-2.1045918e-008 16:-8.3971088e-008 17:6.377551e-010 18:-1.7219388e-007 19:-1.1692177e-008 20:1.9132653e-009 
0.002277601006351485 1:199.01531 2:1.2602466e-005 3:-4.2602041e-006 4:3.1738946e-006 5:1.4798044e-006 6:-1.122449e-006 7:-2.6509354e-007 8:-2.6339286e-007 9:1.8282313e-007 10:-3.452381e-007 11:1.0544218e-007 12:-1.6560374e-007 13:7.4404762e-009 14:3.5289116e-008 15:-1.0501701e-007 16:4.9532313e-008 17:-8.0782313e-008 18:-1.0841837e-008 19:-1.8707483e-008 20:2.3384354e-009 
0.002054257982111161 1:197.42857 2:2.0997449e-005 3:-1.8620961e-005 4:1.1686862e-005 5:-7.4304847e-006 6:1.690051e-007 7:1.2459609e-006 8:-2.2081207e-006 9:-1.0414541e-006 10:-3.7691327e-007 11:-2.7104592e-007 12:1.2967687e-008 13:-1.4987245e-007 14:1.2223639e-007 15:-9.4387755e-008 16:6.7602041e-008 17:-1.4370748e-007 18:-7.9719388e-008 19:1.8282313e-008 20:3.6139456e-009 
0.002767972498377402 1:197.60714 2:2.0238095e-005 3:-3.5786565e-006 4:-7.1052296e-006 5:-3.0580357e-006 6:-4.2053571e-006 7:3.8477891e-007 8:3.622449e-007 9:-6.1054422e-007 10:1.5433673e-007 11:3.7988946e-007 12:6.420068e-008 13:4.5684524e-007 14:4.8490646e-007 15:-1.2478741e-007 16:5.1658163e-008 17:3.1887755e-009 18:-6.7602041e-008 19:8.5034014e-010 20:-6.377551e-010 
0.003364718078658502 1:198.21429 2:6.0928571e-005 3:4.9092262e-006 4:3.5136054e-006 5:5.9183673e-007 6:3.6468963e-006 7:-2.9481293e-006 8:-1.5601616e-006 9:-1.1271259e-006 10:-2.2363946e-007 11:-1.690051e-007 12:-1.2414966e-007 13:-5.6122449e-008 14:-6.2287415e-008 15:-6.9515306e-008 16:-3.0612245e-008 17:-2.3171769e-008 18:-8.9073129e-008 19:3.1887755e-008 20:3.8265306e-009 
0.09729652968831015 1:188.53061 2:-1.2834184e-005 3:2.7059524e-005 4:-2.269409e-005 5:1.1558248e-005 6:-4.388818e-006 7:5.0520833e-006 8:-1.0869473e-006 9:3.9158163e-006 10:3.2366071e-006 11:9.4387755e-007 12:-1.1458333e-006 13:-1.1077806e-006 14:-1.6749575e-006 15:1.2261905e-006 16:-1.1381803e-006 17:8.3397109e-007 18:-1.122449e-007 19:-1.1288265e-007 20:6.9302721e-008 
0.0006672195824867777 1:197.38265 2:-1.2678359e-005 3:2.1758078e-005 4:-2.2427083e-005 5:-3.7234269e-006 6:5.1315901e-006 7:-4.733631e-006 8:5.1913265e-007 9:-8.3609694e-007 10:-9.9978741e-007 11:5.8248299e-008 12:4.3792517e-008 13:6.037415e-008 14:-5.3847789e-007 15:2.3171769e-008 16:1.377551e-007 17:-1.2053571e-007 18:-3.0187075e-008 19:-1.5093537e-008 20:8.5034014e-010 
0.005055613367438705 1:197.78061 2:1.7251276e-005 3:-4.6882228e-005 4:5.8278061e-006 5:6.6645408e-007 6:-6.3201531e-007 7:4.2034439e-006 8:1.4757653e-006 9:-1.3675595e-006 10:1.1256378e-006 11:-3.1037415e-007 12:5.2083333e-008 13:7.5170068e-007 14:-1.0272109e-006 15:8.3588435e-007 16:-3.1356293e-007 17:-2.7083333e-007 18:3.7627551e-008 19:3.7414966e-008 20:-4.6768707e-009 
0.0166649154816856 1:190.58163 2:-8.7240646e-006 3:5.3578869e-005 4:4.8262755e-005 5:2.4362245e-007 6:-5.9013605e-007 7:-1.2135629e-005 8:2.7410714e-006 9:3.2353316e-006 10:-4.0943878e-007 11:-4.6789966e-007 12:-5.0914116e-007 13:-1.0157313e-006 14:-4.5769558e-007 15:-3.0240221e-006 16:2.9102891e-007 17:2.6445578e-007 18:-2.4447279e-008 19:8.5034014e-009 20:5.3146259e-009 
0.01107042578668936 1:198.05612 2:-1.9370323e-005 3:1.3802934e-005 4:1.0841624e-005 5:6.8767007e-006 6:2.769983e-007 7:-2.3056973e-006 8:-3.0548469e-007 9:6.4795918e-007 10:6.1862245e-008 11:-7.8443878e-008 12:-1.1840986e-007 13:9.162415e-008 14:-2.6573129e-008 15:-5.8886054e-008 16:-4.2517007e-009 17:-7.6530612e-009 18:-8.8647959e-008 19:2.8061224e-008 20:6.377551e-010 
0.005254543495557102 1:197.02041 2:-1.7112457e-005 3:5.2633929e-006 4:1.4287415e-005 5:6.5348639e-007 6:3.1313776e-007 7:-3.9923469e-007 8:-1.1447704e-006 9:-2.0259354e-007 10:1.3307823e-007 11:-1.8133503e-007 12:-4.2942177e-008 13:2.9017857e-007 14:-3.5097789e-007 15:8.4183673e-007 16:-1.1479592e-008 17:-1.4965986e-007 18:-9.1411565e-008 19:4.2517007e-009 20:-2.9761905e-009 
0.0021760034906389 1:196.93878 2:2.3285502e-005 3:-2.466858e-005 4:6.591199e-006 5:-3.4015731e-006 6:-1.0236607e-005 7:-3.4823554e-006 8:-6.3286565e-007 9:1.4817177e-006 10:1.2589286e-006 11:2.9613095e-007 12:4.9532313e-007 13:1.0091412e-006 14:-7.6530612e-007 15:-8.9817177e-007 16:-1.0948129e-007 17:7.0153061e-008 18:-2.954932e-008 19:2.2108844e-008 20:-2.3384354e-009 
0.01364123856749404 1:184.81122 2:0.00012442262 3:4.2028699e-005 4:5.7931548e-006 5:8.7255527e-006 6:1.9229804e-005 7:-5.0106505e-005 8:-5.8543793e-006 9:-9.9489796e-008 10:2.366284e-006 11:1.8358844e-006 12:2.0072279e-006 13:-2.172619e-007 14:-3.0269983e-006 15:2.071216e-006 16:-1.863733e-006 17:3.9370748e-007 18:-8.9710884e-008 19:-7.7380952e-008 20:2.1258503e-009 
0.003941652883256596 1:192.19898 2:7.5637968e-005 3:1.5668155e-005 4:-1.0176446e-006 5:-2.3701105e-006 6:5.4910714e-006 7:4.8609694e-006 8:-6.3890306e-006 9:2.0097789e-006 10:-1.596301e-006 11:1.1904762e-007 12:9.4642857e-007 13:1.2264031e-006 14:-5.6781463e-007 15:-3.7542517e-007 16:1.4115646e-007 17:1.4158163e-007 18:4.9319728e-008 19:4.8894558e-008 20:1.1054422e-008 
0.02558047257968422 1:185.16837 2:1.8678784e-005 3:-2.7696641e-005 4:2.1106505e-005 5:-5.5919643e-005 6:1.471131e-005 7:5.1698342e-005 8:5.2636054e-007 9:8.0931122e-007 10:9.6471088e-007 11:-6.3966837e-007 12:-2.7349065e-006 13:-1.7151361e-006 14:4.8520408e-006 15:-1.3881803e-006 16:-5.0021259e-007 17:7.2810374e-007 18:-1.6369048e-008 19:1.9345238e-008 20:4.0391156e-009 
0.006576730395813231 1:198.84694 2:-1.0071003e-005 3:-4.9753401e-006 4:9.5116922e-006 5:4.4570578e-006 6:-2.5106293e-007 7:4.375e-007 8:5.170068e-007 9:8.2908163e-008 10:-1.1713435e-007 11:1.4455782e-008 12:-9.7363946e-008 13:-1.3818027e-008 14:1.3605442e-008 15:-2.827381e-008 16:5.9736395e-008 17:-5.1658163e-008 18:-7.6530612e-008 19:3.8690476e-008 20:1.4880952e-009 
0.001098002603422521 1:196.77551 2:-3.5121173e-006 3:2.9844813e-006 4:-5.6855867e-006 5:-3.8076105e-006 6:7.8018707e-007 7:-4.7491497e-007 8:4.9362245e-007 9:-1.8467262e-006 10:3.2028061e-006 11:-1.4753401e-007 12:4.9511054e-007 13:7.2257653e-007 14:3.75e-007 15:-5.0744048e-007 16:-1.6496599e-007 17:1.5795068e-007 18:-5.3571429e-008 19:1.2967687e-008 20:6.377551e-009 
0.2002330985803332 1:193.92347 2:-0.00016532781 3:1.4830145e-005 4:-9.6477466e-006 5:-3.5671769e-007 6:-2.897534e-007 7:-2.8613946e-007 8:9.2793367e-007 9:-2.4638605e-007 10:1.4511054e-006 11:-1.1211735e-006 12:-5.1509354e-007 13:-4.2644558e-007 14:4.5769558e-007 15:-1.3010204e-007 16:1.1904762e-007 17:-1.8494898e-008 18:-2.3405612e-007 19:1.1479592e-008 20:-5.4421769e-008 
-1 1:159.49746 2:-4.4107445e-006 3:-1.4424704e-006 4:3.2755922e-006 5:-1.3982657e-006 6:1.9581218e-006 7:-5.7318105e-008 8:5.1818951e-007 9:3.8663283e-007 10:2.4809645e-007 11:1.1844332e-007 12:-4.4839255e-008 13:9.7292724e-009 14:-6.9796954e-009 15:-4.1455161e-008 16:4.1032149e-008 17:5.1818951e-008 18:-5.6472081e-008 19:1.6920474e-008 20:6.0913706e-008 21:1.0575296e-008 
-1 1:136.53299 2:-5.9453469e-005 3:1.2421108e-005 4:4.0018613e-005 5:3.3122673e-005 6:2.6903553e-007 7:1.2710025e-005 8:-1.1799915e-006 9:-2.9583333e-006 10:-6.9120135e-007 11:3.3883249e-007 12:-9.4014382e-007 13:-1.4329526e-006 14:-1.8868443e-006 15:-1.0122673e-006 16:7.4450085e-008 17:-3.2523266e-006 18:4.5071912e-007 19:4.0186125e-008 20:5.3510998e-008 21:-1.4149746e-007 
-0.01150744939011383 1:108.04569 2:9.4295685e-006 3:-3.0012267e-005 4:-1.0679992e-005 5:-7.2241963e-006 6:-1.0370135e-006 7:-7.7161591e-006 8:4.6628596e-006 9:8.142978e-007 10:1.0776438e-005 11:-5.1715313e-006 12:-1.178088e-007 13:1.803934e-006 14:9.1264805e-006 15:-2.5905245e-006 16:-8.0099408e-006 17:-7.482868e-006 18:4.9431049e-006 19:1.8075296e-006 20:2.6734349e-007 21:-3.7436548e-008 
-0.01080244833302593 1:103.71066 2:2.9274323e-005 3:1.9806049e-005 4:8.767555e-006 5:9.1731599e-005 6:-8.0037437e-005 7:-8.9072124e-005 8:3.9287437e-005 9:-9.7238156e-005 10:-2.244247e-005 11:-9.8320643e-006 12:0.00013652348 13:-2.1036802e-005 14:5.9628596e-005 15:-2.3144247e-005 16:-6.5342217e-005 17:9.5145305e-005 18:-5.2507826e-005 19:7.6173012e-005 20:1.9966159e-007 21:-1.8422166e-007 
-1 1:180.29949 2:2.4392978e-005 3:-4.1564932e-005 4:1.0728215e-005 5:3.1065567e-005 6:-7.5096024e-005 7:2.97022e-005 8:1.0861675e-005 9:2.8266074e-005 10:-2.8298435e-005 11:1.0794205e-005 12:3.5892555e-006 13:-7.2884941e-007 14:1.5406091e-006 15:-4.0607022e-006 16:1.072335e-007 17:-3.322758e-006 18:-1.7825719e-006 19:3.7436548e-008 20:-4.2914552e-007 21:-5.2876481e-009 
-0.009017710961014327 1:108.06091 2:-1.6338409e-005 3:2.4283206e-005 4:2.8236041e-006 5:-1.3421531e-005 6:1.0177665e-006 7:-1.0365905e-006 8:-2.6099831e-007 9:-3.536379e-007 10:2.0029611e-007 11:2.2609983e-007 12:-5.858714e-008 13:3.2360406e-008 14:1.2584602e-007 15:-7.4450085e-008 16:2.6649746e-008 17:4.8646362e-009 18:1.0575296e-009 19:5.9221658e-009 20:4.357022e-008 21:-1.3747885e-008 
-0.005680707796040282 1:107.74619 2:-2.9164552e-005 3:-1.5524958e-005 4:-3.3856599e-005 5:1.6784264e-005 6:-1.1929569e-005 7:-2.1916455e-005 8:-1.5343909e-005 9:7.4145305e-005 10:-9.3542936e-005 11:2.0579526e-005 12:-2.9381345e-005 13:1.4009095e-005 14:3.267555e-006 15:3.7719966e-006 16:-7.509687e-005 17:-1.6956641e-005 18:-2.1128384e-005 19:1.0610406e-005 20:-1.108291e-007 21:-2.6501692e-007 
-0.2889773342937191 1:112.98477 2:-5.5565355e-005 3:1.7393824e-005 4:0.00011741349 5:-3.4282995e-006 6:-2.478786e-005 7:1.4572758e-007 8:4.3104907e-006 9:-2.552665e-006 10:-1.225423e-005 11:-8.6125212e-007 12:-2.5769882e-006 13:3.1178088e-006 14:-3.9500846e-006 15:-1.0615482e-006 16:-3.6182318e-006 17:3.1918359e-006 18:5.0822758e-006 19:-2.7216582e-006 20:1.7639594e-007 21:-5.7106599e-009 
-1 1:114.19797 2:3.8115482e-006 3:-1.8718486e-005 4:-1.0975465e-005 5:1.5617597e-005 6:6.5228426e-007 7:1.3058799e-005 8:-1.5628807e-005 9:-4.2043147e-006 10:4.3487733e-006 11:3.8274112e-006 12:6.9428934e-006 13:-1.6738579e-006 14:4.8094332e-006 15:6.6021574e-006 16:1.5169416e-005 17:-1.329209e-005 18:1.1814721e-005 19:2.7028342e-006 20:1.0249577e-006 21:2.4534687e-008 
-0.007460844118054366 1:107.96954 2:-2.2187817e-005 3:8.3158629e-005 4:-4.5473139e-005 5:1.3586717e-005 6:4.557022e-005 7:7.4906937e-006 8:-1.8809222e-005 9:-8.2088621e-005 10:3.8275381e-005 11:2.1489002e-006 12:-2.0927453e-005 13:4.6139805e-005 14:-7.1349408e-006 15:-2.66728e-005 16:1.9722927e-005 17:3.7396362e-006 18:-4.8159898e-007 19:5.9839255e-006 20:-5.3104907e-006 21:-5.3701354e-007 
-0.01646872515619807 1:107.93401 2:1.3196912e-005 3:-1.825e-005 4:-0.00012722441 5:-2.9799069e-006 6:2.1106176e-006 7:8.356176e-005 8:-7.3980541e-006 9:5.5787437e-005 10:-8.825423e-005 11:4.0446277e-006 12:-2.6256134e-005 13:9.0951777e-005 14:2.5530668e-005 15:8.3879019e-006 16:8.0847293e-005 17:-8.5850254e-007 18:-4.0308587e-005 19:3.1271785e-005 20:-8.7309645e-007 21:1.9902707e-007 
-0.6258347312555397 1:108.32995 2:1.3110829e-005 3:-6.8785956e-006 4:-5.7076988e-006 5:5.7616328e-006 6:9.6912014e-007 7:-3.2882826e-006 8:3.4835025e-007 9:1.5733926e-006 10:-6.0744501e-007 11:-2.0537225e-007 12:-3.5744501e-008 13:-1.2944162e-007 14:1.1167513e-007 15:-6.1548223e-008 16:1.1632826e-008 17:1.2288494e-007 18:-3.680203e-008 19:1.9035533e-009 20:7.1912014e-008 21:-2.3265651e-009 
-1 1:148.88325 2:1.2796108e-007 3:-7.5042301e-007 4:-3.6971235e-007 5:7.8257191e-009 6:-9.498731e-007 7:-4.0228426e-007 8:2.5888325e-007 9:-1.3620981e-007 10:4.2935702e-008 11:1.1928934e-007 12:-8.5025381e-008 13:5.7106599e-009 14:6.7470389e-008 15:-4.3993232e-008 16:5.8375635e-008 17:4.8857868e-008 18:-2.3477157e-008 19:4.1032149e-008 20:9.6235195e-008 21:-1.1209814e-008 
-0.01604963345025381 1:107.80711 2:1.2115059e-006 3:-1.5717005e-006 4:4.9012267e-006 5:2.7360406e-006 6:2.573181e-006 7:1.2013536e-007 8:7.7622673e-008 9:3.4327411e-007 10:2.3667513e-007 11:1.4382403e-008 12:3.3840948e-009 13:-4.3993232e-008 14:6.3451777e-010 15:-6.4720812e-008 16:1.4805415e-008 17:-2.7072758e-008 18:-6.2394247e-008 19:3.320643e-008 20:5.7529611e-008 21:-3.8494078e-008 
-0.03265935402111631 1:107.73096 2:-8.3650592e-006 3:-3.9741328e-005 4:6.0007614e-005 5:3.9791667e-005 6:1.2576777e-005 7:1.3031303e-005 8:-1.0370981e-005 9:-9.3972081e-007 10:5.267132e-006 11:-9.5052876e-006 12:-5.1334602e-006 13:-2.7470389e-006 14:-3.7250423e-006 15:-2.5037648e-005 16:3.8553299e-005 17:-1.5914975e-005 18:5.858714e-007 19:-1.3940355e-006 20:-1.7739002e-006 21:6.9796954e-009 
-0.00735893560352971 1:107.53299 2:1.4425973e-005 3:2.1203892e-005 4:-6.8723562e-005 5:-3.8979484e-005 6:-5.7258672e-005 7:-3.7830372e-005 8:2.892132e-006 9:7.8145305e-005 10:3.4059222e-005 11:3.8971235e-005 12:-1.4704315e-005 13:2.7214679e-005 14:3.4135575e-005 15:-1.705203e-005 16:-9.6957064e-005 17:-1.6645305e-005 18:-7.9633883e-005 19:2.9806895e-005 20:3.0752961e-007 21:-3.1598985e-007 
-1 1:141.83249 2:-4.3944374e-005 3:-9.2191201e-006 4:-3.9826565e-007 5:1.0926396e-005 6:-6.1169628e-006 7:1.046066e-005 8:-1.393824e-006 9:2.7948393e-006 10:-2.9957699e-006 11:-3.9843486e-006 12:3.4919628e-007 13:3.07022e-006 14:2.6015228e-008 15:-2.9441624e-006 16:4.7170051e-006 17:-2.0327834e-006 18:-9.1857022e-007 19:-3.1895093e-007 20:-1.2690355e-009 21:-3.7648054e-008 
-0.008948696130265926 1:108.13706 2:-1.3172589e-005 3:-2.5554357e-005 4:-1.3155457e-005 5:-1.5188029e-005 6:9.5600677e-006 7:9.9830795e-007 8:-4.7857445e-006 9:-1.5033206e-005 10:7.749577e-007 11:-7.3434856e-006 12:-1.9283418e-005 13:4.5763536e-006 14:-1.0101523e-006 15:-1.0377961e-005 16:-2.5188663e-005 17:-1.5765651e-006 18:-3.2289129e-005 19:2.4414129e-006 20:1.9860406e-006 21:-2.1594755e-007 
-0.0135120019593869 1:107.58376 2:4.4778976e-005 3:1.6836717e-005 4:0.00012208122 5:1.0088621e-005 6:1.9806684e-005 7:-3.3342851e-005 8:-8.0427242e-006 9:-4.6276438e-005 10:-4.5270728e-006 11:-1.2228426e-005 12:-5.5361675e-006 13:2.7880711e-006 14:4.000423e-006 15:2.7263113e-007 16:-2.3730964e-007 17:6.5803723e-006 18:-6.1637056e-006 19:9.4966159e-008 20:6.8739425e-008 21:-4.1666667e-008 
-0.02873696264767987 1:107.66497 2:-7.546489e-005 3:-0.00024839107 4:-6.4419839e-005 5:0.00015343739 6:4.4115271e-005 7:0.00022315525 8:-1.3194374e-005 9:2.1283629e-005 10:-2.7423858e-005 11:-2.1209179e-005 12:1.4784475e-005 13:-1.2305203e-005 14:2.8739002e-005 15:1.4181049e-005 16:2.1876269e-005 17:9.6023689e-008 18:-1.4065567e-005 19:-7.5338409e-007 20:-5.8904399e-007 21:-1.7956853e-007 
-0.0106912379200688 1:107.84264 2:0.00013616772 3:-7.9940144e-005 4:9.6554569e-006 5:3.1016074e-005 6:4.9196277e-006 7:-2.5823181e-005 8:3.150846e-005 9:3.459412e-005 10:6.4895939e-005 11:-3.9998096e-005 12:-2.030478e-005 13:9.7712986e-005 14:-3.5069797e-005 15:-2.1837986e-006 16:-1.7088621e-005 17:1.2986252e-005 18:-1.253236e-005 19:2.4042936e-005 20:6.1209814e-007 21:3.1916244e-007 
-0.1176319864289053 1:108.03553 2:-1.7201777e-005 3:1.0144459e-005 4:5.3312183e-005 5:-8.0823393e-005 6:-7.0899746e-005 7:-2.3393401e-005 8:-1.1486887e-005 9:2.6178934e-005 10:-2.7007191e-005 11:3.2722081e-006 12:7.7411168e-007 13:-2.1108291e-006 14:-4.5816413e-006 15:2.4851946e-007 16:1.2880922e-005 17:4.0152284e-006 18:-2.7468274e-006 19:6.4932318e-007 20:1.2753807e-007 21:-5.0549915e-008 
-0.005600717491983193 1:107.76142 2:-1.4746193e-005 3:-1.0244712e-005 4:1.2579103e-005 5:-9.2478849e-006 6:-6.0600677e-006 7:4.159264e-006 8:8.1116751e-006 9:2.9098985e-005 10:-1.1801607e-005 11:-3.2267343e-006 12:3.2768613e-006 13:-9.8032995e-007 14:-5.3409475e-006 15:-2.7918782e-007 16:8.0499154e-007 17:-3.8102792e-006 18:-8.5892555e-007 19:-2.0960237e-006 20:5.0274958e-007 21:1.1463621e-007 
-0.006404545647797477 1:103.80711 2:1.3324873e-007 3:-2.1524958e-006 4:8.3506768e-006 5:-5.537225e-007 6:5.3096447e-006 7:1.4803299e-006 8:3.9022843e-007 9:1.3637902e-006 10:-1.0448393e-006 11:2.3117597e-007 12:-2.6717428e-006 13:3.8980541e-007 14:1.285956e-006 15:-4.8265651e-007 16:-1.1719543e-006 17:-1.2755711e-005 18:6.1154822e-006 19:-5.3299492e-008 20:-3.1440355e-006 21:5.499154e-008 
-0.07461321231913186 1:103.4264 2:1.2375635e-005 3:7.7777073e-006 4:1.0387056e-006 5:2.4471235e-007 6:-2.4541032e-006 7:-3.2965313e-006 8:-6.2986464e-007 9:-1.4266074e-006 10:-6.2903976e-006 11:-3.4073604e-006 12:9.1497462e-007 13:1.5021151e-006 14:1.2294839e-006 15:-4.1869712e-006 16:4.8695008e-006 17:6.5313029e-006 18:2.7643824e-006 19:-2.7294839e-006 20:-2.5865059e-006 21:-3.7436548e-008 
-0.1288207828005963 1:103.47208 2:2.107868e-006 3:-3.5088832e-007 4:-3.1880288e-006 5:-3.1535533e-007 6:-1.9310491e-007 7:3.8282572e-008 8:-7.5507614e-008 9:-5.2876481e-007 10:1.8189509e-007 11:-3.2360406e-008 12:2.9547377e-007 13:-4.750423e-007 14:8.0478003e-007 15:1.072335e-007 16:-6.2013536e-007 17:5.6366328e-007 18:5.9940778e-007 19:5.5329949e-007 20:1.2817259e-007 21:-1.393824e-007 
-0.00333140965609862 1:103.04061 2:-0.00012341286 3:-0.00027372885 4:0.00020905245 5:4.6133672e-006 6:1.2554992e-005 7:4.6873942e-006 8:2.4917936e-005 9:-7.1275381e-005 10:-2.9014171e-005 11:1.0031726e-006 12:-9.9661591e-006 13:1.8496193e-005 14:2.1643401e-006 15:2.6474831e-005 16:1.0179357e-005 17:-1.3992386e-005 18:3.4659475e-006 19:-9.9915398e-007 20:-2.4725042e-007 21:2.9517766e-006 
-0.01517526956544451 1:107.63959 2:-2.6302876e-006 3:-1.9310491e-006 4:4.9843486e-005 5:1.4487521e-005 6:-1.0950719e-005 7:1.1882403e-005 8:-6.2453469e-006 9:4.623308e-006 10:-1.251819e-005 11:-2.4659475e-006 12:6.8851523e-006 13:3.3415821e-006 14:-1.0570854e-005 15:1.8162014e-006 16:1.5487944e-005 17:1.8807107e-006 18:9.9111675e-007 19:-7.303934e-006 20:3.0456853e-008 21:-6.9373942e-008 
-0.01045933609643279 1:103.28934 2:-7.4955584e-006 3:-1.1211929e-006 4:2.8545685e-005 5:-6.7106599e-006 6:-3.0456853e-006 7:-2.6406514e-006 8:-5.5393401e-007 9:-4.03511e-006 10:6.2880711e-006 11:-6.5461083e-007 12:6.4238579e-006 13:1.6357868e-006 14:-5.8041455e-006 15:5.3826142e-006 16:3.3389805e-005 17:-2.1705584e-005 18:1.6532783e-005 19:-9.0757191e-006 20:-3.5109983e-008 21:6.2034687e-007 
-0.0119357679803179 1:108.2132 2:-2.5940355e-005 3:1.0382191e-005 4:1.0187183e-005 5:-1.089044e-006 6:9.0966582e-006 7:2.1888748e-006 8:-5.4780034e-008 9:6.7962563e-005 10:6.357868e-007 11:1.6996616e-005 12:-9.6708968e-006 13:-1.1056261e-005 14:-9.1937394e-006 15:2.9840102e-005 16:-7.4580795e-005 17:7.5095601e-005 18:-3.5186125e-005 19:-6.9141074e-005 20:1.2844966e-005 21:-2.072758e-008 
-0.04171720368480444 1:103.58376 2:3.4384518e-006 3:9.6869712e-007 4:-3.3711929e-006 5:9.536802e-007 6:1.6592217e-005 7:-1.4510787e-005 8:-4.6030034e-006 9:-6.5215736e-006 10:-7.3604061e-007 11:-8.4887902e-006 12:1.0409264e-005 13:3.3417936e-007 14:1.1603638e-005 15:3.9166667e-006 16:-1.5059222e-007 17:-8.3906514e-006 18:-3.0308799e-006 19:-1.5968697e-006 20:1.3466159e-005 21:-1.8612521e-008 
-0.2801460312918429 1:102.75127 2:6.858714e-006 3:8.4278765e-006 4:1.1182318e-005 5:-2.2810914e-006 6:-1.9202623e-006 7:-1.482868e-006 8:3.3819797e-007 9:-1.9775804e-007 10:-2.7707276e-007 11:5.0105753e-007 12:-2.7326565e-007 13:-4.7588832e-008 14:2.1700508e-007 15:5.7952623e-008 16:1.9162437e-007 17:1.3451777e-007 18:-4.6954315e-008 19:2.5169205e-008 20:7.6142132e-008 21:-9.856176e-008 
-0.003259340919667985 1:103.02538 2:-0.0001200937 3:-9.4039763e-006 4:6.9818105e-006 5:-1.9180203e-005 6:-7.2199662e-006 7:-8.7275804e-006 8:4.2559222e-006 9:2.0691624e-006 10:4.2711506e-006 11:6.3874788e-008 12:3.7521151e-007 13:-3.3629442e-007 14:1.6518613e-007 15:-1.8612521e-007 16:-4.6002538e-007 17:-1.4424704e-006 18:-2.6395939e-007 19:-6.2605753e-008 20:3.0033841e-008 21:1.0575296e-008 
-1 1:142.77665 2:-1.4650592e-005 3:8.1986041e-006 4:-8.1423435e-006 5:-5.9735618e-006 6:-1.4803088e-005 7:-2.642703e-005 8:-1.2369078e-005 9:-3.3428299e-005 10:1.9931684e-005 11:4.1516497e-006 12:-2.4513536e-007 13:-1.553088e-006 14:3.6324027e-006 15:6.7176396e-006 16:-1.4162437e-006 17:-2.5321489e-006 18:-3.2472504e-006 19:9.7588832e-007 20:7.2377327e-007 21:-3.8071066e-008 
-0.01133068979583088 1:103.73604 2:-4.4147631e-006 3:2.5133249e-006 4:6.4382403e-007 5:1.3953046e-006 6:1.8718274e-006 7:2.5791032e-006 8:1.2745347e-006 9:-2.0412437e-006 10:-2.430203e-007 11:4.4225888e-007 12:4.3796531e-006 13:3.215313e-006 14:-5.0604907e-006 15:3.1311548e-005 16:-2.0489636e-005 17:-7.9082064e-006 18:-5.5722504e-005 19:2.9915821e-005 20:-1.5623942e-006 21:-4.4204738e-008 
-0.002817080230091362 1:108.29442 2:2.3836717e-006 3:-6.5672589e-006 4:-1.2125635e-006 5:-1.2115059e-006 6:-1.9925973e-006 7:4.0841794e-007 8:-7.927242e-007 9:-9.7884941e-007 10:1.1013113e-006 11:2.6603215e-006 12:7.7002961e-006 13:6.4720812e-008 14:6.7085448e-006 15:-5.9331641e-006 16:-1.0152284e-006 17:-3.2707276e-006 18:4.7151015e-006 19:-2.2254653e-006 20:1.3980541e-007 21:1.9670051e-008 
-0.2425876853880315 1:102.71066 2:1.6120135e-005 3:-4.1604061e-005 4:1.1410745e-006 5:-5.0850254e-006 6:-2.3519459e-006 7:2.2988579e-006 8:3.1744924e-006 9:2.4145516e-006 10:-4.3339679e-006 11:-1.1700508e-006 12:-5.6271151e-006 13:-6.8187394e-006 14:-9.9913283e-006 15:-9.126692e-006 16:-6.2950508e-006 17:3.0253807e-006 18:1.1924281e-005 19:5.7946277e-006 20:2.4450085e-007 21:4.5050761e-008 
-0.2856548227925571 1:98.918782 2:-2.8566201e-005 3:1.0273266e-005 4:1.1382614e-005 5:-7.3096447e-007 6:5.0169205e-007 7:-2.0382826e-006 8:-6.3310068e-006 9:-8.680203e-007 10:2.9020728e-006 11:2.2453469e-006 12:-2.3443316e-006 13:-1.2531726e-006 14:-1.3868443e-006 15:-3.2032572e-006 16:1.2203892e-007 17:3.9957699e-006 18:-9.9543147e-006 19:-1.8601946e-006 20:-1.214044e-007 21:5.2453469e-008 
-0.005123756950006339 1:103.63452 2:5.07022e-006 3:-2.4951565e-005 4:9.9879442e-006 5:-1.2544416e-006 6:3.8367174e-007 7:-3.0752961e-007 8:-8.0160745e-007 9:-2.6404399e-006 10:-4.7527496e-006 11:1.9896362e-006 12:2.9610829e-007 13:5.4900592e-006 14:-1.1989213e-005 15:-1.6459391e-006 16:3.0286168e-005 17:8.1171743e-006 18:-7.909264e-006 19:-7.6812606e-006 20:-6.6264805e-007 21:1.2690355e-009 
-0.006325198048659358 1:103.79695 2:-2.6657995e-005 3:-5.6091371e-007 4:-6.9251269e-006 5:2.4562183e-006 6:-6.0131134e-007 7:-1.7413283e-006 8:-1.2910321e-006 9:1.2719966e-006 10:1.4471235e-006 11:-7.2694585e-007 12:6.7470389e-008 13:-4.894247e-007 14:-8.7774958e-008 15:-3.8071066e-008 16:2.1903553e-006 17:-1.0063452e-006 18:2.9847716e-006 19:-2.4196277e-007 20:8.893824e-007 21:-1.4022843e-007 
-0.0152142126790216 1:103.09645 2:-2.8726946e-005 3:6.9479695e-007 4:2.3529399e-005 5:-3.1091371e-008 6:-4.9363367e-006 7:-3.6675127e-007 8:-2.8303723e-006 9:-1.0467428e-006 10:2.7884941e-006 11:-1.6582064e-006 12:-2.286379e-006 13:6.3451777e-010 14:7.4830795e-007 15:3.1865482e-006 16:4.6038494e-006 17:2.8073181e-006 18:-9.2123519e-006 19:-2.2700931e-006 20:2.8153553e-006 21:7.2335025e-008 
-0.01262533647663639 1:103.79188 2:-3.5577411e-006 3:7.0198816e-006 4:-9.8367174e-006 5:-3.8585025e-006 6:8.714044e-007 7:5.5647208e-007 8:3.2275804e-007 9:-1.1962775e-006 10:3.3100677e-006 11:-2.6763959e-006 12:-5.8946701e-007 13:6.7089679e-007 14:-1.518401e-006 15:-2.4809645e-006 16:-4.714467e-007 17:8.9741963e-007 18:2.3752115e-007 19:6.1645516e-006 20:-4.6615905e-007 21:3.3840948e-009 
-0.01039790852605461 1:103.66497 2:2.3597716e-006 3:-3.3343909e-006 4:2.1588409e-006 5:-8.9826565e-007 6:5.9221658e-007 7:-9.500846e-007 8:3.5384941e-007 9:1.3544839e-006 10:-1.2060068e-006 11:3.6125212e-007 12:4.6108291e-007 13:-1.4022843e-007 14:1.0418782e-006 15:1.5109983e-006 16:1.3857868e-006 17:-1.7024112e-006 18:3.8950931e-006 19:1.2102369e-006 20:-4.4521997e-007 21:-6.9796954e-008 
-1 1:502.24873 2:3.2254653e-007 3:-4.1687817e-007 4:1.1634941e-006 5:-1.2939932e-006 6:8.7457699e-007 7:6.0046531e-007 8:-1.1548223e-007 9:-4.1032149e-007 10:1.4720812e-007 11:4.6954315e-008 12:2.1362098e-008 13:-7.4873096e-008 14:2.6861252e-008 15:-8.4602369e-009 16:1.8824027e-008 17:-1.8760575e-007 18:-5.6049069e-008 19:7.1912014e-009 20:1.8824027e-008 21:4.6531303e-009 
-1 1:576 
-1 1:576 
-0.04814397801767014 1:103.19289 2:2.6458545e-005 3:-5.820643e-006 4:-1.3488579e-005 5:1.5665609e-005 6:-6.8401015e-007 7:-2.4287225e-006 8:2.9568528e-007 9:4.8604061e-007 10:4.7250423e-007 11:-4.0968697e-007 12:-8.037225e-009 13:-2.4830795e-007 14:1.6708968e-008 15:-7.1277496e-008 16:7.9314721e-008 17:1.3811337e-007 18:-3.6590525e-008 19:3.7436548e-008 20:3.8071066e-008 21:-2.4111675e-008 
-0.0128978021254536 1:107.60406 2:1.375698e-005 3:-9.125846e-006 4:6.2882826e-006 5:-1.7406937e-006 6:1.4748308e-006 7:-2.2330795e-006 8:5.3955161e-007 9:-7.284264e-007 10:-1.8919205e-006 11:-7.6120981e-007 12:-2.7199662e-007 13:-3.3904399e-007 14:-8.7351946e-008 15:-4.4881557e-007 16:-1.4932318e-007 17:1.3176819e-007 18:8.6717428e-009 19:-2.7072758e-008 20:1.106176e-007 21:1.7554992e-008 
-0.03913976628683827 1:107.72589 2:-6.507445e-005 3:9.7436548e-006 4:-7.7021997e-006 5:1.0239002e-006 6:-5.6178088e-006 7:-3.9572758e-007 8:3.2043147e-007 9:3.0033841e-007 10:5.4483926e-007 11:-5.2347716e-007 12:3.4052453e-007 13:7.8045685e-008 14:4.6933164e-007 15:-4.3506768e-007 16:1.607445e-007 17:-2.072758e-008 18:5.0972927e-008 19:3.7225042e-008 20:-1.3959391e-008 21:6.7893401e-008 
-0.0707174938103254 1:103.2335 2:-0.00012023329 3:0.00011709052 4:-3.9192682e-005 5:1.3240271e-006 6:-3.0740694e-005 7:2.9997885e-006 8:-1.8401015e-006 9:-4.4128596e-006 10:7.1192893e-007 11:-2.856176e-006 12:-3.7933587e-006 13:1.2076988e-006 14:-1.8908629e-007 15:-1.5323604e-006 16:-7.0262267e-007 17:-2.1319797e-006 18:9.8984772e-008 19:2.5380711e-008 20:-1.1019459e-007 21:-1.6285956e-008 
-1 1:96.888325 2:0.00017195114 3:1.637077e-005 4:-2.0066624e-005 5:-2.2804569e-006 6:8.2889171e-007 7:1.766286e-006 8:1.2927242e-006 9:1.3498308e-006 10:1.2978003e-006 11:-9.7081218e-008 12:1.2817259e-006 13:-9.0757191e-007 14:-2.9822335e-008 15:4.6742809e-008 16:1.1928934e-007 17:-3.2783418e-007 18:5.6662437e-007 19:1.9183587e-007 20:2.0325719e-007 21:1.3536379e-008 
