svm_type c_svc
kernel_type rbf
gamma 0.111111
nr_class 2
total_sv 13339
rho 0.977516
label 1 -1
nr_sv 6664 6675
SV
1 1:0.30651012 2:0.16733486 3:0.18213058 4:0.1231386 5:0.078560519 6:0.052214586 7:0.022432226 8:0.038946163 9:0.028732341 
1 1:0.31982942 2:0.18490879 3:0.098910211 4:0.10459607 5:0.071191661 6:0.079957356 7:0.054371002 8:0.037431888 9:0.048803601 
1 1:0.46321092 2:0.15047064 3:0.13588758 4:0.070794114 5:0.050775553 6:0.051570993 7:0.037650802 8:0.018825401 9:0.020814 
1 1:0.40988142 2:0.19011858 3:0.082213439 4:0.075098814 5:0.041238472 6:0.066007905 7:0.041765481 8:0.052173913 9:0.041501976 
1 1:0.35431655 2:0.21878212 3:0.11485098 4:0.092882837 5:0.08299075 6:0.036742035 7:0.043165468 8:0.03340185 9:0.02286742 
1 1:0.40333724 2:0.19554165 3:0.10024769 4:0.091513492 5:0.073784383 6:0.052535523 7:0.025811498 8:0.022031026 9:0.035197497 
1 1:0.35426808 2:0.18307017 3:0.11634809 4:0.10518818 5:0.087142348 6:0.05176303 7:0.034310816 8:0.03217381 9:0.035735486 
1 1:0.38089283 2:0.1970739 3:0.11904464 4:0.085031887 5:0.055770914 6:0.071526823 7:0.032887333 8:0.027510316 9:0.030261348 
1 1:0.41843071 2:0.18120237 3:0.064069997 4:0.11543889 5:0.051227773 6:0.048828676 7:0.036127576 8:0.045159469 9:0.039514536 
1 1:0.34744379 2:0.2022359 3:0.11882929 4:0.099484989 5:0.077502826 6:0.058660972 7:0.04522045 8:0.032156764 9:0.018465017 
1 1:0.3587924 2:0.14722155 3:0.096584075 4:0.080586962 5:0.08335338 6:0.069882127 7:0.045706038 8:0.053524176 9:0.06434929 
1 1:0.40423412 2:0.1747198 3:0.075840598 4:0.076961395 5:0.052303861 6:0.058655044 7:0.05890411 8:0.041843088 9:0.056537983 
1 1:0.36459865 2:0.16009997 3:0.12466921 4:0.11687739 5:0.069097324 6:0.059982358 7:0.027932961 8:0.032784475 9:0.04395766 
1 1:0.43796558 2:0.16722322 3:0.083611611 4:0.078217313 5:0.058823529 6:0.060621629 7:0.045080914 8:0.026714616 9:0.041741587 
1 1:0.43797896 2:0.19755812 3:0.091570334 4:0.062085985 5:0.070918301 6:0.049876607 7:0.038706325 8:0.03117288 9:0.020132485 
1 1:0.56613895 2:0.21732304 3:0.07313882 4:0.041606699 5:0.035195604 6:0.026167735 7:0.018055737 8:0.0085045139 9:0.0138689 
1 1:0.41751634 2:0.20509804 3:0.10196078 4:0.07869281 5:0.061045752 6:0.030196078 7:0.032810458 8:0.035686275 9:0.036993464 
1 1:0.45535939 2:0.21248424 3:0.068978562 4:0.059016393 5:0.066582598 6:0.043631778 7:0.019419924 8:0.022068096 9:0.052459016 
1 1:0.3463243 2:0.17400938 3:0.075078206 4:0.09801877 5:0.088112617 6:0.06438999 7:0.051746611 8:0.048748697 9:0.053571429 
1 1:0.42896209 2:0.17799876 3:0.10055935 4:0.087507769 5:0.045618397 6:0.042635177 7:0.035301429 8:0.030205096 9:0.051211933 
1 1:0.36391282 2:0.2069184 3:0.078813989 4:0.065002534 5:0.07260517 6:0.051697922 7:0.061327927 8:0.036619361 9:0.063101875 
1 1:0.36524689 2:0.18230934 3:0.088327679 4:0.090840558 5:0.055785903 6:0.03970348 7:0.052267873 8:0.054152532 9:0.071365749 
1 1:0.44172626 2:0.19658763 3:0.0748965 4:0.08041651 5:0.075398319 6:0.044034626 7:0.038765525 8:0.018818216 9:0.029356417 
1 1:0.31752837 2:0.1665826 3:0.12988651 4:0.088650694 5:0.069609079 6:0.062168979 7:0.056242119 8:0.041992434 9:0.067339218 
1 1:0.39185597 2:0.189826 3:0.07322378 4:0.1060899 5:0.075036249 6:0.074673755 7:0.028878685 8:0.035282745 9:0.025132914 
1 1:0.44548774 2:0.18988002 3:0.11215441 4:0.057511737 5:0.050730308 6:0.0614241 7:0.0409494 8:0.017866458 9:0.023995827 
1 1:0.2469457 2:0.15135747 3:0.18088235 4:0.11165158 5:0.088914027 6:0.09479638 7:0.053280543 8:0.035746606 9:0.036425339 
1 1:0.25517241 2:0.1864191 3:0.18790451 4:0.12265252 5:0.098779841 6:0.064721485 7:0.033103448 8:0.029177719 9:0.022068966 
1 1:0.24702093 2:0.18937198 3:0.21835749 4:0.12238325 5:0.080407944 6:0.053140097 7:0.032098765 8:0.029307568 9:0.02791197 
1 1:0.24141315 2:0.19736125 3:0.22124087 4:0.10576818 5:0.091593065 6:0.053320249 7:0.026932723 8:0.026605605 9:0.035764911 
1 1:0.27269758 2:0.2011757 3:0.21456564 4:0.11484868 5:0.053342042 6:0.040496408 7:0.028957109 8:0.032222948 9:0.041693882 
1 1:0.25708587 2:0.21604031 3:0.23882007 4:0.10445098 5:0.074112954 6:0.033907201 7:0.02760865 8:0.029498215 9:0.018475751 
1 1:0.29429365 2:0.2231246 3:0.20228681 4:0.091899979 5:0.06785638 6:0.036225689 7:0.023081855 8:0.032592434 9:0.028638598 
1 1:0.32751341 2:0.20426794 3:0.13499943 4:0.086157709 5:0.07120849 6:0.047586443 7:0.044048842 8:0.035832477 9:0.048385256 
1 1:0.34815078 2:0.18634424 3:0.11415363 4:0.089615932 5:0.12108819 6:0.039473684 7:0.034672831 8:0.03769559 9:0.028805121 
1 1:0.34347333 2:0.1399546 3:0.11782066 4:0.069012486 5:0.067990919 6:0.068785471 7:0.079455165 8:0.040181612 9:0.073325766 
1 1:0.35438115 2:0.19412034 3:0.12537177 4:0.0648593 5:0.061999542 6:0.047128803 7:0.055136124 8:0.029512697 9:0.067490277 
1 1:0.33556757 2:0.23113514 3:0.13383784 4:0.060216216 5:0.056540541 6:0.047675676 7:0.044432432 8:0.037513514 9:0.053081081 
1 1:0.35058362 2:0.22043177 3:0.12323107 4:0.069620907 5:0.053093689 6:0.059084805 7:0.058155149 8:0.033777502 9:0.032021485 
1 1:0.32063492 2:0.21648352 3:0.14652015 4:0.1020757 5:0.078876679 6:0.05042735 7:0.036141636 8:0.022832723 9:0.026007326 
1 1:0.26554155 2:0.18073061 3:0.21523179 4:0.099871822 5:0.085879086 6:0.048921171 7:0.038026063 8:0.033646657 9:0.03215125 
1 1:0.27618741 2:0.21035703 3:0.17776348 4:0.099388871 5:0.067224188 6:0.070762303 7:0.033344055 8:0.034737858 9:0.030234802 
1 1:0.34121472 2:0.19402985 3:0.09575883 4:0.095463278 5:0.084675632 6:0.058075957 7:0.048322743 8:0.03339737 9:0.049061623 
1 1:0.5109476 2:0.15936827 3:0.094759512 4:0.068018665 5:0.055994257 6:0.065685571 7:0.014178033 8:0.012383345 9:0.018664752 
1 1:0.60543743 2:0.19205298 3:0.04078076 4:0.047054723 5:0.018473336 6:0.066573719 7:0.004182642 8:0.0045311955 9:0.02091321 
1 1:0.34478776 2:0.13615362 3:0.13384349 4:0.10554433 5:0.074357494 6:0.066127635 7:0.037828472 8:0.038406006 9:0.062951198 
1 1:0.60866046 2:0.24908944 3:0.071630919 4:0.026102792 5:0.023472278 6:0.0082962363 7:0.0068798057 8:0.0048563335 9:0.0010117361 
1 1:0.36996067 2:0.19014258 3:0.12217306 4:0.09673058 5:0.064528024 6:0.04019174 7:0.030481809 8:0.057399213 9:0.02839233 
1 1:0.31020813 2:0.20019822 3:0.10468285 4:0.076189296 5:0.066774034 6:0.082631318 7:0.047571853 8:0.058721506 9:0.053022795 
1 1:0.38403572 2:0.17457438 3:0.10926598 4:0.067541167 5:0.066703879 6:0.058331008 7:0.050934971 8:0.041864359 9:0.046748535 
1 1:0.33655135 2:0.21828909 3:0.13609547 4:0.089434165 5:0.062617324 6:0.054706356 7:0.045454545 8:0.027889515 9:0.028962188 
1 1:0.54419097 2:0.18552651 3:0.10303671 4:0.059827769 5:0.028554162 6:0.012237498 7:0.014956942 8:0.019338269 9:0.032331168 
1 1:0.36853933 2:0.12946317 3:0.09463171 4:0.10736579 5:0.099500624 6:0.058426966 7:0.037827715 8:0.0360799 9:0.068164794 
1 1:0.27883827 2:0.20997775 3:0.14990046 4:0.11816372 5:0.069094742 6:0.05679822 7:0.041925284 8:0.043096381 9:0.032205176 
1 1:0.37152818 2:0.19302731 3:0.12701917 4:0.093085415 5:0.058221964 6:0.044741429 7:0.034166182 8:0.036374201 9:0.041836142 
1 1:0.38807612 2:0.20140799 3:0.099879001 4:0.079529205 5:0.065669343 6:0.052799472 7:0.032559674 8:0.035089649 9:0.04498955 
1 1:0.44568783 2:0.1871503 3:0.094925719 4:0.092610457 5:0.054601582 6:0.037815937 7:0.037044183 8:0.028940768 9:0.02122323 
1 1:0.29014925 2:0.23295522 3:0.15343284 4:0.067104478 5:0.084537313 6:0.061492537 7:0.048238806 8:0.03080597 9:0.031283582 
1 1:0.31932876 2:0.18079373 3:0.15715336 4:0.098236159 5:0.086722195 6:0.061244488 7:0.040176384 8:0.028907398 9:0.027437531 
1 1:0.32382671 2:0.22129964 3:0.14404332 4:0.10962696 5:0.063898917 6:0.039470517 7:0.036341757 8:0.026113117 9:0.035379061 
1 1:0.35533597 2:0.22279315 3:0.10263505 4:0.092885375 5:0.07140975 6:0.032938076 7:0.040052701 8:0.054545455 9:0.02740448 
1 1:0.30767299 2:0.19025493 3:0.15521788 4:0.1302273 5:0.083385659 6:0.036544016 7:0.032148688 8:0.03252543 9:0.032023107 
1 1:0.31887986 2:0.14337334 3:0.1717641 4:0.092399019 5:0.066718286 6:0.077945541 7:0.046715705 8:0.034843206 9:0.04736095 
1 1:0.33161564 2:0.22688694 3:0.13019097 4:0.094270991 5:0.065019703 6:0.041073052 7:0.027887239 8:0.028493483 9:0.054561988 
1 1:0.24983009 2:0.18648906 3:0.16011961 4:0.085768656 5:0.078428707 6:0.092428979 7:0.06809841 8:0.032214218 9:0.046622265 
1 1:0.36176516 2:0.21924216 3:0.10057695 4:0.10541088 5:0.079214096 6:0.052237642 7:0.026508654 8:0.026820521 9:0.02822392 
1 1:0.29562952 2:0.16996328 3:0.14734099 4:0.11216392 5:0.079474121 6:0.084211773 7:0.039914722 8:0.033518891 9:0.037782779 
1 1:0.27767065 2:0.20812444 3:0.11286798 4:0.12662296 5:0.11132536 6:0.069931868 7:0.041650598 8:0.032780563 9:0.019025582 
1 1:0.32734082 2:0.27116105 3:0.13208489 4:0.057677903 5:0.081897628 6:0.045318352 7:0.025468165 8:0.025343321 9:0.033707865 
1 1:0.34750196 2:0.23999477 3:0.1642689 4:0.050745488 5:0.053884384 6:0.026026681 7:0.034527858 8:0.02014125 9:0.06290871 
1 1:0.26940411 2:0.19904857 3:0.16161743 4:0.078242364 5:0.091011517 6:0.068227341 7:0.044441662 8:0.035302954 9:0.052704056 
1 1:0.40495726 2:0.20444444 3:0.091965812 4:0.056923077 5:0.076239316 6:0.046324786 7:0.048717949 8:0.023247863 9:0.047179487 
1 1:0.40174326 2:0.20509773 3:0.10816165 4:0.06405177 5:0.079239303 6:0.033940835 7:0.02231907 8:0.023771791 9:0.061674591 
1 1:0.31409013 2:0.20513406 3:0.18516828 4:0.092298916 5:0.06069595 6:0.049401027 7:0.03502567 8:0.028636623 9:0.029549344 
1 1:0.31677484 2:0.17024463 3:0.14378432 4:0.090614079 5:0.078632052 6:0.056290564 7:0.043060409 8:0.042935597 9:0.057663505 
1 1:0.29768401 2:0.12901661 3:0.17266885 4:0.1102219 5:0.095549897 6:0.071298654 7:0.063417 8:0.024129987 9:0.036013096 
1 1:0.33390961 2:0.14151642 3:0.11595456 4:0.083971351 5:0.10039516 6:0.098789825 7:0.049147938 8:0.029142998 9:0.047172141 
1 1:0.33634538 2:0.19503012 3:0.12110944 4:0.075677711 5:0.075175703 6:0.055848394 7:0.044678715 8:0.037148594 9:0.058985944 
1 1:0.35882353 2:0.16498599 3:0.12016807 4:0.094397759 5:0.066666667 6:0.070308123 7:0.052661064 8:0.034733894 9:0.037254902 
1 1:0.31164035 2:0.16619969 3:0.13499745 4:0.074121243 5:0.066989302 6:0.086984208 7:0.074630667 8:0.045720835 9:0.038716251 
1 1:0.32772289 2:0.15733626 3:0.12586901 4:0.084156604 5:0.069276741 6:0.090132943 7:0.047810709 8:0.037931455 9:0.059763386 
1 1:0.25810226 2:0.14496314 3:0.098631099 4:0.070551071 5:0.067977068 6:0.12039312 7:0.083889084 8:0.069264069 9:0.086229086 
1 1:0.30833793 2:0.14500276 3:0.10226394 4:0.076421866 5:0.098177802 6:0.090226394 7:0.062396466 8:0.040198785 9:0.076974047 
1 1:0.31696775 2:0.15116923 3:0.14629281 4:0.082345118 5:0.089327275 6:0.089438103 7:0.058295467 8:0.029701873 9:0.036462374 
1 1:0.34068736 2:0.14578714 3:0.094235033 4:0.081596452 5:0.077937916 6:0.067073171 7:0.064745011 8:0.04368071 9:0.084257206 
1 1:0.29202196 2:0.15477164 3:0.11283729 4:0.081298914 5:0.0864385 6:0.083985516 7:0.069618035 8:0.037962855 9:0.081065296 
1 1:0.31394826 2:0.19167604 3:0.079977503 4:0.094488189 5:0.064341957 6:0.086726659 7:0.051181102 8:0.042294713 9:0.075365579 
1 1:0.36918931 2:0.12856501 3:0.11632607 4:0.099483494 5:0.081854929 6:0.054233101 7:0.052773411 8:0.032000898 9:0.06557377 
1 1:0.36356546 2:0.14696379 3:0.10317549 4:0.082674095 5:0.073203343 6:0.073091922 7:0.057047354 8:0.037994429 9:0.062284123 
1 1:0.42859589 2:0.1875 3:0.11472603 4:0.076883562 5:0.054623288 6:0.046575342 7:0.034075342 8:0.029623288 9:0.02739726 
1 1:0.35642233 2:0.15501009 3:0.10961668 4:0.055032504 5:0.07195696 6:0.057162071 7:0.068370321 8:0.039004707 9:0.087424344 
1 1:0.39631187 2:0.16704411 3:0.10535965 4:0.087781732 5:0.057155182 6:0.058017901 7:0.050900464 8:0.03278335 9:0.044645746 
1 1:0.34350323 2:0.14991625 3:0.099306054 4:0.068676717 5:0.094161283 6:0.067240967 7:0.067360613 8:0.034458004 9:0.075376884 
1 1:0.3439684 2:0.16104527 3:0.11440292 4:0.12017624 5:0.07961106 6:0.06122759 7:0.057429353 8:0.028714676 9:0.033424491 
1 1:0.35423908 2:0.22366631 3:0.1184827 4:0.10064984 5:0.053196313 6:0.070273538 7:0.029620674 8:0.023726764 9:0.026144779 
1 1:0.38167565 2:0.18042626 3:0.11734444 4:0.073493386 5:0.061244488 6:0.062101911 7:0.058549731 8:0.028539931 9:0.036624204 
1 1:0.54092983 2:0.30547633 3:0.056617228 4:0.037649743 5:0.031802624 6:0.011694238 7:0.0096976612 8:0.0049914432 9:0.0011409013 
1 1:0.42649659 2:0.20788078 3:0.099267492 4:0.062263198 5:0.048875979 6:0.054811821 7:0.04331902 8:0.025258904 9:0.031826219 
1 1:0.36432594 2:0.14538559 3:0.13986898 4:0.069877026 5:0.047925526 6:0.061257327 7:0.058384094 8:0.031835421 9:0.081140099 
1 1:0.24304384 2:0.12310287 3:0.1392285 4:0.090851602 5:0.11583052 6:0.10002108 7:0.084000843 8:0.04005059 9:0.063870152 
1 1:0.34298608 2:0.19067319 3:0.10442522 4:0.087376207 5:0.084868998 6:0.070452551 7:0.0487652 8:0.033972671 9:0.03647988 
1 1:0.23772556 2:0.12536718 3:0.12851448 4:0.077843055 5:0.082459085 6:0.1319765 7:0.1073227 8:0.044796475 9:0.063994964 
1 1:0.29846438 2:0.11800023 3:0.12873802 4:0.096524651 5:0.096293731 6:0.089250664 7:0.078859254 8:0.035099873 9:0.058769195 
1 1:0.28878309 2:0.17835578 3:0.13237343 4:0.096493265 5:0.094635392 6:0.054342778 7:0.053878309 8:0.036344635 9:0.064793312 
1 1:0.28967604 2:0.20408421 3:0.12655994 4:0.079415101 5:0.086096054 6:0.054834237 7:0.08004538 8:0.02470692 9:0.054582125 
1 1:0.34209845 2:0.21256477 3:0.12305699 4:0.070595855 5:0.077202073 6:0.036917098 7:0.054015544 8:0.04015544 9:0.043393782 
1 1:0.3442227 2:0.14656159 3:0.151519 4:0.086055676 5:0.061522817 6:0.053260455 7:0.071564764 8:0.031524088 9:0.053768908 
1 1:0.43049724 2:0.1278453 3:0.071381215 4:0.086298343 5:0.072486188 6:0.058674033 7:0.076022099 8:0.035801105 9:0.040994475 
1 1:0.29788288 2:0.17258883 3:0.1350749 4:0.067970781 5:0.099046676 6:0.075646899 7:0.068342206 8:0.03441872 9:0.049028104 
1 1:0.36470751 2:0.16786803 3:0.15497643 4:0.10271694 5:0.070141392 6:0.050873302 7:0.039783754 8:0.024951483 9:0.023981148 
1 1:0.30202294 2:0.19095477 3:0.16750419 4:0.08864837 5:0.070351759 6:0.065713181 7:0.040201005 8:0.031954645 9:0.042649143 
1 1:0.29835365 2:0.1729295 3:0.10757823 4:0.13736333 5:0.10481337 6:0.054794521 7:0.051526957 8:0.043106699 9:0.029533744 
1 1:0.32530423 2:0.1800276 3:0.10575837 4:0.093714716 5:0.070756492 6:0.069000125 7:0.05281646 8:0.049052816 9:0.053569188 
1 1:0.34436725 2:0.24342733 3:0.12845661 4:0.069200381 5:0.061708214 6:0.053126277 7:0.035281297 8:0.02451982 9:0.039912818 
1 1:0.83386645 2:0.11415434 3:0.030987605 4:0.010595762 5:0.0055977609 6:0.0029988005 7:0.0005997601 8:0.0011995202 
1 1:0.77943548 2:0.15705645 3:0.03266129 4:0.014314516 5:0.0074596774 6:0.0014112903 7:0.0036290323 8:0.0014112903 9:0.0026209677 
1 1:0.8505291 2:0.11640212 3:0.022266314 4:0.0068342152 5:0.0037477954 6:0.00022045855 
1 1:0.84524531 2:0.10872199 3:0.030284676 4:0.0090854028 5:0.0039370079 6:0.001211387 7:0.001211387 8:0.00030284676 
1 1:0.78327323 2:0.13652756 3:0.052378499 4:0.01356689 5:0.0065258458 6:0.0048085179 7:0.0012021295 8:0.0017173278 
1 1:0.71913478 2:0.14775374 3:0.047587354 4:0.040266223 5:0.011314476 6:0.0043261231 7:0.0048252912 8:0.0036605657 9:0.021131448 
1 1:0.41494296 2:0.16848439 3:0.1083114 4:0.068446785 5:0.062304124 6:0.05490786 7:0.05779115 8:0.026701768 9:0.038109565 
1 1:0.37877649 2:0.15271306 3:0.13753194 4:0.072448519 5:0.069592665 6:0.064181572 7:0.046595521 8:0.03381933 9:0.044340899 
1 1:0.67647059 2:0.22019078 3:0.031796502 4:0.016375199 5:0.024801272 6:0.0028616852 7:0.0050874404 8:0.006518283 9:0.015898251 
1 1:0.31912923 2:0.16477536 3:0.12841593 4:0.10849931 5:0.064265864 6:0.070866142 7:0.050023159 8:0.040180639 9:0.053844372 
1 1:0.62917092 2:0.16115401 3:0.074602943 4:0.028996066 5:0.030890281 6:0.017630774 7:0.016902229 8:0.011511001 9:0.029141775 
1 1:0.39265343 2:0.14898471 3:0.086356377 4:0.062970568 5:0.052589551 6:0.078827287 7:0.050193931 8:0.054072553 9:0.073351586 
1 1:0.31546742 2:0.16226629 3:0.12215297 4:0.083626062 5:0.088385269 6:0.093597734 7:0.046005666 8:0.044985836 9:0.043512748 
1 1:0.30974898 2:0.21879743 3:0.12994746 4:0.074722709 5:0.081494454 6:0.057209574 7:0.048569761 8:0.034676007 9:0.044833625 
1 1:0.30130704 2:0.17507452 3:0.13139188 4:0.088511809 5:0.078651685 6:0.073721623 7:0.058702133 8:0.034281128 9:0.058358175 
1 1:0.33558799 2:0.16542067 3:0.12305684 4:0.086982319 5:0.10822357 6:0.042719829 7:0.062655749 8:0.030971876 9:0.044381156 
1 1:0.50768893 2:0.23594025 3:0.090949033 4:0.051405975 5:0.027899824 6:0.04327768 7:0.021089631 8:0.012961336 9:0.0087873462 
1 1:0.42079633 2:0.21970782 3:0.043254082 4:0.087081066 5:0.078201089 6:0.028645087 7:0.070753366 8:0.016900602 9:0.034660556 
1 1:0.2995981 2:0.20801364 3:0.17245159 4:0.090488369 5:0.086956522 6:0.036901717 7:0.046157593 8:0.021556449 9:0.03787602 
1 1:0.33711048 2:0.16255227 3:0.15472818 4:0.076352354 5:0.056792122 6:0.074733576 7:0.069742345 8:0.050856603 9:0.017132065 
1 1:0.32577552 2:0.20992668 3:0.096446701 4:0.08821207 5:0.073773266 6:0.069937958 7:0.052340666 8:0.03677383 9:0.046813311 
1 1:0.46258503 2:0.23197279 3:0.10357143 4:0.050680272 5:0.042176871 6:0.035544218 7:0.01462585 8:0.016666667 9:0.042176871 
1 1:0.3209607 2:0.21085465 3:0.1584529 4:0.074235808 5:0.063630692 6:0.061915159 7:0.043044292 8:0.033063007 9:0.033842795 
1 1:0.31537582 2:0.17133467 3:0.1763361 4:0.079308374 5:0.099028294 6:0.050585882 7:0.036438983 8:0.036867676 9:0.034724207 
1 1:0.30310163 2:0.17349765 3:0.14552755 4:0.079617834 5:0.10592634 6:0.093049017 7:0.046662974 8:0.029077818 9:0.023539186 
1 1:0.32297511 2:0.17896706 3:0.12501798 4:0.095669688 5:0.086606244 6:0.079700762 7:0.044885628 8:0.029779888 9:0.036397641 
1 1:0.34440895 2:0.22087327 3:0.092225772 4:0.098189563 5:0.086687966 6:0.050692226 7:0.044302449 8:0.032587859 9:0.030031949 
1 1:0.3870456 2:0.18532716 3:0.11579643 4:0.086979511 5:0.064904164 6:0.046001322 7:0.053139458 8:0.027230668 9:0.033575677 
1 1:0.3248424 2:0.17599382 3:0.12877911 4:0.11861572 5:0.050559629 6:0.073073459 7:0.050430979 8:0.0280458 9:0.049659076 
1 1:0.31869899 2:0.17697255 3:0.14531289 4:0.089413802 5:0.082982933 6:0.055528073 7:0.059980213 8:0.020405639 9:0.050704922 
1 1:0.34199946 2:0.15143393 3:0.11967301 4:0.069686411 5:0.081881533 6:0.08228357 7:0.064325918 8:0.037925489 9:0.050790673 
1 1:0.53868613 2:0.18991374 3:0.072329131 4:0.044591904 5:0.036761778 6:0.033311214 7:0.030656934 8:0.024950232 9:0.028798938 
1 1:0.4026276 2:0.18648994 3:0.083594931 4:0.062085804 5:0.05069178 6:0.053133357 7:0.070224393 8:0.038018835 9:0.053133357 
1 1:0.40482083 2:0.14096632 3:0.092219951 4:0.079845045 5:0.060260411 6:0.059076724 7:0.044657269 8:0.035833423 9:0.082320026 
1 1:0.41864375 2:0.22641509 3:0.10143845 4:0.061834485 5:0.058285074 6:0.053427984 7:0.028582103 8:0.022790958 9:0.028582103 
1 1:0.30081404 2:0.26799796 3:0.11218519 4:0.083948105 5:0.071864665 6:0.046171458 7:0.046680234 8:0.035741542 9:0.034596795 
1 1:0.2712983 2:0.12503 3:0.19162467 4:0.10103192 5:0.072354212 6:0.11735061 7:0.050275978 8:0.029277658 9:0.041756659 
1 1:0.26587399 2:0.15579799 3:0.18828144 4:0.087521451 5:0.079308654 6:0.058225055 7:0.075386124 8:0.039838196 9:0.0497671 
1 1:0.29372277 2:0.14733247 3:0.13791073 4:0.12189377 5:0.069249794 6:0.086797786 7:0.052526204 8:0.037922506 9:0.052643976 
1 1:0.29102845 2:0.14699447 3:0.13515253 4:0.13811301 5:0.072467499 6:0.067061398 7:0.045436993 8:0.034238641 9:0.069507015 
1 1:0.29836143 2:0.14947542 3:0.12931746 4:0.082871626 5:0.07721325 6:0.05634799 7:0.088294236 8:0.043145114 9:0.074973476 
1 1:0.38542007 2:0.13272311 3:0.098834042 4:0.069630598 5:0.084559224 6:0.056990302 7:0.084668192 8:0.031491773 9:0.055682685 
1 1:0.54995344 2:0.20327258 3:0.067580152 4:0.057735799 5:0.040441666 6:0.03339098 7:0.01928961 8:0.013569243 9:0.014766529 
1 1:0.33638176 2:0.16074569 3:0.16484934 4:0.079962481 5:0.060382225 6:0.049595498 7:0.044671122 8:0.035525853 9:0.067886036 
1 1:0.26618543 2:0.22197158 3:0.13027295 4:0.099819535 5:0.086284683 6:0.072975412 7:0.044890593 8:0.042070832 9:0.035528987 
1 1:0.28953903 2:0.16776422 3:0.16096297 4:0.11313829 5:0.078160423 6:0.067904567 7:0.047284897 8:0.036165389 9:0.039080212 
1 1:0.29385042 2:0.20443213 3:0.18825485 4:0.087756233 5:0.064709141 6:0.043102493 7:0.04 8:0.032243767 9:0.04565097 
1 1:0.30430316 2:0.1995206 3:0.16699007 4:0.10067344 5:0.062549937 6:0.048738728 7:0.033443671 8:0.037552791 9:0.0462276 
1 1:0.34522127 2:0.13993694 3:0.13102099 4:0.0765467 5:0.073067305 6:0.048711536 7:0.093291291 8:0.037947157 9:0.054256823 
1 1:0.3710479 2:0.20915724 3:0.12815904 4:0.064713968 5:0.058898171 6:0.04578619 7:0.047266575 8:0.037009623 9:0.037961299 
1 1:0.37648232 2:0.19139976 3:0.12911449 4:0.06339355 5:0.072370608 6:0.038013964 7:0.044441982 8:0.035797407 9:0.048985925 
1 1:0.39885702 2:0.17834807 3:0.081302566 4:0.079900798 5:0.061893466 6:0.069764934 7:0.036230321 8:0.039680828 9:0.054021997 
1 1:0.35941055 2:0.19904648 3:0.11442193 4:0.068371438 5:0.06685448 6:0.043233286 7:0.047242388 8:0.037815581 9:0.063603857 
1 1:0.47239182 2:0.23121848 3:0.096230422 4:0.065569419 5:0.039155827 6:0.031722856 7:0.019378816 8:0.026148128 9:0.018184231 
1 1:0.39318281 2:0.1805254 3:0.12646548 4:0.062635693 5:0.064046895 6:0.052757273 7:0.043747286 8:0.039188016 9:0.037451151 
1 1:0.32805054 2:0.15061509 3:0.13875651 4:0.076692896 5:0.088883963 6:0.062174443 7:0.060512025 8:0.03092098 9:0.06339355 
1 1:0.27310521 2:0.17983157 3:0.21810042 4:0.10435988 5:0.073552926 6:0.055004797 7:0.026116619 8:0.034857691 9:0.035070888 
1 1:0.25018541 2:0.1578492 3:0.11149567 4:0.11409147 5:0.11779975 6:0.087515451 7:0.069839308 8:0.044004944 9:0.047218789 
1 1:0.29231542 2:0.13812155 3:0.11991462 4:0.095931693 5:0.086012054 6:0.085258664 7:0.079733802 8:0.042315419 9:0.060396786 
1 1:0.32661538 2:0.234 3:0.13261538 4:0.11246154 5:0.077846154 6:0.049538462 7:0.035384615 8:0.015538462 9:0.016 
1 1:0.51360782 2:0.23586881 3:0.089462666 4:0.050802512 5:0.018422889 6:0.021912073 7:0.016189812 8:0.030704815 9:0.023028611 
1 1:0.57710566 2:0.23816628 3:0.03851892 4:0.054387631 5:0.03553506 6:0.01573308 7:0.02075139 8:0.0055608301 9:0.01424115 
1 1:0.61564036 2:0.18126626 3:0.078057242 4:0.067938711 5:0.033535704 6:0.0099739809 7:0.0052038161 8:0.0050592657 9:0.0033246603 
1 1:0.5049533 2:0.1838381 3:0.062270025 4:0.079677328 5:0.056750637 6:0.043305972 7:0.019105576 8:0.031701104 9:0.018397962 
1 1:0.46147154 2:0.21029083 3:0.076684067 4:0.085259756 5:0.052821278 6:0.030698484 7:0.024981357 8:0.026348496 9:0.031444196 
1 1:0.68900047 2:0.17542759 3:0.037031225 4:0.039227993 5:0.010513102 6:0.0091008944 7:0.0051780951 8:0.021653852 9:0.012866782 
1 1:0.68665292 2:0.16661756 3:0.067030053 4:0.028579847 5:0.021950501 6:0.0058927519 7:0.0088391279 8:0.0085444903 9:0.0058927519 
1 1:0.61949165 2:0.16528801 3:0.092795909 4:0.036546849 5:0.021506994 6:0.013084674 7:0.014739059 8:0.025718153 9:0.010828696 
1 1:0.64413087 2:0.17460071 3:0.044968212 4:0.040006203 5:0.02822143 6:0.032408125 7:0.0094588308 8:0.0068227632 9:0.01938285 
1 1:0.65928717 2:0.19610614 3:0.048830272 4:0.048045219 5:0.015701052 6:0.0064374313 7:0.016329094 8:0.0076935155 9:0.0015701052 
1 1:0.66875 2:0.15197368 3:0.062828947 4:0.037006579 5:0.029934211 6:0.016118421 7:0.0083881579 8:0.012006579 9:0.012993421 
1 1:0.59987457 2:0.20539354 3:0.045155221 4:0.039667607 5:0.03480715 6:0.035277516 7:0.0067419254 8:0.0054876137 9:0.027594857 
1 1:0.76807901 2:0.15992354 3:0.042529468 4:0.015291494 5:0.011150048 6:0.00095571838 7:0.00095571838 8:0.0011150048 
1 1:0.79301326 2:0.12833925 3:0.033439193 4:0.038109471 5:0.0052307118 6:0.0013076779 8:0.0005604334 
1 1:0.5605225 2:0.22162554 3:0.068650218 4:0.033962264 5:0.035558781 6:0.02394775 7:0.011175617 8:0.019738752 9:0.024818578 
1 1:0.43514542 2:0.16873236 3:0.1206283 4:0.061111793 5:0.063443367 6:0.057307645 7:0.036078046 8:0.038900479 9:0.018652595 
1 1:0.57089486 2:0.20209927 3:0.092154421 4:0.056929372 5:0.038783135 6:0.014588152 7:0.0042697029 8:0.012631204 9:0.0076498844 
1 1:0.32815735 2:0.18995859 3:0.11835749 4:0.087129055 5:0.061076605 6:0.062456867 7:0.047619048 8:0.050724638 9:0.054520359 
1 1:0.3737785 2:0.13192182 3:0.063517915 4:0.076140065 5:0.034609121 6:0.15838762 7:0.021579805 8:0.01995114 9:0.12011401 
1 1:0.46524458 2:0.20779698 3:0.088635528 4:0.038617139 5:0.036778227 6:0.067304156 7:0.018021331 8:0.041559397 9:0.036042663 
1 1:0.40708945 2:0.2081141 3:0.093187483 4:0.1016339 5:0.051786209 6:0.040570479 7:0.022846857 8:0.055663251 9:0.01910828 
1 1:0.56768953 2:0.14440433 3:0.07521059 4:0.097021661 5:0.019855596 6:0.05746089 7:0.0081227437 8:0.023315283 9:0.0069193742 
1 1:0.59823601 2:0.17594282 3:0.053984185 4:0.11739659 5:0.024635036 6:0.011557178 7:0.012013382 8:0.0044099757 9:0.0018248175 
1 1:0.48297623 2:0.20076313 3:0.092016437 4:0.075579689 5:0.061344291 6:0.025242149 7:0.011153507 8:0.029204579 9:0.021719988 
1 1:0.49439333 2:0.17826337 3:0.070442783 4:0.11040828 5:0.044997125 6:0.038384129 7:0.015669925 8:0.02760207 9:0.019838988 
1 1:0.48696957 2:0.15772957 3:0.13862737 4:0.070132351 5:0.045572384 6:0.043662164 7:0.012962205 8:0.03615773 9:0.0081866558 
1 1:0.57649279 2:0.15069416 3:0.068338051 4:0.074807926 5:0.047310958 6:0.0357191 7:0.021566249 8:0.01280496 9:0.012265804 
1 1:0.52203037 2:0.15421256 3:0.10836558 4:0.062816314 5:0.087079488 6:0.023965466 7:0.018904436 8:0.015480798 9:0.0071449836 
1 1:0.44649553 2:0.21473897 3:0.12892991 4:0.059417364 5:0.064032305 6:0.037063744 7:0.010960485 8:0.017306028 9:0.021055668 
1 1:0.60694823 2:0.21083106 3:0.059604905 4:0.033208447 5:0.023331063 6:0.036444142 7:0.0022138965 8:0.0030653951 9:0.024352861 
1 1:0.62470081 2:0.17616084 3:0.076112973 4:0.041008457 5:0.033508856 6:0.015956598 7:0.012765278 8:0.011648317 9:0.008137865 
1 1:0.61369529 2:0.15266128 3:0.07564435 4:0.057343297 5:0.021503736 6:0.024248894 7:0.013268263 8:0.024096386 9:0.017538508 
1 1:0.66119231 2:0.16521596 3:0.071932994 4:0.031368041 5:0.019543439 6:0.0072261455 7:0.0098538348 8:0.0059123009 9:0.027754968 
1 1:0.45617696 2:0.25918197 3:0.094462994 4:0.057595993 5:0.041318865 6:0.022537563 7:0.025876461 8:0.015025042 9:0.027824151 
1 1:0.47128957 2:0.22557215 3:0.13813896 4:0.043716596 5:0.041797999 6:0.016171029 7:0.011785665 8:0.031793888 9:0.019734137 
1 1:0.43386788 2:0.27541562 3:0.12667353 4:0.059585111 5:0.038546418 6:0.03825217 7:0.010445785 8:0.0092687951 9:0.0079446815 
1 1:0.52528838 2:0.22803904 3:0.093611358 4:0.051759834 5:0.040668441 6:0.015823721 7:0.02144336 8:0.019520852 9:0.0038450163 
1 1:0.36477743 2:0.20626294 3:0.13341097 4:0.057582816 5:0.072851967 6:0.051630435 7:0.034549689 8:0.056418219 9:0.022515528 
1 1:0.53584627 2:0.27095344 3:0.081152993 4:0.04774575 5:0.024390244 6:0.016260163 7:0.01286031 8:0.006947524 9:0.0038433112 
1 1:0.5164076 2:0.17820694 3:0.080075365 4:0.062019155 5:0.05149945 6:0.03940964 7:0.034699325 8:0.016800126 9:0.020882399 
1 1:0.52207294 2:0.19444855 3:0.076923077 4:0.051675771 5:0.049608741 6:0.027166691 7:0.020817954 8:0.029086077 9:0.028200207 
1 1:0.55562579 2:0.17462073 3:0.079329962 4:0.074115044 5:0.036030341 6:0.024178255 7:0.02022756 8:0.01374842 9:0.022123894 
1 1:0.55667579 2:0.15944116 3:0.081520956 4:0.075759758 5:0.047961976 6:0.011090307 7:0.016563445 8:0.043208987 9:0.0077776177 
1 1:0.48274374 2:0.18651136 3:0.067874605 4:0.10023008 5:0.059102675 6:0.020995111 7:0.012942192 8:0.033505896 9:0.036094334 
1 1:0.6075691 2:0.14133166 3:0.051350503 4:0.070979899 5:0.047267588 6:0.024026382 7:0.0072236181 8:0.021199749 9:0.029051508 
1 1:0.6516656 2:0.2049968 3:0.040038437 4:0.037315823 5:0.01793722 6:0.0067264574 7:0.010890455 8:0.028026906 9:0.0024023062 
1 1:0.63104045 2:0.19219266 3:0.073823391 4:0.040453329 5:0.025499764 6:0.016212813 7:0.0080277034 8:0.0099165748 9:0.0028333071 
1 1:0.72721427 2:0.15833467 3:0.049348979 4:0.043240637 5:0.012698923 6:0.0022504421 7:0.0030541714 8:0.0032149172 9:0.00064298344 
1 1:0.38848777 2:0.17087846 3:0.08804653 4:0.13176895 5:0.076213398 6:0.062374649 7:0.025070197 8:0.050742078 9:0.0064179703 
1 1:0.34879429 2:0.25221457 3:0.098056102 4:0.10605315 5:0.052165354 6:0.04195374 7:0.028051181 8:0.027559055 9:0.045152559 
1 1:0.59205776 2:0.18727437 3:0.10258724 4:0.030385078 5:0.032641396 6:0.018802647 7:0.0070697954 8:0.010379061 9:0.018802647 
1 1:0.65492043 2:0.21646639 3:0.041084768 4:0.025657681 5:0.018674894 6:0.0068203962 7:0.0045469308 8:0.0056836635 9:0.026144852 
1 1:0.52206105 2:0.21003324 3:0.082502267 4:0.068751889 5:0.041251133 6:0.029011786 7:0.013750378 8:0.014808099 9:0.01783016 
1 1:0.71345544 2:0.15287073 3:0.051602677 4:0.040859458 5:0.022543149 6:0.0045790771 7:0.0072208524 8:0.0014089468 9:0.0054596689 
1 1:0.59686296 2:0.26664832 3:0.071133737 4:0.034259769 5:0.018299395 6:0.0044028619 7:0.0046780407 8:0.0023390204 9:0.0013758943 
1 1:0.62753891 2:0.28106041 3:0.047612767 4:0.025850699 5:0.010551306 6:0.0027697178 7:0.0039567396 8:0.00026378264 9:0.00039567396 
1 1:0.49773091 2:0.26081153 3:0.062867058 4:0.063934864 5:0.028430326 6:0.017752269 7:0.0062733582 8:0.021089162 9:0.041110518 
1 1:0.59400505 2:0.22243656 3:0.058168868 4:0.042587921 5:0.020626206 6:0.025968245 7:0.011277638 8:0.010238908 9:0.014690607 
1 1:0.59899952 2:0.16814588 3:0.083104728 4:0.03340326 5:0.029853155 6:0.034855575 7:0.016459577 8:0.010488946 9:0.024689366 
1 1:0.78421228 2:0.14118825 3:0.037216288 4:0.018858478 5:0.009012016 6:0.0036715621 7:0.0033377837 8:0.0016688919 9:0.00083444593 
1 1:0.43393021 2:0.19984316 3:0.11397203 4:0.062998301 5:0.075676382 6:0.031368449 7:0.026009672 8:0.036988629 9:0.019213175 
1 1:0.29561507 2:0.23602119 3:0.1050618 4:0.09108299 5:0.074455562 6:0.080047087 7:0.029576221 8:0.02324897 9:0.064891112 
1 1:0.27833828 2:0.17946588 3:0.11026706 4:0.13068249 5:0.075845697 6:0.06884273 7:0.054362018 8:0.038338279 9:0.063857567 
1 1:0.25613903 2:0.20350082 3:0.16018134 4:0.13386223 5:0.072786803 6:0.06913487 7:0.03261554 8:0.023926458 9:0.047852915 
1 1:0.51519005 2:0.28048608 3:0.096368518 4:0.047336442 5:0.028401865 6:0.021478027 7:0.0050869012 8:0.005228204 9:0.00042390844 
1 1:0.79805754 2:0.14843321 3:0.035184167 4:0.011544805 5:0.0021990104 6:0.0027487631 7:0.0016492578 8:0.00018325087 
1 1:0.51974623 2:0.16542427 3:0.073116574 4:0.088183981 5:0.069944489 6:0.034734338 7:0.016177637 8:0.019191118 9:0.013481364 
1 1:0.59538347 2:0.15979151 3:0.075651526 4:0.041846612 5:0.041697692 6:0.037825763 7:0.0096798213 8:0.026656739 9:0.011466865 
1 1:0.71389293 2:0.13051917 3:0.041727317 4:0.03930131 5:0.024421802 6:0.034449296 7:0.0061458839 8:0.0061458839 9:0.0033964095 
1 1:0.52236823 2:0.17112063 3:0.099808061 4:0.067473793 5:0.02421379 6:0.044441163 7:0.021113244 8:0.01195925 9:0.037501846 
1 1:0.65899069 2:0.17752736 3:0.046382492 4:0.04899559 5:0.044912625 6:0.0086558876 7:0.0088192063 8:0.0047362404 9:0.00097991181 
1 1:0.3674721 2:0.19256715 3:0.11186066 4:0.077517478 5:0.093953146 6:0.055071753 7:0.039249356 8:0.047099227 9:0.015209125 
1 1:0.63940461 2:0.16597311 3:0.087227913 4:0.031370038 5:0.019846351 6:0.0099231754 7:0.014884763 8:0.017925736 9:0.013444302 
1 1:0.64970616 2:0.14553047 3:0.052118775 4:0.08428704 5:0.02567275 6:0.0095886174 7:0.016084132 8:0.0069594804 9:0.010052583 
1 1:0.59179898 2:0.17866502 3:0.071373516 4:0.067057191 5:0.029905966 6:0.020502544 7:0.014644674 8:0.022660706 9:0.0033913982 
1 1:0.67202411 2:0.15770969 3:0.057090239 4:0.043361795 5:0.025950109 6:0.026117529 7:0.0093755232 8:0.0055248619 9:0.002846141 
1 1:0.76053571 2:0.15946429 3:0.042857143 4:0.013392857 5:0.017321429 6:0.0019642857 7:0.00071428571 8:0.0016071429 9:0.0021428571 
1 1:0.6628543 2:0.16426322 3:0.073097961 4:0.052378584 5:0.016243991 6:0.010939831 7:0.012431626 8:0.0046411404 9:0.0031493453 
1 1:0.58233054 2:0.18903275 3:0.089108911 4:0.057882711 5:0.018126428 6:0.023762376 7:0.018431074 8:0.017060168 9:0.0042650419 
1 1:0.57860056 2:0.20677753 3:0.073893944 4:0.040790712 5:0.0409476 6:0.0084719172 7:0.020866018 8:0.010354565 9:0.019297145 
1 1:0.66884794 2:0.1792664 3:0.052178405 4:0.030480455 5:0.01618736 6:0.021009127 7:0.0079214741 8:0.020320303 9:0.0037885311 
1 1:0.59537755 2:0.19439607 3:0.064271015 4:0.029919265 5:0.038309324 6:0.020579389 7:0.014563875 8:0.03071078 9:0.011872724 
1 1:0.44099291 2:0.22382979 3:0.11120567 4:0.069787234 5:0.043120567 6:0.041276596 7:0.023687943 8:0.02893617 9:0.017163121 
1 1:0.7051449 2:0.14946272 3:0.053565614 4:0.031748616 5:0.026375773 6:0.0087919245 7:0.014816021 8:0.0065125366 9:0.0035818951 
1 1:0.8027001 2:0.14869817 3:0.027579556 4:0.013307618 5:0.0052073288 6:0.0019286403 7:0.00057859209 
1 1:0.70154402 2:0.16228647 3:0.047141919 4:0.039257556 5:0.017904074 6:0.0067345598 7:0.0067345598 8:0.016754271 9:0.0016425756 
1 1:0.62301525 2:0.15249175 3:0.083477441 4:0.071686842 5:0.028611853 6:0.010218519 7:0.0062883194 8:0.0083320233 9:0.015878007 
1 1:0.7274664 2:0.13798755 3:0.041625696 4:0.037856441 5:0.034742707 6:0.0036053753 7:0.00065552278 8:0.016060308 
1 1:0.71367521 2:0.16957265 3:0.033675214 4:0.015897436 5:0.033333333 6:0.026153846 7:0.004957265 8:0.0013675214 9:0.0013675214 
1 1:0.6450822 2:0.20839342 3:0.060282665 4:0.025093741 5:0.029420248 6:0.0102394 7:0.011681569 8:0.0054802423 9:0.0043265071 
1 1:0.56994094 2:0.14687597 3:0.092788312 4:0.072583152 5:0.011812247 6:0.019428039 7:0.0063723966 8:0.013988188 9:0.066210755 
1 1:0.68508829 2:0.12753434 3:0.049542184 4:0.047253107 5:0.03057554 6:0.030085023 7:0.016023545 8:0.010791367 9:0.0031066056 
1 1:0.58311419 2:0.19363322 3:0.084429066 4:0.041799308 5:0.023252595 6:0.025605536 7:0.0027681661 8:0.019653979 9:0.025743945 
1 1:0.33994302 2:0.19430199 3:0.1160114 4:0.1008547 5:0.085356125 6:0.067350427 7:0.027806268 8:0.032592593 9:0.035783476 
1 1:0.68636514 2:0.15714757 3:0.070320238 4:0.030868273 5:0.03202377 6:0.0037966326 7:0.008583691 8:0.0070980522 9:0.0037966326 
1 1:0.66610507 2:0.15959565 3:0.05774238 4:0.059120845 5:0.01960484 6:0.028794609 7:0.0041353959 8:0.0039822331 9:0.00091897687 
1 1:0.59968178 2:0.20811456 3:0.071439936 4:0.046937152 5:0.029116945 6:0.010023866 7:0.021161496 8:0.010182975 9:0.0033412888 
1 1:0.52298773 2:0.22340569 3:0.080355939 4:0.033167049 5:0.019819334 6:0.014426318 7:0.023189969 8:0.048537144 9:0.034110826 
1 1:0.60242712 2:0.27621686 3:0.057907928 4:0.025986018 5:0.023479752 6:0.0047487139 7:0.0023743569 8:0.0055401662 9:0.0013190872 
1 1:0.54497354 2:0.23809524 3:0.081216931 4:0.049206349 5:0.019047619 6:0.031349206 7:0.0055555556 8:0.0084656085 9:0.022089947 
1 1:0.52178664 2:0.24655102 3:0.050949324 4:0.0637891 5:0.036607021 6:0.052315257 7:0.0050539544 8:0.021171971 9:0.0017757137 
1 1:0.55853293 2:0.16826347 3:0.058682635 4:0.065269461 5:0.039520958 6:0.033832335 7:0.010928144 8:0.038772455 9:0.026197605 
1 1:0.39749381 2:0.21652339 3:0.096167857 4:0.11365292 5:0.032930205 6:0.017193647 7:0.016027976 8:0.056097916 9:0.053912283 
1 1:0.5711953 2:0.20607446 3:0.041639451 4:0.056662312 5:0.039353364 6:0.033638145 7:0.011757022 8:0.033311561 9:0.0063683867 
1 1:0.46744904 2:0.18937616 3:0.089314392 4:0.092279185 5:0.036689314 6:0.042001235 7:0.023965411 8:0.040024707 9:0.018900556 
1 1:0.44569026 2:0.20238262 3:0.068955851 4:0.053819201 5:0.11086195 6:0.028030834 7:0.015697267 8:0.027610371 9:0.046951647 
1 1:0.51905033 2:0.14330395 3:0.093829969 4:0.10022747 5:0.063264146 6:0.033693489 7:0.013221496 8:0.011799829 9:0.021609326 
1 1:0.50713686 2:0.18835712 3:0.059893647 4:0.095997761 5:0.018052057 6:0.013853904 7:0.011335013 8:0.025048978 9:0.080324657 
1 1:0.46063387 2:0.23648358 3:0.094363975 4:0.045604474 5:0.048042449 6:0.040298293 7:0.0094650796 8:0.031550265 9:0.033558009 
1 1:0.59183042 2:0.18149466 3:0.06250967 4:0.056784775 5:0.054618598 6:0.015782145 7:0.013151787 8:0.01098561 9:0.012842333 
1 1:0.58349977 2:0.18681825 3:0.0519281 4:0.049162698 5:0.02104778 6:0.034260255 7:0.01121524 8:0.031187586 9:0.03088032 
1 1:0.48291233 2:0.19405646 3:0.085884101 4:0.070282318 5:0.035809807 6:0.060178306 7:0.0089153046 8:0.041901932 9:0.020059435 
1 1:0.62839695 2:0.16793893 3:0.064580153 4:0.035572519 5:0.052366412 6:0.0094656489 7:0.012366412 8:0.0096183206 9:0.019694656 
1 1:0.49877751 2:0.18279879 3:0.065295556 4:0.080540774 5:0.027326334 6:0.049187401 7:0.01740256 8:0.032647778 9:0.046023299 
1 1:0.60058651 2:0.2058651 3:0.059090909 4:0.050733138 5:0.032697947 6:0.030205279 7:0.0080645161 8:0.0048387097 9:0.0079178886 
1 1:0.4251164 2:0.22271081 3:0.11019141 4:0.059493016 5:0.044878427 6:0.029487843 7:0.045913088 8:0.041257113 9:0.020951888 
1 1:0.60817477 2:0.17068358 3:0.059901339 4:0.068357999 5:0.037209302 6:0.023537703 7:0.01564482 8:0.0095842142 9:0.006906272 
1 1:0.59056014 2:0.15254478 3:0.085299972 4:0.065823145 5:0.035115155 6:0.019903327 7:0.017770827 8:0.023030992 9:0.0099516633 
1 1:0.5871734 2:0.1621536 3:0.096120348 4:0.044180523 5:0.029453682 6:0.007442597 7:0.015993666 8:0.033254157 9:0.024228029 
1 1:0.58128743 2:0.19071856 3:0.079341317 4:0.041766467 5:0.028443114 6:0.0094311377 7:0.0080838323 8:0.050748503 9:0.010179641 
1 1:0.51975112 2:0.20156273 3:0.079293879 4:0.063956012 5:0.039791637 6:0.055708291 7:0.01982347 8:0.011865143 9:0.008247721 
1 1:0.46926829 2:0.20710801 3:0.042648084 4:0.096445993 5:0.065226481 6:0.027874564 7:0.018954704 8:0.040557491 9:0.031916376 
1 1:0.47463246 2:0.21447103 3:0.05448256 4:0.08057077 5:0.048861343 6:0.031709426 7:0.020611127 8:0.030268089 9:0.044393197 
1 1:0.40568441 2:0.23729722 3:0.082852929 4:0.064619922 5:0.053894624 6:0.093310095 7:0.015149484 8:0.033382491 9:0.013808822 
1 1:0.51971379 2:0.17932243 3:0.08557243 4:0.061477804 5:0.039573598 6:0.032272196 7:0.021904206 8:0.022780374 9:0.037383178 
1 1:0.49136172 2:0.21371242 3:0.06556931 4:0.048836893 5:0.050061216 6:0.05359815 7:0.016460346 8:0.028023398 9:0.032376547 
1 1:0.45868443 2:0.22329437 3:0.10913292 4:0.078553955 5:0.04226692 6:0.03180212 7:0.015493341 8:0.015629247 9:0.025142702 
1 1:0.47760987 2:0.2013032 3:0.13628171 4:0.053791765 5:0.054207681 6:0.029668654 7:0.018716207 8:0.019132123 9:0.0092887841 
1 1:0.51994342 2:0.20608204 3:0.087411598 4:0.085007072 5:0.019236209 6:0.033380481 7:0.010891089 8:0.029278642 9:0.0087694484 
1 1:0.58524054 2:0.19196637 3:0.052934766 4:0.062276195 5:0.038922622 6:0.02568893 7:0.013078001 8:0.026934454 9:0.0029581193 
1 1:0.4859488 2:0.22760156 3:0.058430718 4:0.10127991 5:0.030467446 6:0.030050083 7:0.02031163 8:0.040762382 9:0.005147468 
1 1:0.67722801 2:0.14713542 3:0.047453704 4:0.05078125 5:0.053385417 6:0.01244213 7:0.0062210648 8:0.002025463 9:0.0033275463 
1 1:0.73378619 2:0.16868834 3:0.055636422 4:0.016820314 5:0.012776969 6:0.0027494744 7:0.004528546 8:0.0046902798 9:0.00032346757 
1 1:0.62369101 2:0.17027064 3:0.053447572 4:0.05127159 5:0.044199646 6:0.030327757 7:0.018087855 8:0.0050319597 9:0.0036719706 
1 1:0.63093875 2:0.22481397 3:0.057384087 4:0.026903263 5:0.018746422 6:0.014596451 7:0.0085861477 8:0.014453349 9:0.0035775615 
1 1:0.70961538 2:0.1193787 3:0.071301775 4:0.053698225 5:0.010059172 6:0.0084319527 7:0.0026627219 8:0.022633136 9:0.0022189349 
1 1:0.69257735 2:0.18808109 3:0.050449627 4:0.034445969 5:0.017527816 6:0.0047248895 7:0.006553879 8:0.0045724737 9:0.0010669105 
1 1:0.33439191 2:0.15478711 3:0.17784051 4:0.085156434 5:0.070454011 6:0.051870148 7:0.036109151 8:0.04587156 9:0.043519172 
1 1:0.62588489 2:0.19959988 3:0.055093875 4:0.033087104 5:0.039396737 6:0.025700215 7:0.0095413974 8:0.0043090182 9:0.0073868883 
1 1:0.57598551 2:0.18665552 3:0.058364675 4:0.029948461 5:0.036634629 6:0.041092074 7:0.019779914 8:0.02535172 9:0.026187491 
1 1:0.65662843 2:0.21478649 3:0.054811982 4:0.03027406 5:0.015455704 6:0.010356915 7:0.0062141491 8:0.0092415551 9:0.0022307202 
1 1:0.62254318 2:0.22260274 3:0.058368076 4:0.044520548 5:0.02739726 6:0.012209649 7:0.0084871948 8:0.001935676 9:0.001935676 
1 1:0.7840392 2:0.1499825 3:0.035701785 4:0.01820091 5:0.0089254463 6:0.0017500875 7:0.00087504375 8:0.00052502625 
1 1:0.67844057 2:0.18276418 3:0.057013044 4:0.029605745 5:0.022131027 6:0.0089403488 7:0.0063022131 8:0.0087937857 9:0.0060090869 
1 1:0.64280518 2:0.22362869 3:0.054124836 4:0.034046268 5:0.021679034 6:0.0062563655 7:0.006838353 8:0.0082933217 9:0.0023279499 
1 1:0.76892612 2:0.1507997 3:0.044173648 4:0.022086824 5:0.010814928 6:0.0015232292 7:0.0013709063 8:0.00030464585 
1 1:0.73872499 2:0.16073245 3:0.036113937 4:0.027975585 5:0.02882333 6:0.00339098 7:0.003051882 8:0.000678196 9:0.000508647 
1 1:0.65145904 2:0.17212265 3:0.064138646 4:0.032884017 5:0.029477115 6:0.014960747 7:0.0081469412 8:0.0078506888 9:0.018960154 
1 1:0.38331303 2:0.18769793 3:0.089890378 4:0.11205847 5:0.085749086 6:0.056881851 7:0.028258222 8:0.02046285 9:0.035688185 
1 1:0.45004619 2:0.16365316 3:0.11006995 4:0.083278342 5:0.05859839 6:0.06018213 7:0.019664775 8:0.032730632 9:0.021776429 
1 1:0.47596222 2:0.26660087 3:0.08628225 4:0.059213309 5:0.03256732 6:0.036937826 7:0.013957423 8:0.019455801 9:0.0090229804 
1 1:0.43347193 2:0.42411642 3:0.079002079 4:0.018711019 5:0.021829522 6:0.0083160083 7:0.013513514 8:0.001039501 
1 1:0.37007078 2:0.20020222 3:0.096345515 4:0.13765709 5:0.063411816 6:0.051278348 7:0.032067023 8:0.025566951 9:0.02340026 
1 1:0.53892913 2:0.24896534 3:0.068675634 4:0.035437144 5:0.040869115 6:0.024185204 7:0.012415934 8:0.012803932 9:0.017718572 
1 1:0.39593496 2:0.22810685 3:0.072938444 4:0.077003484 5:0.081068525 6:0.045412311 7:0.023344948 8:0.022067364 9:0.054123113 
1 1:0.61813972 2:0.19106632 3:0.063325616 4:0.046166417 5:0.020972355 6:0.018384856 7:0.015797358 8:0.010349993 9:0.015797358 
1 1:0.50709172 2:0.19897339 3:0.10982034 4:0.064568418 5:0.045251925 6:0.021207619 7:0.024314467 8:0.019856815 9:0.0089153046 
1 1:0.31071429 2:0.18796296 3:0.13796296 4:0.10462963 5:0.076587302 6:0.068783069 7:0.05515873 8:0.037433862 9:0.020767196 
1 1:0.43282392 2:0.17966777 3:0.13475083 4:0.079069767 5:0.055415282 6:0.05448505 7:0.024053156 8:0.023920266 9:0.015813953 
1 1:0.36768802 2:0.21925985 3:0.099747977 4:0.098421541 5:0.05398594 6:0.066985011 7:0.048149622 8:0.029977451 9:0.015784587 
1 1:0.40468487 2:0.18726543 3:0.08787369 4:0.1045684 5:0.074155558 6:0.041801475 7:0.034036495 8:0.023424356 9:0.042189724 
1 1:0.32533973 2:0.16775151 3:0.15222108 4:0.10231815 5:0.074568916 6:0.052643599 7:0.0445358 8:0.037113167 9:0.043508051 
1 1:0.4239958 2:0.19808349 3:0.11774744 4:0.0949068 5:0.054738777 6:0.028485167 7:0.025203465 8:0.040168023 9:0.016671042 
1 1:0.39127673 2:0.17340673 3:0.112852 4:0.095701884 5:0.066271438 6:0.047850942 7:0.043828075 8:0.026889689 9:0.041922507 
1 1:0.47619741 2:0.21618867 3:0.07104382 4:0.064055903 5:0.047896346 6:0.037123308 7:0.034211676 8:0.026059106 9:0.027223759 
1 1:0.38733635 2:0.16616314 3:0.12273414 4:0.089123867 5:0.073640483 6:0.053247734 7:0.024420947 8:0.033232628 9:0.050100705 
1 1:0.35733797 2:0.17531661 3:0.10640675 4:0.12043705 5:0.059721877 6:0.040973429 7:0.055127887 8:0.039111001 9:0.04556742 
1 1:0.36213941 2:0.17902687 3:0.10412282 4:0.083570633 5:0.081589699 6:0.047170979 7:0.060666089 8:0.041723412 9:0.039990095 
1 1:0.34875874 2:0.18450229 3:0.11291878 4:0.090021692 5:0.056881176 6:0.063870812 7:0.052301759 8:0.052783803 9:0.037960954 
1 1:0.37140377 2:0.18936012 3:0.12177579 4:0.082217262 5:0.068948413 6:0.041170635 7:0.03608631 8:0.045262897 9:0.043774802 
1 1:0.39220097 2:0.20497438 3:0.093863267 4:0.072115986 5:0.07224097 6:0.046619173 7:0.03912011 8:0.042744657 9:0.036120485 
1 1:0.30074182 2:0.15529612 3:0.091207588 4:0.081478779 5:0.064210142 6:0.12987961 7:0.054602943 8:0.045603794 9:0.076979205 
1 1:0.39058734 2:0.22478752 3:0.086642141 4:0.077381707 5:0.085754155 6:0.040847393 7:0.032221236 8:0.024102499 9:0.037676012 
1 1:0.41309401 2:0.24341426 3:0.088197314 4:0.066115702 5:0.053589876 6:0.043259298 7:0.024664256 8:0.042484504 9:0.025180785 
1 1:0.32745024 2:0.17599199 3:0.13280761 4:0.074227062 5:0.071973964 6:0.062210539 7:0.04919264 8:0.067217424 9:0.038928527 
1 1:0.47929329 2:0.19010601 3:0.096254417 4:0.061908127 5:0.056537102 6:0.030106007 7:0.017667845 8:0.040989399 9:0.027137809 
1 1:0.31211268 2:0.19583099 3:0.1275493 4:0.097802817 5:0.074591549 6:0.07143662 7:0.02771831 8:0.030647887 9:0.062309859 
1 1:0.39572324 2:0.21248617 3:0.088607595 4:0.083814674 5:0.068329851 6:0.043382082 7:0.050510016 8:0.026422514 9:0.030723854 
1 1:0.34486845 2:0.19933634 3:0.10500119 4:0.068381133 5:0.08319507 6:0.06814411 7:0.032235127 8:0.042427115 9:0.056411472 
1 1:0.38509918 2:0.18916304 3:0.09313014 4:0.078495404 5:0.075955491 6:0.043904209 7:0.035921626 8:0.032293179 9:0.066037736 
1 1:0.39763113 2:0.16956732 3:0.12098139 4:0.097171864 5:0.042422045 6:0.052453469 7:0.02513899 8:0.050640561 9:0.043993232 
1 1:0.3647146 2:0.20719051 3:0.090931554 4:0.084136397 5:0.060662219 6:0.099950581 7:0.033358043 8:0.034593526 9:0.024462565 
1 1:0.32195409 2:0.21141848 3:0.12607416 4:0.096762802 5:0.053914067 6:0.035314891 7:0.055679812 8:0.041318423 9:0.057563273 
1 1:0.38813786 2:0.21251979 3:0.11009621 4:0.07745707 5:0.069297284 6:0.048836926 7:0.02715869 8:0.028985507 9:0.037510656 
1 1:0.36017109 2:0.23587873 3:0.10793811 4:0.091961253 5:0.078877846 6:0.039376022 7:0.027424833 8:0.024279784 9:0.034092339 
1 1:0.36619511 2:0.21367521 3:0.10904804 4:0.10654288 5:0.072354848 6:0.042587681 7:0.033598585 8:0.032419688 9:0.023577955 
1 1:0.32934579 2:0.24074766 3:0.1082866 4:0.10342679 5:0.082492212 6:0.061433022 7:0.038753894 8:0.020560748 9:0.014953271 
1 1:0.43273266 2:0.2204394 3:0.10281412 4:0.07936312 5:0.055665268 6:0.035917058 7:0.033201679 8:0.025302394 9:0.014564305 
1 1:0.50721925 2:0.20360963 3:0.088101604 4:0.075 5:0.035828877 6:0.020989305 7:0.029411765 8:0.021791444 9:0.018048128 
1 1:0.4828263 2:0.20033646 3:0.082854339 4:0.084256274 5:0.055797 6:0.015701668 7:0.019066312 8:0.015281088 9:0.043880555 
1 1:0.40793236 2:0.23884123 3:0.10394132 4:0.075842347 5:0.072361059 6:0.034191222 7:0.029963944 8:0.023747358 9:0.013179162 
1 1:0.33380282 2:0.18274648 3:0.095657277 4:0.10011737 5:0.097652582 6:0.055751174 7:0.035211268 8:0.036150235 9:0.062910798 
1 1:0.56248309 2:0.20733027 3:0.080200162 4:0.039897214 5:0.053015959 6:0.020151474 7:0.019880985 8:0.013524479 9:0.0035163646 
1 1:0.33932611 2:0.18275985 3:0.10846529 4:0.089177283 5:0.068103346 6:0.073580188 7:0.04048101 8:0.044410049 9:0.053696869 
1 1:0.34056168 2:0.22763361 3:0.11814196 4:0.083066714 5:0.07998578 6:0.041948098 7:0.020618557 8:0.039696647 9:0.048346961 
1 1:0.42103201 2:0.18589157 3:0.11587198 4:0.088438929 5:0.046505552 6:0.045068583 7:0.032005225 8:0.030306989 9:0.034879164 
1 1:0.29305177 2:0.18610354 3:0.14114441 4:0.10531335 5:0.086376022 6:0.05640327 7:0.057493188 8:0.047138965 9:0.026975477 
1 1:0.29439141 2:0.2146778 3:0.10202864 4:0.076372315 5:0.087828162 6:0.087708831 7:0.063961814 8:0.036754177 9:0.03627685 
1 1:0.49311037 2:0.20722408 3:0.063010033 4:0.068361204 5:0.04548495 6:0.04735786 7:0.017658863 8:0.035451505 9:0.022341137 
1 1:0.35525628 2:0.20266736 3:0.11650105 4:0.085774059 5:0.074790795 6:0.060800209 7:0.038702929 8:0.030726987 9:0.034780335 
1 1:0.38263926 2:0.197404 3:0.078555976 4:0.10789616 5:0.061790157 6:0.047052461 7:0.025283937 8:0.04029205 9:0.059085992 
1 1:0.35294842 2:0.16447125 3:0.10661086 4:0.09897821 5:0.084820879 6:0.080389019 7:0.044072387 8:0.032869629 9:0.034839345 
1 1:0.37631165 2:0.20737146 3:0.070960126 4:0.088798531 5:0.062959077 6:0.054302204 7:0.057712487 8:0.038037775 9:0.043546695 
1 1:0.40604389 2:0.16740616 3:0.11488188 4:0.10336971 5:0.050725507 6:0.04424991 7:0.035136107 8:0.032977575 9:0.045209258 
1 1:0.46688658 2:0.20971835 3:0.077264654 4:0.092235473 5:0.051763512 6:0.026135499 7:0.026135499 8:0.03565085 9:0.014209591 
1 1:0.40889371 2:0.17100506 3:0.099180525 4:0.073150157 5:0.07110147 6:0.064955411 7:0.046276211 8:0.032176428 9:0.033261027 
1 1:0.45825771 2:0.18615504 3:0.10474462 4:0.058594763 5:0.043946072 6:0.035001296 7:0.027352865 8:0.037982888 9:0.047964739 
1 1:0.32682374 2:0.17034144 3:0.10784931 4:0.077863172 5:0.095502079 6:0.062366133 7:0.051026836 8:0.047373063 9:0.060854227 
1 1:0.44408213 2:0.22536232 3:0.0852657 4:0.08031401 5:0.06147343 6:0.032608696 7:0.023913043 8:0.01557971 9:0.031400966 
1 1:0.4845334 2:0.21809202 3:0.087600728 4:0.05822719 5:0.063036132 6:0.040291136 7:0.018325968 8:0.017676111 9:0.012217312 
1 1:0.34101499 2:0.19833774 3:0.14494396 4:0.093942828 5:0.072912731 6:0.041304622 7:0.028711749 8:0.040297192 9:0.03853419 
1 1:0.4 2:0.21735219 3:0.10539846 4:0.096272494 5:0.053341902 6:0.061825193 7:0.029305913 8:0.020437018 9:0.016066838 
1 1:0.38505192 2:0.17592369 3:0.12062304 4:0.086331804 5:0.065805361 6:0.052282057 7:0.029219995 8:0.039724704 9:0.045037431 
1 1:0.35083082 2:0.17875126 3:0.10372608 4:0.11316717 5:0.067975831 6:0.066213494 7:0.044687815 8:0.03335851 9:0.041289023 
1 1:0.49407164 2:0.22767407 3:0.091195762 4:0.059788093 5:0.055877901 6:0.034308779 7:0.016649849 8:0.011982846 9:0.0084510595 
1 1:0.53322143 2:0.18170373 3:0.086725416 4:0.059029235 5:0.036788362 6:0.022520632 7:0.027416422 8:0.026577144 9:0.026017625 
1 1:0.42647438 2:0.20383724 3:0.10043781 4:0.07764615 5:0.07043523 6:0.038501159 7:0.025495751 8:0.021890291 9:0.035281998 
1 1:0.37460317 2:0.21973775 3:0.095928226 4:0.11166322 5:0.059627329 6:0.063216011 7:0.024154589 8:0.033678399 9:0.017391304 
1 1:0.4714361 2:0.17771137 3:0.10388469 4:0.085603797 5:0.050975567 6:0.035507119 7:0.03216734 8:0.027948673 9:0.014765337 
1 1:0.34036597 2:0.19575311 3:0.12965998 4:0.083162638 5:0.072852656 6:0.058309436 7:0.047180117 8:0.040557149 9:0.032158951 
1 1:0.47711751 2:0.18792684 3:0.10487479 4:0.072062171 5:0.047177957 6:0.034618102 7:0.029829657 8:0.022843237 9:0.023549729 
1 1:0.45045532 2:0.17911715 3:0.11460102 4:0.088593919 5:0.050007717 6:0.037737305 7:0.025929927 8:0.036811236 9:0.016746411 
1 1:0.44236154 2:0.20838519 3:0.10664281 4:0.071639701 5:0.059505289 6:0.037414437 7:0.033680772 8:0.026369011 9:0.014001245 
1 1:0.43355811 2:0.22380008 3:0.10432368 4:0.078222927 5:0.060848869 6:0.034430781 7:0.024593415 8:0.024514082 9:0.015708052 
1 1:0.34723447 2:0.19453194 3:0.10753433 4:0.10356558 5:0.064696989 6:0.060980219 7:0.043908278 8:0.036348746 9:0.041199446 
1 1:0.40060945 2:0.22705691 3:0.082772305 4:0.089079442 5:0.069165899 6:0.03670895 7:0.033449082 8:0.037559351 9:0.023598611 
1 1:0.47176234 2:0.17476404 3:0.090902058 4:0.098406313 5:0.048197432 6:0.056243231 7:0.026535665 8:0.023363763 9:0.0098251586 
1 1:0.42824331 2:0.20419352 3:0.10861673 4:0.082610951 5:0.051641105 6:0.049788842 7:0.027043047 8:0.029562125 9:0.018300363 
1 1:0.32490857 2:0.18495298 3:0.10697492 4:0.097048067 5:0.081374086 6:0.064067398 7:0.046695402 8:0.041993208 9:0.051985371 
1 1:0.38220298 2:0.1836977 3:0.11035832 4:0.079695467 5:0.07278061 6:0.049661242 7:0.040441433 8:0.040441433 9:0.040720821 
1 1:0.40187617 2:0.18602251 3:0.12326454 4:0.080675422 5:0.061257036 6:0.04793621 7:0.039681051 8:0.034333959 9:0.024953096 
1 1:0.4163825 2:0.17129798 3:0.099180149 4:0.084234202 5:0.057099325 6:0.057462091 7:0.042588696 8:0.041500399 9:0.030254662 
1 1:0.43656661 2:0.17588348 3:0.11311548 4:0.082433831 5:0.060402188 6:0.043693627 7:0.037779092 8:0.031642762 9:0.018482922 
1 1:0.58341285 2:0.16603053 3:0.086195929 4:0.061227735 5:0.036180025 6:0.020833333 7:0.021469466 8:0.018209288 9:0.0064408397 
1 1:0.44904783 2:0.18774531 3:0.094490478 4:0.077264137 5:0.070940544 6:0.038014246 7:0.032054078 8:0.028274458 9:0.02216892 
1 1:0.4854009 2:0.17256295 3:0.094855554 4:0.076008033 5:0.061717905 6:0.040012359 7:0.0286575 8:0.020855863 9:0.019928936 
1 1:0.36686638 2:0.18949422 3:0.11188519 4:0.08938275 5:0.079699039 6:0.060261948 7:0.039919186 8:0.041033858 9:0.021457433 
1 1:0.46255444 2:0.17898194 3:0.099664453 4:0.089312487 5:0.053116299 6:0.041622046 7:0.025987006 8:0.024273577 9:0.024487756 
1 1:0.40650463 2:0.1753604 3:0.094783759 4:0.086217703 5:0.069990946 6:0.06142489 7:0.042621352 8:0.033567797 9:0.029528519 
1 1:0.42535026 2:0.18089609 3:0.10091944 4:0.080195563 5:0.059325744 6:0.053196147 7:0.031304729 8:0.031158786 9:0.03765324 
1 1:0.43856593 2:0.18608027 3:0.095580231 4:0.08745192 5:0.068219755 6:0.05174541 7:0.028158792 8:0.025908992 9:0.0182887 
1 1:0.3905929 2:0.21343062 3:0.11440108 4:0.081249557 5:0.059431891 6:0.051214847 7:0.033293193 8:0.030743076 9:0.025642842 
1 1:0.46478663 2:0.18733214 3:0.099224112 4:0.083333333 5:0.054088332 6:0.033646673 7:0.025290958 8:0.025216353 9:0.027081468 
1 1:0.46362867 2:0.18512817 3:0.089600493 4:0.076052652 5:0.06781618 6:0.031252406 7:0.028943114 8:0.033561697 9:0.024016627 
1 1:0.2718762 2:0.13222094 3:0.16862162 4:0.14813591 5:0.096481084 6:0.074838923 7:0.040641004 8:0.033426951 9:0.033757365 
1 1:0.22372492 2:0.18988921 3:0.23665036 4:0.13080148 5:0.083990418 6:0.048657551 7:0.022906478 8:0.031939315 9:0.031440263 
1 1:0.23630154 2:0.18894949 3:0.22019471 4:0.14190326 5:0.08124777 6:0.050920027 7:0.02553647 8:0.02961415 9:0.025332586 
1 1:0.23994716 2:0.18568032 3:0.20649934 4:0.13035667 5:0.086393659 6:0.055112285 7:0.029696169 8:0.033553501 9:0.032760898 
1 1:0.26102162 2:0.21184824 3:0.19022891 4:0.10216193 5:0.084622721 6:0.050445104 7:0.037992794 8:0.032746927 9:0.028931751 
1 1:0.25366079 2:0.22206237 3:0.21301958 4:0.10712634 5:0.075219648 6:0.046909521 7:0.025946668 8:0.03247187 9:0.023583209 
1 1:0.27991149 2:0.20910384 3:0.19224488 4:0.10768663 5:0.074337495 6:0.045361151 7:0.026500184 8:0.035140404 9:0.029713924 
1 1:0.32221441 2:0.19851868 3:0.15088933 4:0.091474293 5:0.073957939 6:0.056387522 7:0.03584365 8:0.036330216 9:0.034383954 
1 1:0.37962765 2:0.19152579 3:0.11769741 4:0.078108282 5:0.067194522 6:0.065375562 7:0.039482131 8:0.033276268 9:0.02771239 
1 1:0.30754234 2:0.17223708 3:0.12388592 4:0.096813725 5:0.076314617 6:0.07241533 7:0.064115419 8:0.045231729 9:0.04144385 
1 1:0.34086465 2:0.21268738 3:0.12942646 4:0.068216381 5:0.056756463 6:0.062622203 7:0.047469042 8:0.039593743 9:0.042363676 
1 1:0.32583625 2:0.2180765 3:0.15467307 4:0.084955383 5:0.059176538 6:0.049835621 7:0.042634243 8:0.03120597 9:0.033606429 
1 1:0.37545933 2:0.19053531 3:0.1247393 4:0.070066541 5:0.051296057 6:0.048664217 7:0.054871387 8:0.037689939 9:0.046677922 
1 1:0.32753289 2:0.18535136 3:0.16776814 4:0.10956163 5:0.072879403 6:0.042078458 7:0.033832535 8:0.030800946 9:0.030194628 
1 1:0.25560206 2:0.18318589 3:0.20808391 4:0.12756264 5:0.062615882 6:0.058854691 7:0.037029189 8:0.035386979 9:0.031678763 
1 1:0.27667671 2:0.21584483 3:0.18598383 4:0.092436975 5:0.076475873 6:0.054753977 7:0.030336663 8:0.035093283 9:0.032397865 
1 1:0.33505413 2:0.18491432 3:0.11077651 4:0.09744031 5:0.066322507 6:0.068330107 7:0.044454004 8:0.039004804 9:0.053703305 
1 1:0.45382645 2:0.20062382 3:0.096357358 4:0.090453381 5:0.048457168 6:0.033975716 7:0.018825888 8:0.021276596 9:0.036203632 
1 1:0.5583354 2:0.19469903 3:0.080753034 4:0.043101313 5:0.046073817 6:0.017339609 7:0.017835026 8:0.015357939 9:0.02650483 
1 1:0.34344389 2:0.18963739 3:0.10800825 4:0.090823165 5:0.077332875 6:0.06298333 7:0.037721258 8:0.049578965 9:0.040470871 
1 1:0.6210672 2:0.18600554 3:0.079536874 4:0.04643846 5:0.02932293 6:0.012836647 7:0.0094387113 8:0.0096904103 9:0.0056632268 
1 1:0.40200415 2:0.18382861 3:0.10331721 4:0.075259157 5:0.076295784 6:0.056323428 7:0.037387699 8:0.032066344 9:0.033517623 
1 1:0.39492142 2:0.15950123 3:0.11923626 4:0.073580985 5:0.063190025 6:0.069814262 7:0.04565528 8:0.029679179 9:0.044421353 
1 1:0.38757851 2:0.16573622 3:0.11116539 4:0.087718074 5:0.072993719 6:0.064410328 7:0.051290998 8:0.029099791 9:0.030006978 
1 1:0.40770252 2:0.21374153 3:0.097854197 4:0.07807367 5:0.064164395 6:0.047878661 7:0.037883554 8:0.025721675 9:0.0269798 
1 1:0.55398333 2:0.21360729 3:0.069102539 4:0.058053886 5:0.03159527 6:0.019189765 7:0.01996511 8:0.020837372 9:0.013665439 
1 1:0.33640643 2:0.19432457 3:0.0940238 4:0.086700667 5:0.087289133 6:0.066888976 7:0.046488819 8:0.044723421 9:0.043154178 
1 1:0.36378817 2:0.19811546 3:0.12523855 4:0.091304866 5:0.064885496 6:0.060174141 7:0.030713263 8:0.033039122 9:0.032740935 
1 1:0.38155721 2:0.17719428 3:0.11152247 4:0.088340833 5:0.06527311 6:0.05200205 7:0.039927095 8:0.038161417 9:0.04602153 
1 1:0.38472303 2:0.19766764 3:0.10693878 4:0.084314869 5:0.065597668 6:0.051078717 7:0.033002915 8:0.035626822 9:0.041049563 
1 1:0.41818182 2:0.17750164 3:0.11379987 4:0.0852845 5:0.071157619 6:0.04617397 7:0.036625245 8:0.031916285 9:0.019359058 
1 1:0.32788395 2:0.20826618 3:0.15571034 4:0.088130325 5:0.073336403 6:0.055203776 7:0.026364264 8:0.032696293 9:0.032408473 
1 1:0.34447582 2:0.2139358 3:0.12085759 4:0.085874013 5:0.080859893 6:0.057230131 7:0.033369835 8:0.031813728 9:0.031583194 
1 1:0.33387467 2:0.2123537 3:0.16352131 4:0.08495268 5:0.064400515 6:0.04379235 7:0.03001624 8:0.034384275 9:0.032704262 
1 1:0.44431007 2:0.19440077 3:0.11101705 4:0.067964687 5:0.062341275 6:0.037670819 7:0.034647479 8:0.023400653 9:0.024247188 
1 1:0.33808374 2:0.18874036 3:0.15705789 4:0.078676167 5:0.068841647 6:0.053471527 7:0.052352629 8:0.032271362 9:0.030504682 
1 1:0.35483871 2:0.16932321 3:0.13244782 4:0.095635674 5:0.082163188 6:0.051865908 7:0.041682479 8:0.035547122 9:0.036495889 
1 1:0.36530205 2:0.1775529 3:0.12871818 4:0.089696412 5:0.061177553 6:0.061254216 7:0.047301441 8:0.032045385 9:0.036951855 
1 1:0.27386378 2:0.17059513 3:0.17189738 4:0.10567782 5:0.084972002 6:0.06426618 7:0.057234015 8:0.031384295 9:0.040109389 
1 1:0.35058135 2:0.21906522 3:0.12219912 4:0.064834065 5:0.084931085 6:0.041195041 7:0.035266035 8:0.034496034 9:0.047432047 
1 1:0.30864128 2:0.20358269 3:0.13840694 4:0.088215412 5:0.073907165 6:0.062584498 7:0.050529518 8:0.03148941 9:0.042643082 
1 1:0.37665128 2:0.20213274 3:0.13098838 4:0.091755531 5:0.067404106 6:0.040585707 7:0.035333439 8:0.037482095 9:0.01766672 
1 1:0.4202943 2:0.19625996 3:0.12685469 4:0.073513182 5:0.055242183 6:0.037522992 7:0.029920294 8:0.033782955 9:0.026609442 
1 1:0.44777237 2:0.19967553 3:0.089417197 4:0.077062274 5:0.074067141 6:0.038687133 7:0.031511294 8:0.023025084 9:0.018781979 
1 1:0.28215354 2:0.18697242 3:0.18577601 4:0.092655367 5:0.071651712 6:0.063010967 7:0.043668993 8:0.033964772 9:0.040146228 
1 1:0.41856582 2:0.18332081 3:0.13089573 4:0.072460139 5:0.043075382 6:0.048918941 7:0.043743217 8:0.024125553 9:0.034894399 
1 1:0.39363817 2:0.18901973 3:0.12930112 4:0.088239792 5:0.056583575 6:0.047025539 7:0.032344395 8:0.027527145 9:0.036320538 
1 1:0.31987323 2:0.18031802 3:0.16572865 4:0.10376482 5:0.074804655 6:0.053166494 7:0.027812688 8:0.035571827 9:0.03895962 
1 1:0.31492117 2:0.15867117 3:0.13164414 4:0.093412162 5:0.09009009 6:0.087387387 7:0.044087838 8:0.034572072 9:0.045213964 
1 1:0.32878089 2:0.15661582 3:0.14425919 4:0.091580939 5:0.079933783 6:0.063615939 7:0.056816838 8:0.034468488 9:0.043928107 
1 1:0.32729384 2:0.15824623 3:0.12816492 4:0.077526132 5:0.07543554 6:0.079907085 7:0.063821138 8:0.03728223 9:0.05232288 
1 1:0.32846371 2:0.18879595 3:0.13018379 4:0.076932139 5:0.065150801 6:0.063619227 7:0.059554665 8:0.03987983 9:0.047419887 
1 1:0.47206795 2:0.14733747 3:0.10715452 4:0.084286181 5:0.077752369 6:0.030872264 7:0.029728847 8:0.02858543 9:0.022214962 
1 1:0.33306022 2:0.17089015 3:0.11295137 4:0.09685726 5:0.091882718 6:0.057412068 7:0.052554574 8:0.036167847 9:0.048223796 
1 1:0.29629853 2:0.15083193 3:0.1236436 4:0.08705088 5:0.086930311 6:0.089100555 7:0.079334459 8:0.040993489 9:0.045816253 
1 1:0.25581775 2:0.13978904 3:0.11608308 4:0.11260331 5:0.10928665 6:0.1049913 7:0.078349282 8:0.042953458 9:0.040126142 
1 1:0.31372241 2:0.14168109 3:0.12925384 4:0.088354045 5:0.090661213 6:0.063866604 7:0.06643595 8:0.048765141 9:0.057259714 
1 1:0.30625273 2:0.16062855 3:0.12199913 4:0.10819511 5:0.082769533 6:0.073384985 7:0.057125709 8:0.039011349 9:0.050632911 
1 1:0.27812633 2:0.16652488 3:0.11176095 4:0.082518077 5:0.094162059 6:0.091716291 7:0.066514249 8:0.041578052 9:0.067099107 
1 1:0.28179659 2:0.14224789 3:0.12205787 4:0.097441157 5:0.07773699 6:0.093878212 7:0.078438782 8:0.042215504 9:0.064187001 
1 1:0.32235711 2:0.14116889 3:0.11382682 4:0.083637731 5:0.088740868 6:0.078964332 7:0.077191663 8:0.035238505 9:0.058874087 
1 1:0.3398231 2:0.16583972 3:0.11271707 4:0.08116708 5:0.070003236 6:0.05878546 7:0.04977888 8:0.048808111 9:0.073077338 
1 1:0.32199583 2:0.16412642 3:0.11604899 4:0.083106048 5:0.075191187 6:0.0630515 7:0.060644954 8:0.04839831 9:0.067436761 
1 1:0.41645859 2:0.15855181 3:0.11163129 4:0.086350395 5:0.071057012 6:0.062421973 7:0.030898876 8:0.031731169 9:0.030898876 
1 1:0.32779497 2:0.13856763 3:0.09350057 4:0.072704566 5:0.079546072 6:0.076885486 7:0.065211489 8:0.048162024 9:0.097627192 
1 1:0.36106776 2:0.16554545 3:0.10101717 4:0.072009041 5:0.06969485 6:0.067219202 7:0.061944998 8:0.037565255 9:0.063936279 
1 1:0.30059592 2:0.15104286 3:0.10067614 4:0.07609443 5:0.07609443 6:0.080334632 7:0.080334632 8:0.052085721 9:0.082741233 
1 1:0.32493018 2:0.16114424 3:0.1322364 4:0.10831006 5:0.081591063 6:0.070948751 7:0.039852064 8:0.035398898 9:0.045588346 
1 1:0.39903689 2:0.18405158 3:0.12259223 4:0.083333333 5:0.073620633 6:0.043911198 7:0.032321254 8:0.032158015 9:0.028974861 
1 1:0.38390093 2:0.18010241 3:0.10990712 4:0.078113837 5:0.06382472 6:0.055965706 7:0.052333889 8:0.03310312 9:0.042748273 
1 1:0.59211793 2:0.23357286 3:0.073783243 4:0.048448033 5:0.023779539 6:0.010519298 7:0.0098525817 8:0.0062967627 9:0.0016297504 
1 1:0.45430319 2:0.19453698 3:0.10308279 4:0.057597965 5:0.047120102 6:0.045121434 7:0.041487493 8:0.023984011 9:0.032766035 
1 1:0.32347243 2:0.20320436 3:0.12927378 4:0.083040997 5:0.063668255 6:0.066076758 7:0.051206869 8:0.040316247 9:0.039740301 
1 1:0.25397809 2:0.12926224 3:0.12797066 4:0.10312048 5:0.11567473 6:0.1094751 7:0.077908659 8:0.035079562 9:0.047530482 
1 1:0.31195683 2:0.17900196 3:0.11753574 4:0.099663583 5:0.084244463 6:0.069386039 7:0.048920662 8:0.042052145 9:0.047238576 
1 1:0.27833265 2:0.12866898 3:0.11475744 4:0.092030167 5:0.10110069 6:0.097380758 7:0.082551977 8:0.042193233 9:0.062984101 
1 1:0.28667681 2:0.12953706 3:0.12279939 4:0.098022169 5:0.082590741 6:0.096555097 7:0.083025429 8:0.03966529 9:0.061128016 
1 1:0.34995816 2:0.1637378 3:0.1307113 4:0.083960948 5:0.076429568 6:0.06153417 7:0.05818689 8:0.029679219 9:0.045801953 
1 1:0.33807058 2:0.18222329 3:0.13368662 4:0.097795977 5:0.070095146 6:0.061905335 7:0.036553053 8:0.042273877 9:0.037396122 
1 1:0.36697495 2:0.19354621 3:0.13987713 4:0.067575778 5:0.069263485 6:0.048065888 7:0.046310673 8:0.034834267 9:0.03355161 
1 1:0.33112625 2:0.18280994 3:0.12075924 4:0.085508891 5:0.069743978 6:0.075797705 7:0.047925337 8:0.0365746 9:0.049754067 
1 1:0.37266126 2:0.14877829 3:0.098690836 4:0.071076483 5:0.069910426 6:0.072189537 7:0.0530556 8:0.037737849 9:0.075899719 
1 1:0.31056199 2:0.17411384 3:0.11797517 4:0.093084628 5:0.083848138 6:0.074731602 7:0.054159419 8:0.035146644 9:0.056378576 
1 1:0.35391995 2:0.19457353 3:0.14435617 4:0.078623894 5:0.073452256 6:0.052315995 7:0.043096987 8:0.026607705 9:0.033053515 
1 1:0.31296619 2:0.17876678 3:0.14855793 4:0.09640726 5:0.071419692 6:0.063774242 7:0.045748384 8:0.041521631 9:0.040837892 
1 1:0.35171409 2:0.18536698 3:0.13398267 4:0.10207838 5:0.072628269 6:0.043101465 7:0.039420201 8:0.044942097 9:0.026765856 
1 1:0.32176373 2:0.18348054 3:0.13897323 4:0.098330113 5:0.076455976 6:0.057963014 7:0.049889594 8:0.038089981 9:0.035053823 
1 1:0.36387273 2:0.2254533 3:0.11091345 4:0.083270612 5:0.056243585 6:0.052206637 7:0.034211427 8:0.031679781 9:0.042148478 
1 1:0.63578125 2:0.2534375 3:0.06625 4:0.02640625 5:0.0115625 6:0.00234375 7:0.00296875 8:0.0009375 9:0.0003125 
1 1:0.65448029 2:0.22408602 3:0.068673835 4:0.02609319 5:0.013620072 6:0.0060215054 7:0.003297491 8:0.0028673835 9:0.00086021505 
1 1:0.62508651 2:0.27474048 3:0.074567474 4:0.019896194 5:0.0046712803 6:0.0008650519 7:0.00017301038 
1 1:0.64082868 2:0.25931099 3:0.063547486 4:0.022346369 5:0.0090782123 6:0.0023277467 7:0.0016294227 8:0.0009310987 
1 1:0.63468815 2:0.24252411 3:0.065787868 4:0.021725864 5:0.01330404 6:0.0034175516 7:0.0063468815 8:0.0037837178 9:0.0084218235 
1 1:0.61334265 2:0.22342531 3:0.059378275 4:0.041914076 5:0.020142042 6:0.017580626 7:0.0089649552 8:0.0062871114 9:0.0089649552 
1 1:0.38874729 2:0.18166178 3:0.099146171 4:0.082388174 5:0.062571683 6:0.061870779 7:0.045176501 8:0.032687651 9:0.045749968 
1 1:0.34555017 2:0.19714027 3:0.11710083 4:0.087024406 5:0.075766291 6:0.052263949 7:0.049059085 8:0.034185225 9:0.041909771 
1 1:0.6367713 2:0.2102903 3:0.07705924 4:0.03103611 5:0.023365589 6:0.0071984895 7:0.009676658 8:0.0030682086 9:0.0015341043 
1 1:0.34223348 2:0.1776132 3:0.11901514 4:0.095497954 5:0.073539921 6:0.057168843 7:0.041447411 8:0.041512376 9:0.051971675 
1 1:0.58632085 2:0.18606048 3:0.078309633 4:0.059282996 5:0.028139395 6:0.022731825 7:0.015822151 8:0.013218506 9:0.01011416 
1 1:0.39062858 2:0.15387704 3:0.10506997 4:0.07863042 5:0.068593714 6:0.061309933 7:0.052707043 8:0.036992429 9:0.052190869 
1 1:0.31229977 2:0.16899314 3:0.12156751 4:0.093077803 5:0.083237986 6:0.070881007 7:0.056064073 8:0.039645309 9:0.05423341 
1 1:0.30354199 2:0.1905168 3:0.14230485 4:0.087895844 5:0.083574962 6:0.061402013 7:0.051168344 8:0.032349764 9:0.047245437 
1 1:0.30189297 2:0.18056844 3:0.11777863 4:0.10097649 5:0.087011074 6:0.070590802 7:0.059462113 8:0.035240849 9:0.046478643 
1 1:0.29175561 2:0.19673455 3:0.14325275 4:0.091905614 5:0.072289852 6:0.074020654 7:0.049789419 8:0.030750591 9:0.049500952 
1 1:0.49792162 2:0.2280285 3:0.10490895 4:0.060273159 5:0.051167854 6:0.019794141 7:0.015538401 8:0.010490895 9:0.011876485 
1 1:0.56449503 2:0.16195709 3:0.07299843 4:0.063448456 5:0.03192046 6:0.052721088 7:0.027995814 8:0.014390372 9:0.01007326 
1 1:0.28708619 2:0.19630182 3:0.19266329 4:0.11565762 5:0.076170593 6:0.043662392 7:0.037041455 8:0.022427677 9:0.028988965 
1 1:0.340585 2:0.18723884 3:0.13311667 4:0.1124229 5:0.074484314 6:0.043642634 7:0.040657956 8:0.035418187 9:0.032433508 
1 1:0.37191389 2:0.19092765 3:0.095793008 4:0.11001383 5:0.073210876 6:0.047797748 7:0.045493449 8:0.037592995 9:0.027256567 
1 1:0.46548576 2:0.22982104 3:0.10628196 4:0.053414901 5:0.047479912 6:0.033601169 7:0.022644266 8:0.025018262 9:0.016252739 
1 1:0.37505809 2:0.22633617 3:0.11920991 4:0.065608056 5:0.062509682 6:0.050580945 7:0.043687064 8:0.031525949 9:0.025484121 
1 1:0.40426012 2:0.18289929 3:0.12577149 4:0.064052386 5:0.070600632 6:0.053138642 7:0.037031462 8:0.034773446 9:0.027472527 
1 1:0.34541128 2:0.22066621 3:0.16043508 4:0.081509177 5:0.056560163 6:0.045003399 7:0.030319511 8:0.034126445 9:0.025968729 
1 1:0.38044733 2:0.17597403 3:0.11313131 4:0.097258297 5:0.064285714 6:0.052525253 7:0.047113997 8:0.033621934 9:0.035642136 
1 1:0.41598313 2:0.1926412 3:0.089758613 4:0.069018045 5:0.069955472 6:0.047105695 7:0.046988517 8:0.032927115 9:0.035622217 
1 1:0.3746381 2:0.18522808 3:0.11387763 4:0.06826224 5:0.06498102 6:0.052821206 7:0.059705334 8:0.03113942 9:0.049346973 
1 1:0.3183832 2:0.21387388 3:0.14468653 4:0.087273169 5:0.06803423 6:0.056624386 7:0.048309765 8:0.027735631 9:0.035079201 
1 1:0.31826015 2:0.18967259 3:0.13310357 4:0.1113554 5:0.07588092 6:0.05716323 7:0.029948304 8:0.030542516 9:0.054073326 
1 1:0.37493337 2:0.16078092 3:0.12320096 4:0.085554371 5:0.067097548 6:0.065898188 7:0.042710554 8:0.041644456 9:0.038179638 
1 1:0.51746863 2:0.1951792 3:0.087388282 4:0.057957931 5:0.041437212 6:0.03295116 7:0.026902591 8:0.023472059 9:0.017242936 
1 1:0.38351673 2:0.15227298 3:0.07913749 4:0.079081916 5:0.071357119 6:0.052239635 7:0.067022341 8:0.052239635 9:0.063132155 
1 1:0.31829368 2:0.13727099 3:0.094503692 4:0.092972382 5:0.061416462 6:0.060432048 7:0.062455565 8:0.055236533 9:0.11741865 
1 1:0.38761628 2:0.22596779 3:0.10643193 4:0.079323797 5:0.056817045 6:0.044713414 7:0.036410923 8:0.033109933 9:0.029608883 
1 1:0.34824523 2:0.25530842 3:0.13212778 4:0.069434818 5:0.063575074 6:0.036544641 7:0.044105601 8:0.027597505 9:0.023060929 
1 1:0.25766122 2:0.16171425 3:0.1893935 4:0.11984648 5:0.068907368 6:0.071814851 7:0.051869512 8:0.038088039 9:0.040704774 
1 1:0.27676977 2:0.19106042 3:0.17406831 4:0.11116871 5:0.07971891 6:0.055411555 7:0.052761938 8:0.029606589 9:0.029433788 
1 1:0.26612633 2:0.15824483 3:0.1666853 4:0.10257127 5:0.087143656 6:0.071548351 7:0.060424818 8:0.038345444 9:0.048910006 
1 1:0.2661606 2:0.14114577 3:0.16949354 4:0.10746056 5:0.077986004 6:0.068615823 7:0.050053374 8:0.047384652 9:0.07169968 
1 1:0.2976965 2:0.17882891 3:0.13791689 4:0.085926968 5:0.07684192 6:0.059433796 7:0.062481683 8:0.04671473 9:0.054158607 
1 1:0.35059696 2:0.13536499 3:0.10946955 4:0.079648912 5:0.071416889 6:0.06792782 7:0.072670774 8:0.040069781 9:0.072834324 
1 1:0.51847075 2:0.20110548 3:0.084108706 4:0.063657301 5:0.04357439 6:0.033717181 7:0.023030861 8:0.022109627 9:0.010225702 
1 1:0.32281047 2:0.18031742 3:0.139481 4:0.074316497 5:0.073158017 6:0.067018072 7:0.065048656 8:0.036434198 9:0.041415663 
1 1:0.31188063 2:0.22004505 3:0.15219595 4:0.083502252 5:0.074099099 6:0.05365991 7:0.036936937 8:0.03384009 9:0.03384009 
1 1:0.27003989 2:0.17064641 3:0.17796842 4:0.10289055 5:0.062073111 6:0.0641495 7:0.057701765 8:0.04557128 9:0.048959073 
1 1:0.27126866 2:0.21018124 3:0.20277186 4:0.086567164 5:0.062899787 6:0.056609808 7:0.033635394 8:0.036247335 9:0.039818763 
1 1:0.33421622 2:0.20464865 3:0.16464865 4:0.086918919 5:0.063405405 6:0.043675676 7:0.038756757 8:0.034486486 9:0.029243243 
1 1:0.35663292 2:0.15977624 3:0.11369206 4:0.094246137 5:0.073201918 6:0.063931806 7:0.059722962 8:0.035588705 9:0.043207246 
1 1:0.39099178 2:0.18544742 3:0.10669354 4:0.072272752 5:0.053210609 6:0.056968575 7:0.043951854 8:0.03970372 9:0.050759763 
1 1:0.40347048 2:0.17799847 3:0.10733384 4:0.074648041 5:0.0592055 6:0.050311034 7:0.034486522 8:0.039561279 9:0.05298483 
1 1:0.38176104 2:0.16700667 3:0.11302862 4:0.072558858 5:0.070077742 6:0.056955395 7:0.051386668 8:0.040469758 9:0.046755252 
1 1:0.38412399 2:0.1844795 3:0.11309854 4:0.078435729 5:0.062604155 6:0.045772692 7:0.042273081 8:0.039384513 9:0.049827797 
1 1:0.53804037 2:0.18999755 3:0.089727874 4:0.058347634 5:0.04445534 6:0.02230939 7:0.027049113 8:0.021247038 9:0.0088256926 
1 1:0.40140696 2:0.17460066 3:0.099862478 4:0.068020734 5:0.067809161 6:0.044589019 7:0.03892944 8:0.041785677 9:0.062995874 
1 1:0.3257752 2:0.15330916 3:0.13290762 4:0.086638887 5:0.081497917 6:0.081606148 7:0.054007251 8:0.037989069 9:0.046268737 
1 1:0.26872407 2:0.19616183 3:0.1780083 4:0.10539419 5:0.084076763 6:0.062240664 7:0.034647303 8:0.035529046 9:0.035217842 
1 1:0.27577138 2:0.17647059 3:0.15459619 4:0.10385528 5:0.1005196 6:0.058759382 7:0.053884149 8:0.033421002 9:0.042722432 
1 1:0.29878122 2:0.16338844 3:0.14215036 4:0.092976952 5:0.081271872 6:0.072945577 7:0.056775673 8:0.045311934 9:0.046397973 
1 1:0.37681267 2:0.22084936 3:0.1450873 4:0.091965078 5:0.065625925 6:0.041062445 7:0.026043208 8:0.018126665 9:0.014427345 
1 1:0.58210325 2:0.17307839 3:0.079235182 4:0.055755258 5:0.034646272 6:0.020573614 7:0.021644359 8:0.015602294 9:0.017361377 
1 1:0.58325983 2:0.18345387 3:0.086875992 4:0.042423708 5:0.042159111 6:0.033162815 7:0.011818663 8:0.013935438 9:0.0029105662 
1 1:0.57103347 2:0.19268 3:0.09689315 4:0.062136996 5:0.030146584 6:0.014935005 7:0.014105283 8:0.0094957131 9:0.0085737992 
1 1:0.50174507 2:0.17200303 3:0.08353566 4:0.095751138 5:0.0392261 6:0.030197269 7:0.027465857 8:0.029438543 9:0.020637329 
1 1:0.47194034 2:0.19718635 3:0.093480935 4:0.070187577 5:0.058886839 6:0.03451722 7:0.029750923 8:0.029135916 9:0.014913899 
1 1:0.66215962 2:0.1800939 3:0.066478873 4:0.035680751 5:0.020187793 6:0.015211268 7:0.0090140845 8:0.00657277 9:0.004600939 
1 1:0.57445928 2:0.20397392 3:0.087757425 4:0.063851806 5:0.018110318 6:0.018524268 7:0.0038290386 8:0.018317293 9:0.011176653 
1 1:0.56014701 2:0.21744313 3:0.084533625 4:0.043707162 5:0.030595013 6:0.031091686 7:0.010330784 8:0.01003278 9:0.012118804 
1 1:0.59356697 2:0.18262122 3:0.085165627 4:0.041766683 5:0.025156025 6:0.03831013 7:0.011521843 8:0.010945751 9:0.010945751 
1 1:0.62386157 2:0.18771504 3:0.076502732 4:0.049079134 5:0.026614046 6:0.01113135 7:0.010422991 8:0.0091074681 9:0.005565675 
1 1:0.5749517 2:0.22332083 3:0.081259234 4:0.042391181 5:0.037617911 6:0.012274122 7:0.0067053074 8:0.008978293 9:0.012501421 
1 1:0.58171338 2:0.20230561 3:0.071202532 4:0.067359855 5:0.024299277 6:0.022716998 7:0.013788427 8:0.0082504521 9:0.008363472 
1 1:0.66472242 2:0.19685449 3:0.066659723 4:0.026663889 5:0.013956879 6:0.0069784397 7:0.0094781794 8:0.0031246745 9:0.011561296 
1 1:0.60548321 2:0.25044551 3:0.070185058 4:0.046333105 5:0.015215901 6:0.0053461275 7:0.0056202879 8:0.00082248115 9:0.00054832077 
1 1:0.52170868 2:0.22041317 3:0.097514006 4:0.057685574 5:0.03317577 6:0.023897059 7:0.018382353 8:0.012167367 9:0.015056022 
1 1:0.4291086 2:0.2086559 3:0.086337831 4:0.079628401 5:0.054339011 6:0.04799823 7:0.03362088 8:0.02868097 9:0.03163017 
1 1:0.5290856 2:0.19805447 3:0.11614786 4:0.048346304 5:0.039396887 6:0.030350195 7:0.015077821 8:0.012645914 9:0.010894942 
1 1:0.33626184 2:0.17769165 3:0.11593454 4:0.094056848 5:0.067958656 6:0.080361757 7:0.042721792 8:0.047114556 9:0.037898363 
1 1:0.38720711 2:0.15597742 3:0.094749444 4:0.091328887 5:0.057123311 6:0.068582179 7:0.05558406 8:0.036942022 9:0.052505558 
1 1:0.48162072 2:0.16269841 3:0.090225564 4:0.062447786 5:0.063909774 6:0.05304929 7:0.027568922 8:0.038638262 9:0.01984127 
1 1:0.43098782 2:0.20658548 3:0.10336791 4:0.067809352 5:0.053751316 6:0.048488949 7:0.028266426 8:0.034130206 9:0.026612539 
1 1:0.4599903 2:0.22688328 3:0.09804397 4:0.063773036 5:0.045990947 6:0.037261558 7:0.02990624 8:0.020045263 9:0.018105399 
1 1:0.5200579 2:0.22342845 3:0.095947064 4:0.047249793 5:0.034015715 6:0.028122415 7:0.023676592 8:0.010752688 9:0.01674938 
1 1:0.50724395 2:0.182983 3:0.090025961 4:0.068922201 5:0.055439243 6:0.035507914 7:0.017586467 8:0.022527427 9:0.019763839 
1 1:0.47212285 2:0.17860571 3:0.087252421 4:0.087077916 5:0.065526568 6:0.03856557 7:0.03315592 8:0.018846523 9:0.018846523 
1 1:0.48477774 2:0.20545387 3:0.091053418 4:0.066959283 5:0.051083302 6:0.035954427 7:0.022693313 8:0.022413149 9:0.019611505 
1 1:0.51779295 2:0.19949676 3:0.095524802 4:0.054547088 5:0.039000719 6:0.027138749 7:0.02426312 8:0.025341481 9:0.016894321 
1 1:0.46026349 2:0.20594985 3:0.10658734 4:0.064173396 5:0.053633659 6:0.030259244 7:0.02320442 8:0.018529537 9:0.037399065 
1 1:0.4242713 2:0.24318958 3:0.0983242 4:0.070923676 5:0.067985069 6:0.033277738 7:0.020808514 8:0.019855452 9:0.021364467 
1 1:0.5773057 2:0.18880829 3:0.095025907 4:0.050051813 5:0.033989637 6:0.022176166 7:0.010259067 8:0.0098445596 9:0.01253886 
1 1:0.54750387 2:0.19475619 3:0.095104489 4:0.062209752 5:0.034732972 6:0.01625387 7:0.020123839 8:0.014318885 9:0.01499613 
1 1:0.53393922 2:0.19426299 3:0.084445707 4:0.05102717 5:0.035879958 6:0.032093155 7:0.027264982 8:0.020259396 9:0.020827416 
1 1:0.57677208 2:0.20774264 3:0.088549618 4:0.046346783 5:0.034460196 6:0.011995638 7:0.010359869 8:0.0058887677 9:0.017884406 
1 1:0.4549047 2:0.23857121 3:0.094529676 4:0.053773439 5:0.053463505 6:0.033085387 7:0.024562219 8:0.021462885 9:0.025646986 
1 1:0.49030707 2:0.22890819 3:0.095921216 4:0.049782878 5:0.055443548 6:0.030397022 7:0.021169355 8:0.013182382 9:0.014888337 
1 1:0.47171635 2:0.21794395 3:0.11053297 4:0.079684829 5:0.040585743 6:0.027874823 7:0.020292871 8:0.011893258 9:0.01947521 
1 1:0.56475637 2:0.20138012 3:0.080282757 4:0.045611378 5:0.032315072 6:0.024657073 7:0.011276614 8:0.019018766 9:0.020701843 
1 1:0.40834039 2:0.21274344 3:0.092506351 4:0.089613322 5:0.065834039 6:0.050169348 7:0.028859723 8:0.023708721 9:0.028224668 
1 1:0.55442752 2:0.20802782 3:0.10659898 4:0.042771198 5:0.036191013 6:0.018048505 7:0.011656326 8:0.015322429 9:0.0069561948 
1 1:0.44963609 2:0.22580645 3:0.097493036 4:0.055171174 5:0.058765388 6:0.029113128 7:0.022463833 8:0.034234882 9:0.027316021 
1 1:0.488054 2:0.20783373 3:0.084643396 4:0.080557776 5:0.036415312 6:0.024424905 7:0.023625544 8:0.01598721 9:0.038458122 
1 1:0.45697384 2:0.21582401 3:0.1048156 4:0.068305758 5:0.039929753 6:0.037711434 7:0.020981606 8:0.014603938 9:0.040854053 
1 1:0.48589227 2:0.18550751 3:0.093257604 4:0.090234518 5:0.040307805 6:0.031788201 7:0.016489557 8:0.022718945 9:0.033803591 
1 1:0.48260707 2:0.21946886 3:0.089021881 4:0.053113896 5:0.049560501 6:0.04675519 7:0.01477464 8:0.023938657 9:0.020759304 
1 1:0.51820196 2:0.21620766 3:0.090112905 4:0.056452464 5:0.034610109 6:0.019309908 7:0.013400865 8:0.025957582 9:0.025746544 
1 1:0.59896054 2:0.18317777 3:0.086126432 4:0.047411964 5:0.042108613 6:0.015273653 7:0.014637251 8:0.0064700891 9:0.0058336869 
1 1:0.55266405 2:0.21200224 3:0.0809871 4:0.055412227 5:0.038698822 6:0.024901851 7:0.018395962 8:0.0077397644 9:0.0091979809 
1 1:0.62432834 2:0.21470218 3:0.084829084 4:0.035326398 5:0.016920087 6:0.012118441 7:0.0067451698 8:0.0030867726 9:0.0019435235 
1 1:0.41753238 2:0.1865661 3:0.1174043 4:0.09136189 5:0.05336559 6:0.057777145 7:0.035007827 8:0.029742422 9:0.011242351 
1 1:0.46895449 2:0.19696088 3:0.095026901 4:0.067398575 5:0.047404391 6:0.049730987 7:0.031409045 8:0.022975135 9:0.020139596 
1 1:0.59767753 2:0.20953653 3:0.06433049 4:0.045113555 5:0.035761998 6:0.014900832 7:0.011715137 8:0.01531189 9:0.0056520399 
1 1:0.62755217 2:0.19340363 3:0.078864707 4:0.046892529 5:0.023782814 6:0.012115773 7:0.008077182 8:0.0077406327 9:0.0015705632 
1 1:0.47440889 2:0.23112715 3:0.097616561 4:0.045579717 5:0.043015858 6:0.038837717 7:0.020510873 8:0.036748647 9:0.012154591 
1 1:0.58497794 2:0.21140005 3:0.082423961 4:0.045855584 5:0.025191549 6:0.015556072 7:0.0097515672 8:0.0078941258 9:0.016949153 
1 1:0.62933221 2:0.1816568 3:0.083601014 4:0.050042265 5:0.030008453 6:0.010481826 7:0.0074387151 8:0.0056635672 9:0.0017751479 
1 1:0.67530894 2:0.16913012 3:0.0740651 4:0.047169049 5:0.018899927 6:0.0063807447 7:0.0065422825 8:0.0020999919 9:0.0004038446 
1 1:0.58883093 2:0.1887849 3:0.084688555 4:0.0533139 5:0.030991102 6:0.017873581 7:0.0097422522 8:0.011966861 9:0.013807917 
1 1:0.55032619 2:0.22842498 3:0.090307549 4:0.040540541 5:0.04082013 6:0.023671948 7:0.010624418 8:0.0087604846 9:0.0065237651 
1 1:0.51295004 2:0.22933505 3:0.10075312 4:0.057218957 5:0.034533431 6:0.015337987 7:0.017174871 8:0.016531962 9:0.016164585 
1 1:0.68738824 2:0.17481855 3:0.056800252 4:0.044388345 5:0.016619333 6:0.0084148522 7:0.0070474387 8:0.0039970548 9:0.00052592826 
1 1:0.48435304 2:0.19427388 3:0.088111267 4:0.079233558 5:0.058740845 6:0.030184212 7:0.018865133 8:0.028408671 9:0.0178294 
1 1:0.35694466 2:0.20679821 3:0.12956683 4:0.078156313 5:0.06320333 6:0.0595807 7:0.037382457 8:0.030676738 9:0.037690766 
1 1:0.32498176 2:0.16656531 3:0.10550961 4:0.094745804 5:0.077414254 6:0.074373632 7:0.060265142 8:0.038737533 9:0.057406957 
1 1:0.30780466 2:0.19654537 3:0.13462882 4:0.11176732 5:0.082872928 6:0.059503397 7:0.051501873 8:0.027687814 9:0.027687814 
1 1:0.57455719 2:0.2221612 3:0.083344776 4:0.054235892 5:0.029520802 6:0.018399011 7:0.0089935466 8:0.0052862831 9:0.0035013044 
1 1:0.75722823 2:0.15409465 3:0.045630754 4:0.027943789 5:0.0093684381 6:0.0030689711 7:0.0020998223 8:0.00048457438 9:8.0762397e-005 
1 1:0.4729295 2:0.19477893 3:0.085026197 4:0.08199283 5:0.047063149 6:0.03888225 7:0.03428624 8:0.016453718 9:0.028587186 
1 1:0.50359854 2:0.20861678 3:0.090308587 4:0.063492063 5:0.050280982 6:0.029182688 7:0.014196983 8:0.016760327 9:0.023563048 
1 1:0.56942513 2:0.22531293 3:0.091330552 4:0.03175707 5:0.03175707 6:0.026657395 7:0.010894761 8:0.0068382012 9:0.0060268892 
1 1:0.50508721 2:0.1812823 3:0.11175711 4:0.06120801 5:0.038678941 6:0.029796512 7:0.026970284 8:0.023982558 9:0.02123708 
1 1:0.57820905 2:0.1922793 3:0.088387301 4:0.047674296 5:0.033224343 6:0.015821116 7:0.016559435 8:0.01771965 9:0.010125514 
1 1:0.38093956 2:0.19551757 3:0.09099475 4:0.087091129 5:0.072822722 6:0.0565352 7:0.04805492 8:0.041930273 9:0.026113878 
1 1:0.50867948 2:0.22297995 3:0.093821037 4:0.060859682 5:0.049803678 6:0.027691672 7:0.012399256 8:0.011262658 9:0.012502583 
1 1:0.53087333 2:0.20025375 3:0.084478748 4:0.069993656 5:0.033939522 6:0.028018609 7:0.018397124 8:0.014379361 9:0.019665891 
1 1:0.5082348 2:0.19140625 3:0.081186655 4:0.074324324 5:0.047191723 6:0.039168074 7:0.013830236 8:0.028399493 9:0.016258446 
1 1:0.5872427 2:0.2331259 3:0.065820967 4:0.038774533 5:0.029798947 6:0.015797032 7:0.014360938 8:0.0094542843 9:0.0056247008 
1 1:0.65888773 2:0.19366075 3:0.070823174 4:0.034018344 5:0.01985371 6:0.0080111459 7:0.0054568675 8:0.0062695925 9:0.0030186927 
1 1:0.54158669 2:0.2070804 3:0.095329495 4:0.056301983 5:0.044039241 6:0.020580081 7:0.014395393 8:0.01087652 9:0.0098101941 
1 1:0.53956621 2:0.19669209 3:0.087550758 4:0.067445776 5:0.048925423 6:0.02030306 7:0.020104982 8:0.012776072 9:0.0066356343 
1 1:0.51708667 2:0.21935853 3:0.10853379 4:0.048300878 5:0.033791523 6:0.037705231 7:0.014604811 8:0.011263841 9:0.0093547155 
1 1:0.56814047 2:0.21206332 3:0.087518195 4:0.045942504 5:0.03202329 6:0.019013828 7:0.017376274 8:0.010371179 9:0.0075509461 
1 1:0.53736121 2:0.22326698 3:0.086425928 4:0.051615485 5:0.037411223 6:0.017805342 7:0.022006602 8:0.012403721 9:0.011703511 
1 1:0.5235473 2:0.18361141 3:0.081614202 4:0.076025314 5:0.041012575 6:0.02967042 7:0.023834963 8:0.021533657 9:0.01915016 
1 1:0.6472652 2:0.18028068 3:0.063871896 4:0.036973732 5:0.022849946 6:0.0098056855 7:0.0087261605 8:0.015833033 9:0.014393667 
1 1:0.66593091 2:0.20968988 3:0.056285178 4:0.034212559 5:0.016333738 6:0.0068425119 7:0.0064010595 8:0.0013243571 9:0.0029798036 
1 1:0.56703847 2:0.2264967 3:0.068631914 4:0.056567266 5:0.028454359 6:0.015592989 7:0.0094468473 8:0.01821079 9:0.0095606647 
1 1:0.53931802 2:0.23242867 3:0.086058919 4:0.062282533 5:0.036070517 6:0.012178149 7:0.015425655 8:0.0080027836 9:0.0082347483 
1 1:0.62171396 2:0.21856316 3:0.056372782 4:0.043086267 5:0.027332258 6:0.010059789 7:0.0044604726 8:0.013286514 9:0.0051247983 
1 1:0.67476548 2:0.1641651 3:0.066135084 4:0.042776735 5:0.02532833 6:0.0130394 7:0.0075046904 8:0.0045966229 9:0.0016885553 
1 1:0.56487769 2:0.21170124 3:0.089201005 4:0.041484513 5:0.032648126 6:0.019533067 7:0.011068738 8:0.0093014603 9:0.020184169 
1 1:0.47795381 2:0.21893491 3:0.095819813 4:0.071196793 5:0.051918305 6:0.0275816 7:0.011357129 8:0.032926131 9:0.01231151 
1 1:0.57029703 2:0.20528053 3:0.075907591 4:0.0440044 5:0.034873487 6:0.022992299 7:0.022552255 8:0.013641364 9:0.010451045 
1 1:0.65102189 2:0.15784797 3:0.070280313 4:0.051862024 5:0.021003312 6:0.0096130544 7:0.01106713 8:0.019226109 9:0.0080781969 
1 1:0.39808938 2:0.19420271 3:0.12602238 4:0.072237126 5:0.060982791 6:0.049008702 7:0.039063011 8:0.038932147 9:0.021461755 
1 1:0.60230379 2:0.20392425 3:0.072530262 4:0.031921125 5:0.040609137 6:0.024209293 7:0.010445139 8:0.0070285045 9:0.0070285045 
1 1:0.57813339 2:0.21018151 3:0.075502094 4:0.054451724 5:0.02835356 6:0.022661368 7:0.011706584 8:0.011813983 9:0.0071957899 
1 1:0.53999794 2:0.22279419 3:0.1136621 4:0.038196232 5:0.031607124 6:0.010089571 7:0.015237311 8:0.025326881 9:0.0030886441 
1 1:0.51931469 2:0.19371262 3:0.091239696 4:0.075804105 5:0.039356716 6:0.018425731 7:0.018910619 8:0.033780508 9:0.0094553095 
1 1:0.69242868 2:0.15221277 3:0.081075284 4:0.033960106 5:0.020876528 6:0.0073639808 7:0.0060770716 8:0.0047901623 9:0.0012154143 
1 1:0.6315862 2:0.15317859 3:0.069081893 4:0.055100214 5:0.028927612 6:0.022315586 7:0.012535299 8:0.020731455 9:0.0065431504 
1 1:0.56826868 2:0.18378466 3:0.087826299 4:0.070098398 5:0.034561275 6:0.015613564 7:0.016426771 8:0.018541108 9:0.0048792388 
1 1:0.51352799 2:0.20189303 3:0.085900527 4:0.059291008 5:0.053844093 6:0.032056434 7:0.018840968 8:0.017590856 9:0.017055094 
1 1:0.47396278 2:0.20198054 3:0.083319105 4:0.069916339 5:0.058220932 6:0.041659553 7:0.01861021 8:0.017927267 9:0.034403278 
1 1:0.50821071 2:0.22008957 3:0.089784602 4:0.063659629 5:0.036574963 6:0.025698443 7:0.023779057 8:0.013435701 9:0.018767328 
1 1:0.47471721 2:0.1994906 3:0.087197543 4:0.062626414 5:0.055359952 6:0.037680725 7:0.04277474 8:0.024720953 9:0.015431868 
1 1:0.46549881 2:0.18891356 3:0.099432519 4:0.079447323 5:0.051237766 6:0.032897442 7:0.025742249 8:0.031499301 9:0.025331031 
1 1:0.47758109 2:0.20442088 3:0.10000899 4:0.08239734 5:0.046904484 6:0.03369575 7:0.019318897 8:0.022643544 9:0.013029023 
1 1:0.50580558 2:0.17670989 3:0.074752098 4:0.088651581 5:0.055936944 6:0.029663531 7:0.019493177 8:0.021357742 9:0.02762946 
1 1:0.50308564 2:0.18480007 3:0.09003297 4:0.05325894 5:0.069574774 6:0.025192324 7:0.020796348 8:0.03296982 9:0.02028912 
1 1:0.56304415 2:0.21069343 3:0.0788692 4:0.048857933 5:0.042917136 6:0.020997644 7:0.018744238 8:0.0099354707 9:0.0059407969 
1 1:0.55077784 2:0.18685544 3:0.081716483 4:0.059954553 5:0.0454466 6:0.032686593 7:0.018003845 8:0.01232302 9:0.012235623 
1 1:0.50992712 2:0.18631147 3:0.090810086 4:0.065426824 5:0.04104884 6:0.021110832 7:0.037614141 8:0.025383262 9:0.022367429 
1 1:0.5365089 2:0.20752427 3:0.087176375 4:0.058151294 5:0.031351133 6:0.015574434 7:0.015675566 8:0.021541262 9:0.026496764 
1 1:0.47267498 2:0.21180162 3:0.11522705 4:0.04575961 5:0.040268456 6:0.034777303 7:0.022661902 8:0.041750196 9:0.015078881 
1 1:0.54987952 2:0.20337349 3:0.069975904 4:0.047903614 5:0.053301205 6:0.036915663 7:0.01773494 8:0.0089638554 9:0.011951807 
1 1:0.49802891 2:0.18559171 3:0.1030378 4:0.061683543 5:0.057432171 6:0.024735255 7:0.026126614 8:0.028136353 9:0.015227642 
1 1:0.535349 2:0.22429571 3:0.084066033 4:0.048358155 5:0.041898439 6:0.021711825 7:0.022070698 8:0.015072672 9:0.0071774628 
1 1:0.52009901 2:0.18871287 3:0.091881188 4:0.072376238 5:0.048118812 6:0.026930693 7:0.016039604 8:0.014752475 9:0.021089109 
1 1:0.52685447 2:0.21698021 3:0.068817624 4:0.072229262 5:0.030607272 6:0.017155668 7:0.023004191 8:0.01393898 9:0.030412321 
1 1:0.56978948 2:0.18088397 3:0.10386112 4:0.043899032 5:0.047490771 6:0.020053876 7:0.013967874 8:0.016063055 9:0.0039908211 
1 1:0.52818293 2:0.21125435 3:0.08516044 4:0.065869954 5:0.035757975 6:0.022960384 7:0.022301684 8:0.017220288 9:0.011291992 
1 1:0.46192411 2:0.19120062 3:0.081424496 4:0.10121877 5:0.07226208 6:0.023078918 7:0.014867318 8:0.026622871 9:0.027400813 
1 1:0.47985289 2:0.19235689 3:0.08970259 4:0.068436201 5:0.068276303 6:0.029101375 7:0.029021426 8:0.018388232 9:0.024864087 
1 1:0.40520984 2:0.22118973 3:0.10015995 4:0.076852769 5:0.065275345 6:0.03450377 7:0.023535684 8:0.047223703 9:0.026049204 
1 1:0.48994836 2:0.21495758 3:0.091663593 4:0.086776097 5:0.039745481 6:0.021486536 7:0.020564367 8:0.016230173 9:0.018627813 
1 1:0.46299008 2:0.18927932 3:0.093541565 4:0.075158614 5:0.056043599 6:0.043923865 7:0.019521718 8:0.024564828 9:0.034976411 
1 1:0.52391272 2:0.18420266 3:0.11268869 4:0.053803617 5:0.049544164 6:0.020101629 7:0.017560903 8:0.023389628 9:0.014795995 
1 1:0.47783099 2:0.19473196 3:0.084736598 4:0.081646841 5:0.047659509 6:0.047659509 7:0.022091766 8:0.017379886 9:0.026262938 
1 1:0.52910672 2:0.19697223 3:0.077701572 4:0.075025092 5:0.038390766 6:0.022080964 7:0.018400803 8:0.015891603 9:0.026430244 
1 1:0.59640302 2:0.17279056 3:0.087410559 4:0.055115065 5:0.038290466 6:0.017308064 7:0.010346161 8:0.014020499 9:0.0083156063 
1 1:0.47362978 2:0.20458463 3:0.10151672 4:0.072216477 5:0.048862461 6:0.032747329 7:0.0207687 8:0.018355739 9:0.027318166 
1 1:0.59171367 2:0.21221552 3:0.075666213 4:0.048920443 5:0.029371718 6:0.016922778 7:0.0139078 8:0.0082668741 9:0.0030149776 
1 1:0.63304618 2:0.21871261 3:0.070232113 4:0.043910026 5:0.019741565 6:0.0052644173 7:0.005503709 8:0.0021536253 9:0.0014357502 
1 1:0.56561808 2:0.1859105 3:0.07275144 4:0.056003545 5:0.045104121 6:0.019672131 7:0.014178113 8:0.016482056 9:0.024280018 
1 1:0.57564054 2:0.21185004 3:0.096458176 4:0.040881688 5:0.033251696 6:0.011115298 7:0.013376036 8:0.013658628 9:0.0037678975 
1 1:0.60702072 2:0.20267552 3:0.073828204 4:0.042446188 5:0.029873265 6:0.013880507 7:0.019513176 8:0.0080466707 9:0.0027157514 
1 1:0.62210163 2:0.2046374 3:0.077553034 4:0.039171189 5:0.025851011 6:0.0095707943 7:0.010064134 8:0.0075974346 9:0.0034533794 
1 1:0.37900219 2:0.18014659 3:0.12594831 4:0.079143629 5:0.066349492 6:0.060113154 7:0.030088723 8:0.045390253 9:0.033817667 
1 1:0.59019127 2:0.20765081 3:0.075919568 4:0.0424718 5:0.044237371 6:0.014320745 7:0.0088278568 8:0.0095144679 9:0.0068661108 
1 1:0.54233449 2:0.20365854 3:0.073170732 4:0.061672474 5:0.041986063 6:0.024825784 7:0.020121951 8:0.015766551 9:0.016463415 
1 1:0.62046604 2:0.20400088 3:0.074302044 4:0.042976478 5:0.029237195 6:0.0071444273 7:0.010771598 8:0.0075840844 9:0.0035172565 
1 1:0.59090008 2:0.19032514 3:0.085646312 4:0.050555115 5:0.028747026 6:0.019230769 7:0.020420301 8:0.0099127676 9:0.0042624901 
1 1:0.63727503 2:0.2189878 3:0.074042759 4:0.035511535 5:0.020775456 6:0.0073680396 7:0.0032612634 8:0.0025365382 9:0.00024157507 
1 1:0.60544686 2:0.18867368 3:0.086520499 4:0.0440468 5:0.023399862 6:0.019073837 7:0.0098318749 8:0.0091436437 9:0.013862944 
1 1:0.60624284 2:0.18613975 3:0.078465063 4:0.049732722 5:0.031786942 6:0.016800305 7:0.020141275 8:0.0085910653 9:0.0021000382 
1 1:0.66241758 2:0.18450549 3:0.084175824 4:0.032637363 5:0.01967033 6:0.0081318681 7:0.0057142857 8:0.0023076923 9:0.00043956044 
1 1:0.63223333 2:0.20962119 3:0.088659075 4:0.035091796 5:0.018359284 6:0.0061584941 7:0.00348594 8:0.0049965141 9:0.001394376 
1 1:0.57586644 2:0.19230769 3:0.09034235 4:0.054416737 5:0.029691462 6:0.02694421 7:0.010460693 8:0.0076077768 9:0.012362637 
1 1:0.40201827 2:0.20680485 3:0.10118642 4:0.076162553 5:0.061434611 6:0.046024819 7:0.036547116 8:0.039751807 9:0.030069549 
1 1:0.39865144 2:0.20737581 3:0.10760974 4:0.069217008 5:0.06364387 6:0.058965185 7:0.028966561 8:0.027177652 9:0.038392734 
1 1:0.51447713 2:0.2268597 3:0.091945172 4:0.049822886 5:0.040736177 6:0.027645156 7:0.02025258 8:0.014939165 9:0.013322039 
1 1:0.6294964 2:0.20863309 3:0.094552929 4:0.016443988 5:0.031860226 6:0.0082219938 7:0.0046248715 8:0.0051387461 9:0.0010277492 
1 1:0.40163339 2:0.21088929 3:0.11016334 4:0.092831216 5:0.061796733 6:0.037023593 7:0.031488203 8:0.032032668 9:0.022141561 
1 1:0.57742718 2:0.17524272 3:0.080501618 4:0.056796117 5:0.041504854 6:0.025566343 7:0.019822006 8:0.014967638 9:0.008171521 
1 1:0.44235859 2:0.15165877 3:0.1056195 4:0.081922817 5:0.049670708 6:0.055025543 7:0.029051517 8:0.03163661 9:0.053055949 
1 1:0.62230521 2:0.17492786 3:0.085044984 4:0.036750976 5:0.03259209 6:0.018248175 7:0.016975047 8:0.0089967747 9:0.0041588864 
1 1:0.54708286 2:0.18294061 3:0.096513347 4:0.061038171 5:0.040605165 6:0.02338927 7:0.021563342 8:0.019998261 9:0.0068689679 
1 1:0.42204382 2:0.19267707 3:0.12897659 4:0.082683073 5:0.06332533 6:0.038640456 7:0.032638055 8:0.026410564 9:0.012605042 
1 1:0.48387097 2:0.21639058 3:0.093374019 4:0.065300785 5:0.04516129 6:0.033304272 7:0.03016565 8:0.021185702 9:0.011246731 
1 1:0.43672966 2:0.1927691 3:0.12580115 4:0.072062449 5:0.055464256 6:0.038866064 7:0.034346754 8:0.031059984 9:0.012900575 
1 1:0.42630617 2:0.1983924 3:0.10164414 4:0.087833394 5:0.05991962 6:0.034928754 7:0.032882718 8:0.029229083 9:0.028863719 
1 1:0.38711624 2:0.19191581 3:0.12421236 4:0.087411181 5:0.067033114 6:0.043839657 7:0.034320955 8:0.034119855 9:0.030030835 
1 1:0.46811001 2:0.20237399 3:0.11251358 4:0.072724233 5:0.05533729 6:0.027083507 7:0.023238318 8:0.02649837 9:0.012120706 
1 1:0.41957859 2:0.1904201 3:0.133883 4:0.073681455 5:0.061902892 6:0.031671247 7:0.040701479 8:0.033503468 9:0.014657767 
1 1:0.47777271 2:0.21433136 3:0.09602921 4:0.064901871 5:0.053947969 6:0.031401187 7:0.02282063 8:0.024098585 9:0.014696486 
1 1:0.41992509 2:0.19183521 3:0.10636704 4:0.076554307 5:0.062097378 6:0.045318352 7:0.039026217 8:0.035131086 9:0.023745318 
1 1:0.36580895 2:0.20463032 3:0.10686401 4:0.088261253 5:0.076447824 6:0.04834001 7:0.046778464 8:0.036051327 9:0.026817842 
1 1:0.37972137 2:0.19593235 3:0.12292334 4:0.09558221 5:0.074424495 6:0.03777099 7:0.036579006 8:0.034940028 9:0.022126201 
1 1:0.37476047 2:0.18532713 3:0.12243362 4:0.096838215 5:0.069874076 6:0.055639201 7:0.036819053 8:0.03202847 9:0.02627977 
1 1:0.41299536 2:0.17757944 3:0.09582292 4:0.087825777 5:0.081899322 6:0.049053909 7:0.043841485 8:0.025419493 9:0.025562299 
1 1:0.48607942 2:0.18674882 3:0.093336376 4:0.081773924 5:0.055378062 6:0.032101019 7:0.026471931 8:0.021679598 9:0.016430853 
1 1:0.34426766 2:0.19387154 3:0.11857526 4:0.10449813 5:0.081974727 6:0.066588097 7:0.036338637 8:0.025928108 9:0.027957834 
1 1:0.4618922 2:0.1928383 3:0.095740671 4:0.076064832 5:0.057896721 6:0.04591029 7:0.02894836 8:0.023143611 9:0.017565021 
1 1:0.51244567 2:0.18996444 3:0.092374556 4:0.071829316 5:0.044646385 6:0.032082181 7:0.025602529 8:0.02125642 9:0.0097984986 
1 1:0.31156554 2:0.17693597 3:0.11840429 4:0.10874958 5:0.079852497 6:0.061012404 7:0.047200805 8:0.041099564 9:0.05517935 
1 1:0.46377338 2:0.2176321 3:0.10005448 4:0.074178319 5:0.056291992 6:0.025603777 7:0.029144725 8:0.023515526 9:0.0098057018 
1 1:0.33860659 2:0.18458521 3:0.12567234 4:0.096690502 5:0.076188066 6:0.064101753 7:0.043472758 8:0.037904195 9:0.032778586 
1 1:0.41053712 2:0.2 3:0.1027027 4:0.081902155 5:0.058227848 6:0.048580226 7:0.030653438 8:0.034621964 9:0.032774547 
1 1:0.38973021 2:0.19196997 3:0.10918809 4:0.087172308 5:0.055230339 6:0.042886231 7:0.047022143 8:0.042695342 9:0.03410537 
1 1:0.3825186 2:0.18976427 3:0.11612544 4:0.097628816 5:0.059314373 6:0.048744872 7:0.039287949 8:0.037688617 9:0.028927057 
1 1:0.41676234 2:0.18410211 3:0.088876883 4:0.085432566 5:0.082258391 6:0.049638684 7:0.034105491 8:0.025258324 9:0.033565206 
1 1:0.39909792 2:0.19118289 3:0.092827004 4:0.097919395 5:0.048741452 6:0.052888113 7:0.035646734 8:0.027789903 9:0.053906591 
1 1:0.42977088 2:0.19368151 3:0.10345809 4:0.08566956 5:0.066386794 6:0.037000142 7:0.02988473 8:0.029813576 9:0.024334709 
1 1:0.42592025 2:0.20406442 3:0.10544479 4:0.079831288 5:0.054064417 6:0.043788344 7:0.031748466 8:0.030214724 9:0.024923313 
1 1:0.39896694 2:0.20482094 3:0.10482094 4:0.068663912 5:0.065220386 6:0.047520661 7:0.034986226 8:0.033333333 9:0.041666667 
1 1:0.38495203 2:0.19424339 3:0.10200303 4:0.081299445 5:0.073640801 6:0.05234809 7:0.047635078 8:0.028446389 9:0.035431745 
1 1:0.45900869 2:0.20617023 3:0.10194973 4:0.069845744 5:0.061780597 6:0.029520006 7:0.029754913 8:0.028815285 9:0.013154804 
1 1:0.46689895 2:0.1957702 3:0.092537072 4:0.08321854 5:0.053237177 6:0.032250223 7:0.022931691 8:0.026010858 9:0.027145288 
1 1:0.48448018 2:0.2250374 3:0.096484667 4:0.070119671 5:0.045437547 6:0.023279731 7:0.020942408 8:0.019540015 9:0.014678384 
1 1:0.46101183 2:0.22379301 3:0.096914733 4:0.07628701 5:0.06054948 6:0.02738508 7:0.026318129 8:0.01813817 9:0.0096025607 
1 1:0.46600141 2:0.21414694 3:0.1024373 4:0.070646415 5:0.059872836 6:0.02896503 7:0.024196397 8:0.022165313 9:0.01156835 
1 1:0.36591684 2:0.18902522 3:0.11881391 4:0.10190866 5:0.062576687 6:0.055214724 7:0.041854124 8:0.034083163 9:0.03060668 
1 1:0.55367337 2:0.21441273 3:0.084043051 4:0.049883014 5:0.036406177 6:0.024426766 7:0.021993449 8:0.0099204492 9:0.005240992 
1 1:0.3697402 2:0.18087821 3:0.095412604 4:0.078921537 5:0.077678162 6:0.06157974 7:0.045350435 8:0.043256331 9:0.047182776 
1 1:0.42275281 2:0.20330056 3:0.10231742 4:0.083497191 5:0.065730337 6:0.04122191 7:0.035393258 8:0.027247191 9:0.018539326 
1 1:0.46350016 2:0.19301881 3:0.1058336 4:0.079853363 5:0.049330571 6:0.036579535 7:0.025900542 8:0.026139624 9:0.0198438 
1 1:0.37542408 2:0.20868846 3:0.11625983 4:0.095573024 5:0.071162598 6:0.039222176 7:0.039801407 8:0.027306578 9:0.026561854 
1 1:0.37940594 2:0.17260726 3:0.10818482 4:0.095973597 5:0.082310231 6:0.053333333 7:0.039867987 8:0.037029703 9:0.031287129 
1 1:0.51617032 2:0.19259322 3:0.090536735 4:0.068179879 5:0.048382968 6:0.032425975 7:0.021332878 8:0.016042324 9:0.014335694 
1 1:0.40824823 2:0.18896767 3:0.10668054 4:0.085084239 5:0.065894751 6:0.040330449 7:0.036557601 8:0.031613868 9:0.03662265 
1 1:0.41788569 2:0.20095008 3:0.12366159 4:0.076534459 5:0.05398884 6:0.036193636 7:0.028653295 8:0.037324687 9:0.024807721 
1 1:0.35779148 2:0.17319547 3:0.11606018 4:0.098362829 5:0.066547359 6:0.070988268 7:0.039636773 8:0.035394711 9:0.042022934 
1 1:0.41979653 2:0.17226344 3:0.1159642 4:0.10020653 5:0.061041842 6:0.043371835 7:0.034498585 8:0.032280272 9:0.020576761 
1 1:0.41359208 2:0.19099486 3:0.11014804 4:0.08583263 5:0.059753011 6:0.042647848 7:0.035974534 8:0.033596686 9:0.027460305 
1 1:0.46781637 2:0.20670391 3:0.094000486 4:0.063962432 5:0.059023561 6:0.049712574 7:0.025099182 8:0.01918873 9:0.014492754 
1 1:0.40979753 2:0.21013119 3:0.10942595 4:0.077576401 5:0.055888375 6:0.042996891 7:0.030408736 8:0.035337833 9:0.028437097 
1 1:0.45767217 2:0.1912203 3:0.097060008 4:0.084897302 5:0.033668949 6:0.042851389 7:0.029399919 8:0.030124849 9:0.033105115 
1 1:0.36322132 2:0.18516578 3:0.12731083 4:0.094528853 5:0.065040042 6:0.057555572 7:0.034278871 8:0.037048125 9:0.03585061 
1 1:0.48382389 2:0.1972756 3:0.095029595 4:0.067380199 5:0.040460553 6:0.050433796 7:0.023108733 8:0.031379226 9:0.011108408 
1 1:0.50037844 2:0.18829367 3:0.09788916 4:0.063325204 5:0.057270204 6:0.035236734 7:0.020435624 8:0.019594651 9:0.017576318 
1 1:0.3587422 2:0.18573351 3:0.10865043 4:0.088584363 5:0.072372446 6:0.052367552 7:0.043435703 8:0.040254497 9:0.049859293 
1 1:0.47940135 2:0.21395237 3:0.10009656 4:0.06702607 5:0.052140328 6:0.030415192 7:0.021081429 8:0.022046991 9:0.013839717 
1 1:0.41978244 2:0.17599597 3:0.10143361 4:0.086881349 5:0.069159282 6:0.043800879 7:0.035011887 8:0.031842086 9:0.036092501 
1 1:0.41975218 2:0.20497123 3:0.10709544 4:0.082091754 5:0.058194424 6:0.038796283 7:0.042852928 8:0.028839062 9:0.017406697 
1 1:0.52571478 2:0.19472826 3:0.091611574 4:0.06920237 5:0.048596205 6:0.029449644 7:0.020091011 8:0.013823302 9:0.0067828625 
1 1:0.48831821 2:0.21538907 3:0.087082448 4:0.073662869 5:0.041899981 6:0.026935702 7:0.019308747 8:0.029638926 9:0.017764047 
1 1:0.42133463 2:0.18509498 3:0.096513813 4:0.078282653 5:0.063878644 6:0.048570037 7:0.036253566 8:0.02811217 9:0.041959502 
1 1:0.46096597 2:0.20652764 3:0.095356229 4:0.070005427 5:0.049228622 6:0.040390728 7:0.027288937 8:0.036669509 9:0.013566943 
1 1:0.4679656 2:0.18360541 3:0.10847815 4:0.075478322 5:0.055818852 6:0.033877479 7:0.029840267 8:0.027733895 9:0.017202036 
1 1:0.36716941 2:0.20471107 3:0.11602553 4:0.093882393 5:0.06428289 6:0.049144213 7:0.044399254 8:0.034909337 9:0.025475908 
1 1:0.42436268 2:0.20091478 3:0.10876438 4:0.065514226 5:0.057308132 6:0.060469496 7:0.030335643 8:0.029192171 9:0.023138495 
1 1:0.45793252 2:0.21464465 3:0.098779612 4:0.070997846 5:0.058937545 6:0.035104092 7:0.023187365 8:0.024623116 9:0.015793252 
1 1:0.45521215 2:0.20115244 3:0.11434558 4:0.072887825 5:0.052832448 6:0.032477737 7:0.030232732 8:0.028885729 9:0.011973359 
1 1:0.46104091 2:0.20682912 3:0.10890493 4:0.068441637 5:0.056859206 6:0.032716606 7:0.029708183 8:0.021811071 9:0.013688327 
1 1:0.37249938 2:0.19712087 3:0.11789526 4:0.095706131 5:0.064780343 6:0.047009183 7:0.034896997 8:0.042045172 9:0.028046662 
1 1:0.39926545 2:0.20709674 3:0.11557372 4:0.069664119 5:0.062792489 6:0.047982939 7:0.033232628 8:0.039511877 9:0.024880043 
1 1:0.45107089 2:0.22326386 3:0.11343477 4:0.059421649 5:0.055671739 6:0.025311892 7:0.032955939 8:0.025384005 9:0.013485253 
1 1:0.43736628 2:0.2281731 3:0.11098074 4:0.063082338 5:0.056111533 6:0.03119608 7:0.028228311 8:0.031748223 9:0.013113396 
1 1:0.36382312 2:0.19780517 3:0.12504054 4:0.1051465 5:0.067034274 6:0.046923992 7:0.03703103 8:0.032327819 9:0.024867553 
